SVM-light Version V6.02
0 # kernel type
3 # kernel parameter -d 
1 # kernel parameter -g 
1 # kernel parameter -s 
1 # kernel parameter -r 
empty# kernel parameter -u 
9945 # highest feature index 
24812 # number of training documents 
15232 # number of support vectors plus 1 
0.034525611 # threshold b, each following line is a SV (starting with alpha*y)
-0.0052545779408258233567075023984216 83:1 111:1 166:1 190:1 266:1 301:1 329:4 342:1 364:1 405:1 506:1 534:1 575:1 591:4 599:1 671:1 673:2 726:3 904:1 1042:1 1227:1 1304:2 1377:1 1417:1 1468:1 1469:2 1496:1 1579:1 1795:2 1806:1 1820:1 2142:2 2308:1 2380:1 3081:1 3778:2 4285:1 4358:1 4567:7 4797:3 4915:2 5211:3 5237:1 6024:1 6322:5 6568:2 7000:2 7194:2 7495:1 8130:2 9936:1 #
-0.0052545779408258233567075023984216 166:1 181:1 219:1 355:1 500:1 568:1 673:2 709:1 712:1 904:1 1133:1 1207:1 1315:2 1464:1 1468:1 1499:1 1563:1 1856:1 1985:1 2423:1 2683:2 2829:1 2845:1 3203:1 3283:1 3319:1 4567:3 4797:3 5211:2 5248:1 5252:1 6024:1 6292:1 6322:6 6549:1 7495:1 7645:1 8987:1 #
-0.0052545779408258233567075023984216 190:1 449:1 590:1 717:1 951:1 1094:1 1442:1 1551:1 1782:2 2048:1 2403:1 2912:1 4532:1 4567:3 4797:1 4915:1 5650:1 6024:1 6873:1 7000:1 #
-0.0052545779408258233567075023984216 194:1 329:1 510:1 590:1 1377:2 1740:1 3200:1 3319:1 4567:4 4784:1 4797:5 4915:1 5412:1 6292:2 6322:7 6549:2 7000:1 7171:1 7495:1 #
-0.0052545779408258233567075023984216 485:1 971:1 1442:1 1488:1 4567:2 4797:2 6322:2 7194:1 #
0.0052545779408258233567075023984216 65:1 483:1 485:1 507:1 534:1 591:1 757:1 1382:1 2441:1 2829:1 2986:1 3377:1 3425:1 3784:1 3856:1 4425:1 4454:1 4567:1 4712:1 4797:4 5004:1 5005:1 5262:1 6322:3 7000:2 7034:1 7495:1 8832:2 #
0.0052545779408258233567075023984216 54:1 140:1 153:1 162:1 181:1 203:1 219:2 329:6 339:1 341:1 355:1 367:1 534:2 554:2 591:1 651:1 673:1 684:1 792:1 827:1 862:2 895:1 1028:1 1064:1 1102:1 1198:1 1304:1 1377:1 1536:1 1639:2 1740:3 1795:1 1849:1 2041:1 2275:1 2403:1 2643:1 2658:3 2683:1 2801:1 2829:2 3070:1 3319:10 3457:1 3615:1 4111:1 4188:1 4567:4 4797:5 5211:1 5220:3 5712:1 6024:5 6292:2 6322:17 6549:2 6568:5 7062:1 7495:1 8478:2 8832:1 9936:1 #
0.0052545779408258233567075023984216 16:1 190:1 377:1 485:1 494:1 534:1 714:1 1225:1 1551:1 1579:1 1781:1 3319:2 4567:4 4797:2 5237:2 6292:1 6322:6 6568:1 7062:1 7194:1 7645:1 8130:1 8478:1 #
0.0052545779408258233567075023984216 65:1 77:1 329:1 342:1 827:1 996:3 1150:2 1579:1 1636:1 3081:1 3169:1 3255:1 3337:1 4156:1 4188:1 4567:2 4797:6 5211:2 6322:7 6812:1 7062:1 7947:1 #
0.0052545779408258233567075023984216 41:1 166:1 190:2 534:1 717:1 951:1 1214:1 1377:1 1579:2 1740:1 1910:1 2631:1 2699:1 4565:1 4567:4 4797:1 6322:4 7194:1 7495:1 8832:1 9936:1 #
0.0052545779408258233567075023984216 190:1 327:1 329:1 396:1 506:1 509:1 534:1 591:1 673:1 1074:1 1488:1 1579:4 1746:1 1910:1 2057:1 2142:1 2192:1 2608:1 2699:1 3081:1 3273:1 4567:3 4797:5 4915:1 5005:1 5353:1 6024:3 6292:1 6322:8 6549:1 #
-0.0052545779408258233567075023984216 123:1 422:1 485:1 541:2 557:1 634:1 1268:1 1502:1 1530:1 1543:1 2192:2 2403:1 2423:1 2640:1 2829:1 3319:1 4567:2 4655:1 4797:4 5005:1 5237:1 5934:1 6024:2 6322:4 7034:1 7194:1 7495:2 #
-0.0052545779408258233567075023984216 29:1 77:1 81:1 132:1 140:1 194:1 240:2 246:2 256:1 323:1 342:1 364:1 380:1 509:1 534:1 557:1 597:1 662:1 678:1 685:1 687:1 712:1 726:2 757:1 936:1 1057:2 1070:1 1074:1 1101:1 1114:1 1192:2 1200:1 1248:1 1304:1 1423:1 1489:1 1549:1 1624:2 1743:1 1795:1 1844:1 1877:1 1985:1 1995:1 2099:1 2142:1 2175:1 2605:2 2683:2 2723:1 2829:1 2931:1 2979:1 3170:1 3213:1 3298:1 3319:3 3337:1 3491:1 3897:1 4285:1 4519:1 4567:10 4625:1 4797:13 5159:1 5211:2 5237:1 5298:2 5371:1 5712:1 5758:1 5772:1 5919:1 5934:1 6292:4 6322:31 6469:1 6549:11 6568:1 6873:1 7000:4 7194:3 7324:1 7495:2 7645:1 7947:1 7966:1 8130:1 8587:1 8832:2 8947:1 9936:1 #
0.0052545779408258233567075023984216 203:1 347:1 1056:1 1469:1 4567:3 4797:4 5211:2 5896:1 6322:2 6672:1 8484:1 #
0.0052545779408258233567075023984216 26:1 190:2 508:1 1442:1 2099:1 3571:1 3820:1 4567:3 4797:5 6322:3 6808:1 6847:1 8130:1 #
0.0052545779408258233567075023984216 100:1 140:1 168:1 172:1 194:1 256:1 301:1 329:2 339:3 342:1 413:1 434:1 448:9 449:1 459:1 461:1 485:1 504:1 517:1 534:1 560:1 597:1 631:4 662:1 673:2 678:1 757:1 772:2 812:1 930:1 936:1 971:1 1000:2 1083:1 1160:1 1179:1 1227:1 1364:1 1377:3 1437:2 1488:5 1493:1 1579:1 1621:1 1716:1 1774:1 1844:1 1985:1 2048:1 2095:1 2108:1 2142:1 2193:1 2243:1 2349:1 2407:1 2514:1 2549:1 2640:1 2643:3 2708:1 2731:1 2829:1 3319:1 3820:1 4282:1 4438:2 4567:43 4797:16 4862:1 4915:1 4999:1 5211:6 5237:3 6024:6 6292:6 6322:10 6549:1 6568:5 6847:1 7000:3 7194:1 7495:2 7645:1 7702:2 8093:1 8130:1 8832:3 9936:1 #
-0.0052545779408258233567075023984216 6:1 190:1 329:1 339:1 485:1 504:1 634:1 717:1 1280:1 1382:1 1551:1 1579:2 1795:1 2058:1 3319:1 4358:1 4567:2 4797:2 6322:2 6549:1 7194:2 7495:2 8437:1 9936:3 #
-0.0052545779408258233567075023984216 1:7 111:1 190:1 194:1 219:1 266:1 296:2 341:1 342:1 434:1 461:1 485:2 509:2 526:1 536:4 597:1 617:1 653:1 712:1 714:1 717:1 719:1 726:2 767:1 950:1 951:1 1056:1 1094:1 1136:1 1441:1 1455:1 1489:2 1579:1 1609:1 1694:1 1781:1 1795:1 1932:1 1993:2 2067:2 2142:1 2202:2 2219:1 2278:2 2380:1 2731:1 2755:9 2801:3 2932:5 3091:1 3181:1 3196:1 3240:1 3319:7 3428:1 3439:1 3461:1 3615:2 4188:3 4290:1 4567:38 4797:13 4862:1 4915:3 5262:2 5298:1 5353:3 5632:1 6142:1 6292:11 6322:13 6568:6 6639:1 6819:1 7000:2 7034:2 7194:6 7385:1 7707:1 8180:2 8306:1 9936:1 #
-0.0052545779408258233567075023984216 58:1 77:1 111:1 172:1 190:1 220:1 275:2 341:2 342:2 374:1 391:1 394:3 422:2 466:1 495:1 506:1 509:1 534:1 590:1 594:1 597:3 634:2 662:1 696:2 712:1 722:1 775:1 792:1 814:3 816:1 903:1 976:1 1064:1 1102:1 1114:1 1150:1 1269:1 1312:1 1319:1 1330:1 1364:1 1446:1 1455:1 1544:4 1579:2 1584:1 1883:2 1922:1 1934:1 1940:2 1942:1 1985:1 2003:1 2063:1 2081:1 2187:1 2222:1 2253:1 2485:1 2648:1 2683:2 2789:1 2825:1 2829:1 3003:1 3081:1 3169:1 3319:9 3330:9 3350:2 3381:1 3430:1 3461:1 3621:1 3772:3 3903:1 4188:2 4567:36 4720:3 4729:2 4797:13 4883:1 4901:1 4924:1 5211:1 5262:3 5919:1 6024:1 6292:7 6322:25 6403:1 6507:1 6549:16 6568:6 7000:1 7171:1 7194:4 7495:2 7779:3 7979:1 8137:1 8437:1 8832:1 8900:1 9936:2 #
0.0052545779408258233567075023984216 6:2 18:1 83:1 85:1 111:3 140:2 168:1 190:2 220:1 246:2 301:1 331:1 339:1 364:2 396:1 422:1 433:1 449:1 459:1 485:2 507:1 509:1 534:2 550:1 575:1 595:1 597:1 662:1 671:1 673:3 678:1 709:2 726:3 827:1 959:1 1102:1 1168:1 1218:1 1225:1 1304:3 1315:3 1377:2 1442:1 1455:1 1468:2 1483:1 1488:1 1489:1 1500:1 1551:2 1579:3 1609:1 1624:2 1653:1 1678:1 1731:1 1740:1 1781:1 1877:1 1956:1 1963:2 1985:1 1988:1 2048:2 2142:1 2157:1 2395:1 2396:1 2648:2 2683:1 2829:4 3081:2 3156:1 3214:1 3283:1 3291:1 3319:4 3367:1 3722:1 3961:1 4188:3 4655:1 4797:16 4915:2 5004:1 5211:8 5262:3 5353:1 5449:1 5984:2 6024:3 6164:2 6292:1 6322:26 6568:2 6871:1 7000:5 7194:2 7303:1 7495:3 7645:1 8130:1 8180:2 9699:2 9936:1 #
0.0052545779408258233567075023984216 220:1 265:1 329:3 341:1 380:1 396:1 433:1 485:1 506:1 662:1 673:1 717:1 726:1 991:1 1000:1 1207:1 1304:1 1377:1 1424:1 1437:1 1442:1 1488:1 1579:1 1688:1 1795:1 1806:1 2149:1 2931:1 4567:3 4797:6 4915:3 5225:1 5353:2 6024:3 6322:11 6568:4 #
0.0052545779408258233567075023984216 181:1 190:2 459:1 510:1 636:1 673:1 726:1 1214:1 1412:1 1437:2 1624:1 1651:1 1746:1 1795:1 1806:1 2908:1 3319:1 4567:2 4656:2 4797:15 4915:2 5371:1 6024:1 6149:1 6292:1 6322:9 6549:3 6906:1 7194:1 7495:1 8130:1 8832:1 #
-0.0052545779408258233567075023984216 190:2 220:2 504:1 726:1 844:1 1083:1 1304:2 1442:1 1468:1 1500:1 1579:2 1587:1 1606:1 1740:1 2048:1 2142:1 2643:1 4188:2 4330:1 4567:6 4793:1 4797:3 6322:5 6409:1 7000:1 7194:1 7495:3 9936:1 #
0.0052545779408258233567075023984216 190:1 329:1 391:1 483:1 591:1 601:1 673:1 904:1 997:1 1579:2 1820:1 1995:1 3319:1 4567:3 5037:1 6024:2 7000:2 7495:1 8130:1 #
0.0052545779408258233567075023984216 294:1 534:1 591:1 767:1 1551:1 1572:1 2142:1 2213:2 2237:1 2463:1 3319:2 4797:3 6322:2 9936:1 #
-0.0052545779408258233567075023984216 17:1 29:1 100:1 111:1 172:2 190:1 194:1 204:2 220:2 266:1 308:1 327:1 329:3 339:3 342:1 377:2 391:2 434:2 459:1 478:1 480:1 493:1 507:1 511:1 550:1 561:1 582:2 591:2 597:1 630:1 673:3 681:1 778:1 811:1 812:1 971:1 1043:1 1064:1 1094:1 1097:2 1117:1 1137:1 1175:1 1280:1 1319:1 1424:1 1437:1 1441:2 1543:2 1544:1 1579:3 1740:3 1743:7 1814:1 1820:1 1865:2 1910:2 1923:1 1985:1 2152:1 2308:1 2316:1 2400:1 2442:1 2680:1 2683:5 2726:1 2731:1 2807:1 2814:1 2829:1 2932:1 2986:1 3081:4 3271:1 3319:3 3369:1 3439:1 3660:1 3804:2 3809:1 4111:1 4188:1 4556:1 4567:28 4729:1 4797:42 4915:1 5005:1 5211:8 5248:2 5469:1 5985:1 6124:1 6292:4 6322:15 6337:1 6568:1 6626:1 6823:1 7000:2 7194:2 7495:1 7572:6 8484:1 8832:5 9908:1 #
-0.0052545779408258233567075023984216 6:1 18:2 81:2 84:1 166:1 172:1 194:1 199:1 203:1 209:1 242:1 329:6 339:1 342:1 347:1 349:1 367:1 394:1 448:1 466:1 478:2 506:3 557:1 597:1 603:1 631:1 673:1 688:1 689:1 730:2 767:1 929:1 969:1 1115:1 1116:1 1117:1 1146:1 1185:1 1245:1 1304:2 1374:2 1431:1 1437:3 1442:1 1464:2 1488:1 1514:1 1579:5 1672:1 1740:1 1759:1 1782:1 1820:1 1834:2 1865:1 1910:3 1932:1 1985:1 2222:2 2253:1 2411:1 2499:1 2683:3 2699:1 2801:1 2829:1 3081:1 3106:1 3264:1 3283:1 3319:4 3337:1 3369:1 3633:1 3728:2 3820:2 4111:1 4156:1 4295:1 4325:1 4567:17 4655:1 4797:41 4860:1 4915:1 5211:4 5237:5 5449:1 5650:1 5753:1 5772:2 5978:5 6024:3 6292:4 6297:2 6322:23 6500:1 6549:2 6568:3 7000:2 7194:4 7702:1 7723:2 8695:1 8832:9 9936:2 #
-0.0052545779408258233567075023984216 6:1 347:1 662:1 684:1 827:1 1116:1 1488:1 1530:1 1583:1 1795:1 1910:1 2048:1 2237:1 2643:1 2672:1 4567:2 4797:2 5004:1 5474:1 6024:1 6142:1 6322:6 6770:1 7000:1 7020:1 7194:1 #
0.0052545779408258233567075023984216 6:1 591:4 712:1 852:1 1216:1 1377:1 1468:3 1543:3 1544:1 1740:1 2048:1 2648:1 3994:1 4109:1 4282:1 4567:5 4797:1 4915:1 5005:1 5391:1 5650:1 6024:1 6292:1 6322:2 6549:2 6568:4 9040:4 #
0.0052545779408258233567075023984216 554:1 673:1 726:1 827:1 976:1 1114:2 1304:2 1442:3 1551:1 1587:2 2982:1 3319:1 3471:1 4358:1 4567:5 4656:1 4797:1 6322:4 6549:9 7194:2 7495:2 #
0.0052545779408258233567075023984216 219:1 329:1 367:1 510:1 557:1 634:1 726:1 757:1 1116:1 1248:1 1446:1 1488:1 1740:1 1910:1 1995:1 2057:1 2649:1 2829:1 3255:2 3319:1 3670:1 4285:1 4358:1 4567:11 4699:1 4797:3 5474:1 5950:1 6024:2 6322:3 6549:3 7495:1 8130:3 #
-0.0052545779408258233567075023984216 263:1 396:1 405:1 1168:1 1382:1 1579:1 3319:2 3610:1 4567:1 5005:1 5079:1 5211:1 9936:1 #
-0.0052545779408258233567075023984216 329:1 339:1 396:2 422:1 509:1 673:2 1184:1 1245:1 1417:1 1543:1 1579:3 1795:2 2003:1 2048:1 2829:1 3369:1 4567:4 4797:2 5005:1 5957:1 6322:1 7000:1 7194:1 #
-0.0052545779408258233567075023984216 6:1 77:1 83:1 111:1 134:1 181:3 204:1 329:5 339:2 393:1 466:1 480:1 495:1 499:2 506:2 510:1 534:1 540:1 557:4 591:1 609:1 629:1 631:1 636:1 673:2 712:1 767:2 816:1 827:2 908:1 930:1 969:1 1042:1 1150:1 1227:1 1304:1 1315:2 1322:1 1377:1 1441:1 1442:1 1455:1 1474:1 1488:2 1544:1 1575:1 1579:7 1740:1 2016:1 2048:1 2076:1 2108:3 2232:1 2254:1 2308:1 2403:5 2658:1 2683:4 2708:3 2723:1 2801:2 2829:3 3248:1 3319:2 3457:1 3728:3 3778:1 3815:1 3985:2 4006:1 4148:3 4454:1 4519:1 4567:38 4627:1 4656:1 4684:1 4797:30 4955:1 5211:10 5237:1 5246:1 5262:1 5474:1 5674:1 6012:1 6024:6 6292:4 6322:24 6568:1 6770:1 7000:2 7175:1 7194:3 7495:8 8180:2 8832:2 9936:2 #
-0.0052545779408258233567075023984216 6:1 18:1 36:1 98:1 168:1 172:1 190:2 194:1 261:1 277:1 308:1 312:1 322:2 329:2 331:1 342:1 364:1 367:1 373:2 377:2 405:2 414:1 433:1 434:1 448:1 466:1 478:1 483:1 485:3 506:2 510:1 554:1 561:1 580:2 594:1 597:1 609:1 634:1 653:2 655:1 667:1 671:1 684:1 803:1 827:1 862:3 903:1 951:1 1021:1 1055:1 1080:1 1132:1 1198:1 1225:1 1278:1 1304:3 1308:1 1315:2 1328:1 1363:1 1404:1 1424:1 1464:1 1468:1 1551:2 1579:9 1740:2 1795:1 1800:1 1851:1 2108:1 2120:1 2142:1 2211:1 2234:1 2265:1 2525:1 2672:1 2731:2 2829:4 2880:1 2913:1 2932:1 3012:1 3070:1 3081:1 3255:1 3283:1 3319:10 3457:1 3580:1 3685:1 3985:1 3992:1 3997:1 4326:1 4567:29 4655:1 4797:32 4915:2 4929:1 5079:1 5211:4 5248:1 5662:1 5927:1 5952:1 6024:1 6292:4 6322:24 6568:11 7000:5 7096:1 7495:3 8130:3 8832:2 9936:1 #
0.0052545779408258233567075023984216 26:1 84:1 190:4 194:1 306:1 342:2 466:3 671:1 673:1 908:1 909:1 1193:1 1442:1 1488:2 1500:1 1551:1 1716:1 1795:1 1910:1 1995:1 2048:1 2253:1 2829:1 2932:1 3069:2 3081:1 3319:1 4567:4 4797:2 4915:2 5000:1 5004:1 5546:1 6140:1 6322:6 7000:1 7707:1 8832:1 9936:3 #
0.0052545779408258233567075023984216 341:1 373:1 380:1 483:1 597:1 601:1 971:1 1441:1 1559:1 1985:1 2253:2 2446:2 3319:2 3330:1 3937:1 4567:1 4797:1 5151:2 5405:1 6292:1 6322:1 6568:1 7000:2 7345:1 #
-0.0052545779408258233567075023984216 65:1 308:1 342:1 739:1 1782:1 1910:1 2213:1 2515:1 2829:1 2880:1 3319:1 4567:1 4797:1 5005:2 5211:1 5237:2 6024:1 6549:1 7000:1 7572:1 9936:1 #
-0.0052545779408258233567075023984216 38:1 194:1 364:1 423:1 506:1 712:1 772:1 2211:1 2683:2 3319:2 4567:5 6292:1 6823:1 #
0.0052545779408258233567075023984216 111:1 203:1 506:1 557:1 591:1 634:1 667:1 712:1 717:1 726:1 730:1 991:1 1544:1 1579:2 1849:1 2048:1 2549:1 3036:1 4567:1 4797:3 4915:2 6322:4 6549:2 7000:1 7194:1 9936:1 #
-0.0052545779408258233567075023984216 26:1 38:2 62:1 77:1 118:1 123:1 169:1 190:4 209:2 215:1 228:1 282:1 329:6 339:3 396:1 433:1 448:1 459:1 465:1 485:1 501:1 510:1 534:4 557:3 560:1 571:1 634:1 636:1 671:1 673:3 702:2 757:1 772:1 778:1 803:1 909:1 951:1 991:1 997:1 1088:1 1114:1 1129:1 1168:1 1185:1 1282:1 1301:1 1304:1 1330:1 1382:1 1423:1 1424:1 1464:1 1483:1 1551:2 1579:4 1740:1 1746:1 1781:1 1910:2 1963:1 1985:4 2142:1 2154:1 2211:1 2222:1 2267:1 2316:1 2371:1 2394:1 2471:1 2549:1 2575:1 2634:1 2680:1 2683:1 2829:1 2912:1 3081:2 3169:1 3243:1 3246:1 3281:1 3337:1 3755:1 3770:1 4188:1 4278:1 4282:1 4413:1 4438:1 4567:35 4604:1 4797:26 4915:1 4993:1 5000:1 5005:1 5094:1 5151:1 5211:6 5262:1 5449:1 5546:2 5698:1 5987:1 6024:7 6292:2 6322:30 6403:1 6549:1 6568:2 6847:3 7000:3 7150:1 7194:2 7495:4 7796:1 7947:1 8738:1 8832:2 9936:2 9938:2 #
0.0052545779408258233567075023984216 190:1 329:3 339:1 391:1 534:2 557:2 591:1 612:1 673:2 712:1 726:1 757:1 863:1 1288:1 1468:2 1469:1 1774:1 1795:1 2154:1 2308:2 2643:1 2829:1 3036:1 3319:1 4567:3 4797:3 4915:2 5005:1 6024:3 6292:1 6322:2 7000:1 7034:1 8832:3 9011:1 #
-0.0052545779408258233567075023984216 987:1 1488:2 2403:1 3081:2 3167:1 3255:1 3319:1 3480:1 4567:4 4797:4 4915:1 5662:1 6292:2 6322:2 #
0.0052545779408258233567075023984216 65:1 380:1 396:1 465:1 591:1 726:1 742:1 950:1 971:1 1064:1 1150:1 1305:2 1464:1 1743:1 1781:1 2142:1 2213:1 2334:1 2683:1 2807:1 2932:1 3265:1 3319:2 4567:6 4797:5 5107:1 5211:2 5449:1 6322:7 6568:1 7062:1 7194:2 7947:1 8832:1 #
0.0052545779408258233567075023984216 190:1 339:1 510:1 673:1 792:1 827:1 1315:1 1322:1 1442:1 2048:1 2142:1 3081:1 4567:1 4797:2 4915:3 5162:1 6024:2 6292:1 6322:2 6549:1 7000:2 7194:1 8832:1 9936:1 #
0.0052545779408258233567075023984216 6:2 480:1 656:1 853:1 1179:1 1193:1 1330:1 1579:2 1740:1 2683:1 2801:2 2829:1 3319:2 3381:1 4567:1 5474:3 6322:5 6568:1 7000:1 7194:1 8130:1 #
0.0052545779408258233567075023984216 190:1 380:4 422:1 510:1 534:1 662:1 712:1 726:1 1304:1 1543:1 1579:2 1743:4 1795:1 2829:1 2880:1 2912:1 3994:1 4394:2 4567:1 5262:1 6292:1 6322:3 6568:1 7194:1 9040:2 #
0.0052545779408258233567075023984216 18:1 111:1 433:1 550:1 712:1 717:1 927:1 991:1 1488:3 1579:1 2845:1 3081:1 3319:2 4567:1 4915:1 6024:1 6164:2 6322:5 7000:1 7702:1 #
0.0052545779408258233567075023984216 80:1 172:1 459:1 656:1 673:1 726:1 1074:1 1579:1 1898:1 1985:1 1994:1 2829:1 4565:1 4797:3 4915:3 5151:1 6322:1 7495:1 7707:1 9936:1 #
0.0052545779408258233567075023984216 190:1 266:1 329:2 342:1 485:1 506:1 681:1 717:1 812:1 908:1 1097:1 1330:1 1579:2 1795:1 1806:1 1910:1 2237:1 2515:1 3264:1 4314:1 4797:3 4915:1 5005:1 6292:1 6322:3 6568:1 7000:2 7194:1 7572:1 #
0.0052545779408258233567075023984216 190:3 518:1 528:1 634:1 662:1 1168:1 1304:1 1315:1 1382:1 1579:1 1877:1 1932:1 2293:1 3255:1 3674:1 4207:1 4358:1 4797:1 5211:2 6024:3 6322:7 7194:2 #
0.0052545779408258233567075023984216 181:2 190:3 329:1 483:1 575:1 673:3 1056:1 1267:1 1339:1 1377:2 1500:1 1544:1 1579:1 3081:1 3319:1 3457:1 4567:1 4655:1 4844:1 5005:1 5107:1 6024:2 6322:3 8832:1 9936:1 #
0.00095393178188366684576438014886435 54:2 67:1 83:1 111:2 168:1 181:1 194:2 199:2 203:5 204:1 219:2 223:2 294:1 317:1 329:1 342:1 391:1 396:2 459:1 465:2 466:1 473:1 506:2 519:1 534:2 540:1 557:2 591:1 634:1 653:1 654:1 655:1 671:1 673:1 712:1 757:1 827:1 834:1 930:1 1064:2 1084:1 1138:1 1149:1 1163:2 1216:1 1225:1 1295:1 1469:1 1483:2 1489:1 1501:2 1551:3 1579:2 1624:1 1653:1 1781:1 1808:1 1865:1 1910:2 1995:2 2099:1 2108:2 2157:1 2403:1 2423:2 2658:1 2683:1 2699:1 2829:3 2865:1 2979:1 3169:1 3264:1 3319:3 3538:2 3826:3 4188:3 4450:1 4567:40 4637:1 4729:1 4797:38 4915:2 5211:7 5419:1 5601:1 5934:1 5942:1 6194:1 6292:6 6322:31 6505:2 6568:3 6636:1 7000:4 7194:6 7495:3 7566:1 7979:2 8130:2 8832:8 8894:2 9928:1 #
0.0052545779408258233567075023984216 98:1 132:1 329:1 339:1 591:1 936:1 1304:1 1308:1 1417:1 1543:1 1579:3 2213:1 2801:1 3065:1 3081:1 3319:1 3337:1 3778:1 4567:1 4797:1 5934:1 6322:1 6568:1 7000:1 7194:1 #
0.0052545779408258233567075023984216 80:1 190:1 329:2 827:1 1304:1 1442:1 1579:2 1746:1 2057:1 2142:1 2683:1 2932:1 3319:4 4111:1 4567:1 4797:2 6024:1 6444:1 7495:1 9240:1 #
-0.0052545779408258233567075023984216 275:1 485:1 510:1 673:1 971:1 1315:1 1382:1 1746:2 1781:1 1942:1 2057:4 2643:1 3167:1 3264:1 4567:2 5005:1 5262:1 5934:1 6140:1 6292:1 6322:2 7495:2 8093:1 9936:1 #
-0.0052545779408258233567075023984216 862:1 1489:1 1910:1 2142:1 2643:1 2833:1 3319:1 4567:1 7194:1 7495:1 9699:1 #
0.0052545779408258233567075023984216 308:1 329:3 380:1 433:1 591:1 628:1 673:1 709:2 1442:1 1468:1 1579:1 1689:1 1743:1 1781:1 1820:1 2683:1 4567:1 6322:3 6476:1 8437:1 8832:1 #
-0.0052545779408258233567075023984216 111:2 132:1 172:1 199:2 323:1 329:1 393:1 459:1 478:1 483:1 506:2 507:1 534:1 591:1 634:1 757:1 944:1 1315:1 1437:1 1488:2 1579:2 1653:1 1743:1 1781:1 1910:1 2829:2 3081:1 3169:1 3255:1 3319:1 3369:1 3557:1 4567:7 4747:1 4797:2 4915:1 6024:1 6322:7 6469:1 6549:3 6568:3 7062:1 7495:1 9938:1 #
-0.0052545779408258233567075023984216 111:1 342:1 550:1 709:1 726:1 827:1 1417:1 1500:1 1567:1 1898:1 2213:1 2765:1 4915:1 6292:1 6322:1 #
-0.0052545779408258233567075023984216 199:1 329:2 377:1 396:1 485:1 597:1 634:1 673:1 726:1 837:1 852:1 969:1 971:1 1026:1 1028:1 1043:1 1218:1 1304:2 1315:1 1354:1 1579:1 1740:1 1963:1 2683:2 2829:1 2982:1 3257:1 3319:2 3439:1 4181:1 4335:1 4567:4 4797:7 5343:1 5474:1 6261:1 6292:2 6322:5 6549:2 6568:4 7000:1 7194:1 7440:1 7966:1 #
-0.0052545779408258233567075023984216 364:1 534:2 726:1 971:1 1035:1 2643:1 3319:1 4188:1 4797:1 6322:1 #
-0.0052545779408258233567075023984216 47:1 111:2 194:1 391:1 396:1 416:1 422:1 485:1 510:2 534:2 591:1 1282:1 1308:1 1312:1 1547:1 1579:1 1995:1 2587:1 2807:1 2829:1 3319:3 4567:6 4656:1 4797:2 4831:1 5005:1 5211:5 5474:1 5489:1 6024:1 6292:1 6322:2 7000:1 7194:1 8130:2 #
0.0052545779408258233567075023984216 29:1 48:1 194:1 329:2 506:2 510:1 534:1 557:1 591:1 597:1 622:1 726:2 730:1 782:1 862:1 1280:1 1304:1 1382:1 1579:1 1784:1 3169:1 3367:1 4565:1 4567:2 4797:1 4915:1 5005:1 5211:1 5262:1 6024:4 6322:2 7000:1 7194:1 7495:1 7707:1 #
0.0052545779408258233567075023984216 367:1 396:1 550:1 634:1 690:1 712:1 1488:6 2108:1 2296:1 2643:1 4567:2 4655:1 6322:1 6823:1 8487:1 #
0.0052545779408258233567075023984216 190:1 478:1 630:1 1225:1 1267:1 1464:1 1864:1 2683:1 3319:1 3670:1 4567:8 4699:1 4797:5 5211:2 6322:2 7000:1 9936:1 #
-0.0052545779408258233567075023984216 172:1 301:1 341:1 483:1 518:1 575:1 591:1 673:1 1377:1 1382:1 1417:1 1740:1 2057:1 2142:1 2149:1 3319:2 5005:1 5211:2 5240:1 6322:2 7000:2 #
-0.0052545779408258233567075023984216 329:1 465:1 634:1 673:1 1084:1 1184:1 1225:1 1315:1 1468:1 1606:1 1624:1 2048:3 2142:1 2395:1 3214:1 4567:5 4797:2 4915:2 5005:1 5359:1 6292:1 6322:1 7495:3 #
0.0052545779408258233567075023984216 172:1 291:1 329:2 391:1 422:1 465:1 534:1 591:1 611:1 673:2 991:1 1168:1 1417:1 1441:1 1468:1 1579:1 1743:2 1820:1 2213:1 4567:3 4797:2 5211:1 5279:1 6292:3 7000:1 8027:1 8130:1 8832:2 #
0.0052545779408258233567075023984216 422:2 712:2 757:2 1184:4 1442:2 2785:2 4413:2 4567:6 4735:2 4797:2 6024:4 #
-0.0052545779408258233567075023984216 111:2 190:1 396:2 534:1 591:1 673:2 726:1 730:1 827:1 904:1 1083:1 1150:1 1304:1 1315:1 1437:1 1468:1 1489:1 1740:1 1988:1 2048:1 2108:1 2308:1 2699:1 3319:1 4567:1 4797:2 5005:1 6024:2 6322:6 6549:3 6568:1 8130:1 #
0.0052545779408258233567075023984216 98:1 134:1 329:1 1254:1 1488:8 1579:2 1782:1 2395:1 2471:1 4567:2 4797:4 4915:1 6322:2 6549:1 7062:1 9699:1 #
0.0052545779408258233567075023984216 181:3 377:1 495:1 1117:1 1216:1 1288:1 1544:1 1579:1 2537:1 2640:1 3081:1 3264:1 3319:1 3369:1 3692:1 4181:1 4797:1 4915:1 5151:1 6024:1 6292:1 6322:5 6549:1 6568:2 7194:2 7495:1 8130:1 9936:3 #
-0.0052545779408258233567075023984216 199:1 509:2 3319:1 4797:1 #
0.0052545779408258233567075023984216 190:2 342:1 534:1 591:1 757:1 908:1 1424:1 1489:1 1543:1 1579:1 3319:2 4567:2 4797:3 4915:1 5005:2 5211:3 5237:1 5753:1 6024:1 6322:3 6568:1 7000:1 7495:1 #
0.0052545779408258233567075023984216 329:1 342:2 367:1 396:1 434:2 576:1 634:1 673:2 1043:2 1117:2 1374:1 1579:5 2349:1 3319:2 4330:1 4567:1 4797:1 5005:1 6292:1 6322:2 8130:1 9936:1 #
-0.0052545779408258233567075023984216 391:1 709:2 1225:1 1288:1 1954:1 4797:4 5211:1 7062:1 7495:1 8130:1 #
0.0052545779408258233567075023984216 181:1 1200:1 1544:2 1549:1 2932:1 4567:2 4915:1 6322:1 6568:1 #
0.0052545779408258233567075023984216 190:1 461:1 495:1 1083:1 1304:2 1315:1 1432:1 1464:2 1468:1 1496:1 1579:1 2222:1 2278:1 2538:1 2801:2 2932:1 2979:1 5005:1 5237:1 6322:6 6568:1 7000:3 7194:1 #
-0.0052545779408258233567075023984216 6:1 190:1 329:1 485:3 506:1 534:3 591:2 745:1 1280:1 1442:1 1468:1 1500:1 1551:1 1740:1 2649:1 2829:3 3070:1 3319:1 3722:1 4111:1 4567:1 4797:3 6164:2 6322:1 #
0.0052545779408258233567075023984216 65:1 120:1 181:1 190:1 284:1 396:1 459:1 480:1 550:1 654:1 717:1 730:1 778:2 852:1 971:1 1105:1 1117:1 1193:1 1312:1 1579:2 1849:1 1865:1 1963:1 2157:1 2213:1 2463:1 2683:1 2912:1 3055:1 3169:1 3319:1 3557:1 4111:1 4282:1 4797:1 5252:1 5474:2 6292:1 6322:6 6549:3 7000:1 7194:1 8832:1 9936:2 #
-0.0052545779408258233567075023984216 422:1 495:1 534:2 1442:1 1551:1 2640:1 5005:1 9936:1 #
-0.0052545779408258233567075023984216 16:1 65:1 67:1 190:1 396:1 485:1 509:1 534:1 550:1 712:2 726:1 1239:1 1315:1 1985:1 2120:1 2142:1 2325:1 2354:1 2423:1 2640:1 2643:2 2683:1 3319:3 3369:1 4567:5 4797:2 5005:1 5079:1 6024:1 6322:2 6549:1 7572:1 8130:2 9938:1 #
-0.0052545779408258233567075023984216 396:1 550:1 601:1 1074:1 1132:1 1160:1 1263:1 1277:1 1417:1 1551:1 1910:2 2057:1 4567:6 4797:3 6322:1 9101:1 #
0.0052545779408258233567075023984216 224:1 377:1 504:1 534:1 671:1 712:1 836:1 909:1 1138:1 1304:1 1424:1 1579:1 1692:1 2571:1 2672:1 3319:1 4285:1 4358:1 4567:1 4892:1 6024:1 6292:2 6322:2 6438:1 6549:5 6663:1 7194:1 7566:1 #
0.0052545779408258233567075023984216 111:1 190:3 329:3 493:1 510:1 534:2 571:1 591:3 726:1 986:1 1245:1 1377:1 1499:1 1579:3 1606:1 1995:1 2157:1 2683:1 2801:1 3568:1 4567:2 4712:1 4797:4 4915:1 6024:4 6322:9 7000:1 7455:1 7495:1 7702:1 #
-0.0052545779408258233567075023984216 203:2 422:1 461:1 534:2 591:1 673:1 726:1 1442:1 1488:1 1820:1 2095:1 2142:1 2640:1 2829:1 2982:1 3283:1 3674:1 4797:5 4860:1 5262:1 6292:2 6322:4 7495:1 #
-0.0052545779408258233567075023984216 111:2 329:1 339:1 342:1 591:1 656:1 662:1 726:1 1184:1 1304:1 1315:1 1441:1 1468:1 1579:2 1795:4 3273:1 3994:1 4567:1 4797:1 5811:1 6292:1 6322:1 6568:2 7000:1 7062:2 7495:1 #
-0.0052545779408258233567075023984216 294:1 534:1 1254:1 1364:1 1551:1 1579:2 1716:1 1910:1 2142:1 2678:1 3430:1 4188:1 4282:1 4567:1 4797:4 5211:4 5753:1 6322:1 7000:1 9936:1 #
0.0052545779408258233567075023984216 190:1 347:1 528:1 767:2 1094:1 1304:2 1382:1 1579:1 1624:1 1898:1 1956:1 2192:1 3069:1 3081:1 3381:1 4567:2 4655:2 6024:2 6322:2 7020:1 8130:1 #
-0.0052545779408258233567075023984216 83:1 367:1 461:1 1304:4 1382:1 1441:1 1468:2 1814:1 2425:1 2643:2 3255:1 3265:2 3425:1 4567:5 4797:2 5193:1 5211:6 5220:1 6568:1 7643:1 8760:1 8832:1 #
-0.0052545779408258233567075023984216 339:1 485:1 534:2 575:1 726:1 1026:1 1488:1 1910:1 2211:1 2829:1 3786:2 4567:1 4677:1 4797:6 5211:1 5474:1 6322:1 6549:3 7062:1 8437:1 #
0.0052545779408258233567075023984216 190:2 342:1 534:1 1432:1 1544:2 1579:1 2463:1 4567:2 5005:1 6322:2 8832:1 #
0.0052545779408258233567075023984216 83:1 134:1 422:1 433:1 461:1 510:1 634:3 1184:1 1282:1 1382:1 1579:1 1721:1 1963:1 2829:1 3287:1 3319:1 3451:1 4111:3 4565:1 4567:2 4797:2 4860:1 5005:2 6024:2 6164:1 6302:1 6322:4 7000:2 7194:2 9936:4 #
0.0052545779408258233567075023984216 329:2 341:1 342:1 634:1 673:6 726:2 1043:1 1193:1 1267:1 1442:1 1446:1 1500:1 1544:1 1551:1 1963:1 1994:1 3319:2 3367:1 4567:3 4797:2 4915:2 5005:1 6024:3 6292:1 6322:6 7000:1 7495:1 9699:1 #
-0.0052545779408258233567075023984216 54:1 726:2 757:1 1377:1 1579:2 1806:1 1831:1 1910:1 1952:1 4109:1 4326:1 4567:3 5300:1 5475:1 6322:1 6568:3 7062:1 #
0.0052545779408258233567075023984216 166:1 266:1 364:1 396:1 1322:1 1851:1 2354:1 2834:1 3319:1 4567:1 4797:1 6024:1 6322:1 9936:1 #
0.0052545779408258233567075023984216 190:1 493:1 1064:1 1488:1 1500:1 1579:1 1738:1 1877:1 2142:1 3319:1 4567:1 4797:2 5005:1 6024:1 6292:1 6322:1 7194:3 9699:1 #
-0.0052545779408258233567075023984216 172:1 203:1 465:1 493:1 509:1 557:1 591:1 991:1 996:1 1304:1 1449:1 1551:1 1782:1 2048:1 2142:1 4567:2 4797:5 4860:1 5211:2 6322:1 #
0.0052545779408258233567075023984216 84:1 199:1 266:1 726:2 1057:1 1579:1 1910:1 2683:2 2734:1 3319:2 4111:1 4567:4 4915:1 5353:1 6024:1 7000:1 #
0.0052545779408258233567075023984216 190:4 329:1 422:1 1993:1 4567:1 6024:1 6322:3 6770:2 #
0.0052545779408258233567075023984216 36:1 367:1 971:1 1114:1 1288:1 1304:2 1305:2 1579:1 1766:1 1795:1 3319:1 3878:1 4111:1 4358:2 4567:2 6024:3 6322:4 6568:1 7194:1 8832:1 #
-0.0052545779408258233567075023984216 190:1 219:1 342:2 347:1 448:5 591:1 662:1 726:1 971:1 1184:1 1304:1 1308:1 1740:1 1912:1 1963:1 2525:1 2932:1 3070:1 4567:4 5079:1 5211:1 5248:1 6024:1 6322:2 6847:1 7000:1 8832:1 9936:1 #
0.0052545779408258233567075023984216 190:1 712:2 1035:1 1304:1 1442:1 1579:2 4567:2 4797:1 4915:2 5260:1 6322:6 7572:1 8180:1 #
0.0052545779408258233567075023984216 329:3 1146:1 1168:1 1441:1 1442:1 1740:3 2057:1 2213:1 4567:1 4729:1 4797:1 4915:1 5005:1 6024:1 6322:4 #
-0.0052545779408258233567075023984216 181:2 396:1 448:1 485:1 673:1 726:1 1377:1 1551:1 1579:5 1740:1 1781:1 2528:1 3167:1 4153:1 4797:2 6322:2 6568:1 7194:1 8130:1 #
-0.0052545779408258233567075023984216 203:1 534:2 557:1 673:2 726:1 757:1 837:1 1064:1 1435:1 1442:1 1488:1 1740:1 1795:1 2076:1 2213:2 2380:1 2640:1 2688:1 3169:1 3491:1 4111:1 4188:1 4567:4 4797:3 5005:3 5262:1 6024:1 6322:3 7000:1 7175:1 7316:1 #
0.0052545779408258233567075023984216 111:1 329:1 342:1 422:2 506:1 561:1 1473:1 1579:1 1740:1 4567:1 4797:1 8832:2 #
0.0052545779408258233567075023984216 65:1 339:1 422:1 510:1 560:1 568:1 634:1 1157:1 1304:2 1375:1 1469:1 2371:1 2699:1 2741:1 2825:1 2829:1 3081:1 4567:1 6322:2 7000:1 8832:1 #
-0.0052545779408258233567075023984216 199:1 416:1 510:1 534:2 562:1 591:1 621:1 678:1 714:1 772:1 1084:1 1282:1 1624:1 2048:1 2785:1 3069:1 3319:3 4034:1 4567:4 4797:3 6322:2 6549:2 6568:3 7277:1 #
-0.0052545779408258233567075023984216 194:1 199:1 391:1 448:2 485:2 509:1 717:1 991:1 1150:2 1245:1 1315:1 1377:1 1740:1 2048:1 2463:1 3081:2 4567:4 4797:2 6322:2 7000:1 7495:1 7702:1 8130:1 #
0.0052545779408258233567075023984216 283:1 317:1 329:3 339:1 465:1 534:1 673:1 997:1 1304:2 1488:1 1579:1 1740:1 1795:1 1877:1 2471:1 2699:1 2785:1 3264:2 4567:3 4797:1 5449:1 6024:1 6322:3 6549:2 7194:2 8437:1 #
0.0052545779408258233567075023984216 634:1 717:1 1116:1 1468:1 1579:1 1985:1 2076:1 2142:1 2822:1 2829:1 2912:1 3319:1 5079:2 6292:2 6322:1 7194:2 #
-0.0052545779408258233567075023984216 190:2 466:2 485:1 534:2 673:1 1117:1 1269:1 1304:1 1551:1 1579:2 1746:2 2048:1 2057:1 2643:2 2829:1 4243:1 4567:1 4797:1 5005:1 6568:2 7194:1 7495:1 8137:1 9936:1 #
0.0052545779408258233567075023984216 111:1 190:1 329:1 575:1 597:1 673:1 712:1 1245:1 1301:1 1315:1 1333:1 1412:1 1579:1 1653:1 2411:1 2452:1 2683:2 2801:1 2845:1 2979:1 3994:2 4130:1 4188:2 4567:2 4625:1 5934:1 6292:1 6322:5 6549:1 7000:1 7194:3 7259:1 7355:1 7495:2 #
-0.0052545779408258233567075023984216 111:2 329:1 339:1 342:1 591:1 656:1 662:1 726:1 1184:1 1304:1 1315:1 1441:1 1468:1 1579:2 1795:4 3273:1 3994:1 4567:1 4797:1 5811:1 6292:1 6322:1 6568:2 7000:1 7062:2 7495:1 #
-0.0052545779408258233567075023984216 109:1 301:2 329:1 342:1 478:1 510:1 534:1 575:1 673:2 714:1 1455:1 1502:1 1781:1 1844:1 2095:1 2099:1 2403:1 2640:1 2789:2 3439:1 3538:1 4536:1 4567:6 4797:5 5919:1 6292:1 6322:5 6549:6 6754:1 7000:1 7194:1 7645:1 7723:1 8832:2 9040:2 #
0.0052545779408258233567075023984216 678:1 681:1 717:1 805:1 1043:1 1319:1 1544:1 2354:1 3081:1 3319:1 4567:2 4797:1 4915:1 6322:1 7194:1 #
-0.0052545779408258233567075023984216 111:1 186:1 190:1 347:1 396:1 591:1 684:1 806:1 827:3 1184:1 1377:1 1543:1 1551:1 1579:2 2057:1 2142:4 2829:1 3319:1 4567:1 4797:4 5005:1 5211:2 6292:2 6322:1 6672:2 7194:3 #
0.0052545779408258233567075023984216 190:1 534:1 1364:1 2683:1 4567:1 6322:1 8832:1 #
0.0052545779408258233567075023984216 194:1 367:1 449:1 534:1 1282:1 1442:1 2683:1 2912:1 3081:1 3319:1 4567:1 6322:1 8180:1 #
0.0052545779408258233567075023984216 199:1 331:1 391:1 510:1 591:1 976:1 1305:2 1312:1 1462:1 1488:1 1544:2 1579:3 2142:1 2233:1 2825:1 3069:1 3081:3 3610:1 4567:5 4729:1 6235:1 6322:3 6568:2 7495:1 9936:1 #
-0.0052545779408258233567075023984216 329:1 339:1 367:2 504:1 534:1 726:1 827:1 862:1 1043:1 1056:1 1469:1 2825:1 3319:1 4656:1 4797:2 4862:1 4915:1 5211:1 6549:9 7000:2 7645:1 8832:1 #
-0.0052545779408258233567075023984216 6:1 140:1 190:3 534:1 550:1 673:1 1315:1 1544:1 1781:1 2048:1 2394:2 2499:1 2640:1 2648:1 2829:2 3660:1 4567:2 4747:1 4797:2 5211:1 6292:1 6322:2 7495:2 9936:1 #
-0.0052545779408258233567075023984216 168:1 342:1 434:1 478:1 495:1 591:1 673:1 709:1 971:1 1225:1 1551:1 1579:1 1653:1 1746:1 1774:2 1795:2 2057:1 2829:1 3255:1 3319:1 4567:1 4797:2 6024:1 6164:1 6322:1 6549:1 6626:1 7000:1 9699:1 9936:1 #
-0.0052545779408258233567075023984216 83:1 339:1 534:3 595:1 1377:1 1501:1 1579:1 1587:1 1922:1 2213:2 2829:4 3116:2 3319:1 4567:2 4797:2 4915:2 5211:1 6322:1 6438:1 8027:1 #
0.0052545779408258233567075023984216 181:1 186:1 314:1 329:1 339:1 342:1 364:1 377:1 391:1 422:1 506:3 534:1 591:1 664:1 673:2 712:1 1304:1 1404:1 1423:1 1442:1 1489:1 1579:2 1740:2 1795:1 1963:1 2257:1 2396:1 3319:3 4156:1 4567:4 4797:7 4915:2 5211:1 5248:2 6024:2 6322:1 6672:1 7000:1 7175:1 7194:2 8180:1 8832:2 #
-0.0052545779408258233567075023984216 74:1 181:2 194:1 422:1 465:1 504:1 534:2 537:1 576:1 628:1 673:3 971:1 1184:1 1579:1 1624:1 1740:1 2192:1 2213:1 2423:1 2829:1 3264:1 3319:2 3369:1 4567:3 4655:1 4729:1 4797:3 4915:1 5005:1 6292:1 6322:3 6372:3 6770:1 7000:1 7062:1 #
0.0052545779408258233567075023984216 194:1 219:1 329:1 422:1 495:1 681:1 812:1 828:1 882:1 1225:1 1245:1 1377:1 1398:1 1579:2 1815:1 2048:1 2057:2 2142:1 2308:1 2353:1 2683:1 2829:1 3080:1 4603:2 4915:1 5474:1 6292:1 6322:6 7000:1 9936:1 #
0.0052545779408258233567075023984216 38:1 111:1 329:1 339:1 504:1 1442:1 1543:1 1820:1 3319:1 3369:1 6024:1 7495:1 8606:1 #
0.0052545779408258233567075023984216 630:1 1579:1 1815:1 1834:1 2108:1 2683:1 2829:1 3369:1 3542:1 3836:1 4330:1 4567:1 4655:1 4797:1 5005:1 5262:1 5753:1 6292:1 6322:2 7194:1 7572:1 #
-0.0052545779408258233567075023984216 54:1 631:1 671:1 1011:1 1043:1 1304:1 1412:1 1904:1 1985:1 2222:1 2423:1 2643:2 2816:1 2829:1 3255:1 3319:1 4567:2 4797:4 5130:1 5211:2 6322:3 7000:1 7572:1 8093:2 #
0.0052545779408258233567075023984216 631:1 767:1 2057:1 2688:1 3070:1 3081:1 3722:1 4655:1 5211:1 6292:1 6322:1 7495:1 #
0.0052545779408258233567075023984216 199:1 1377:1 3081:1 3319:1 3324:1 4006:1 6292:1 6322:1 6358:1 #
-0.0024659570303096189219926870350719 203:1 329:1 347:1 396:2 459:1 500:1 591:1 726:2 1304:1 1382:1 1488:2 1551:2 1579:1 1624:1 1735:1 1952:1 1963:1 2048:1 2108:1 2680:1 2683:2 2829:1 4188:2 4567:9 4797:6 5211:1 6024:1 6292:4 6322:4 6568:2 7067:1 7194:2 7495:3 8832:1 9908:1 9936:1 #
-0.0052545779408258233567075023984216 67:1 203:1 294:1 296:1 557:2 597:1 651:1 1214:2 1225:1 1364:1 1377:1 1441:1 1579:3 1584:1 1606:1 1680:1 1923:1 2109:1 2142:1 2213:1 2237:1 2282:1 2403:1 2672:1 3214:1 3319:2 4567:1 4797:2 5753:1 6024:1 6294:1 6833:2 7495:1 9936:1 #
-0.0052545779408258233567075023984216 181:1 329:1 339:1 483:1 534:1 591:1 673:1 757:2 1288:1 1315:1 1377:1 1417:1 1442:2 1488:1 1543:1 1740:1 1795:1 2048:1 2829:1 3070:1 4797:2 5151:1 6024:3 6322:1 7000:2 7062:1 7385:1 7495:1 8180:1 #
-0.0052545779408258233567075023984216 203:1 483:1 534:2 591:1 656:1 1268:1 1579:3 1624:1 1740:1 1781:1 2056:1 2237:1 2643:1 2683:1 3247:1 3319:1 4567:1 4797:1 5005:1 5079:1 5353:1 5934:1 6322:2 7194:1 7575:1 7979:1 9936:1 #
0.0052545779408258233567075023984216 181:1 190:2 307:1 377:1 622:1 757:1 1043:1 1468:1 1743:1 1865:1 1995:1 2683:1 2699:1 2801:1 3081:1 3120:1 3185:1 3255:1 3257:1 3319:2 4567:3 4797:3 5237:1 6322:5 7000:1 7194:1 #
0.0052545779408258233567075023984216 58:1 473:1 478:1 673:1 722:1 1035:1 1304:2 1442:1 1464:1 1544:2 1579:1 1624:1 2801:1 2932:1 3273:1 3439:1 4567:3 4797:2 5262:1 6322:5 6568:2 7000:2 7947:1 8832:1 #
-0.0052545779408258233567075023984216 140:1 203:1 504:1 554:1 673:1 726:1 909:1 927:1 1193:1 1442:2 1551:1 1795:1 1820:1 3264:1 3319:1 4567:1 4797:1 4846:1 4915:2 6322:3 7000:2 7495:1 8832:1 9936:1 #
-0.0052545779408258233567075023984216 203:1 377:1 485:1 678:1 681:1 709:1 827:1 1315:1 1377:1 1442:2 1469:1 1488:1 1579:1 1781:1 1820:1 2095:1 3319:1 4444:1 4567:4 4797:2 4915:1 6322:2 7000:2 7034:1 7062:1 7101:1 #
0.0052545779408258233567075023984216 1305:2 3081:2 4567:1 4797:1 #
0.0052545779408258233567075023984216 132:1 347:2 405:1 416:1 478:1 557:1 561:2 612:1 673:1 862:1 888:1 1102:2 1280:1 1304:1 1315:1 1468:1 1579:1 1624:1 3319:1 3961:1 4567:2 4797:3 5004:2 5211:1 6024:2 6292:1 6322:4 6573:1 6823:3 7194:3 7495:1 #
-0.0052545779408258233567075023984216 190:1 199:1 219:2 342:1 480:1 726:2 1117:1 1184:3 1304:2 1910:1 2396:1 2591:1 4567:3 4797:3 5495:1 6302:1 6322:3 6770:3 9699:1 #
-0.0052545779408258233567075023984216 77:1 597:1 662:1 673:1 959:1 1101:1 1168:1 1367:1 2048:1 2057:1 3319:1 3480:1 3568:1 3924:1 4496:1 4567:3 4797:2 5712:1 6024:1 6322:1 7000:1 7062:1 7194:1 7495:2 #
0.0052545779408258233567075023984216 194:1 329:1 339:1 730:1 971:1 1319:1 1579:1 2683:1 4655:1 4797:2 5005:1 6292:1 7000:1 #
0.0052545779408258233567075023984216 25:1 1488:1 2403:1 2849:1 3265:1 3557:1 6322:1 #
-0.0052545779408258233567075023984216 367:2 422:1 459:1 506:1 534:1 575:1 634:1 673:2 772:1 976:1 1464:1 1579:1 1720:1 1877:1 2683:1 2765:1 3081:1 4797:4 5211:2 6322:1 7194:1 7979:1 #
-0.0052545779408258233567075023984216 6:1 140:1 329:2 478:1 554:1 608:1 908:1 1473:1 1653:1 2932:1 3369:1 4567:1 4797:3 5079:1 5650:1 6568:1 7833:1 8180:1 #
-0.0052545779408258233567075023984216 100:1 134:1 329:1 391:1 448:1 478:1 485:1 510:1 591:1 757:1 908:1 971:1 1157:1 1339:1 1441:1 1468:1 1543:1 1579:1 1995:1 2157:1 2237:1 2396:1 4567:3 4797:3 4915:1 5005:1 5211:1 5730:1 6024:1 6292:1 7000:1 #
-0.0052545779408258233567075023984216 111:2 140:1 203:1 329:1 485:1 500:1 550:1 649:1 717:1 827:1 971:1 1057:1 1093:1 1168:2 1207:1 1322:1 1417:1 1740:1 2157:1 2296:1 2683:2 3350:1 3699:1 4567:4 4797:3 5005:1 5211:1 6024:2 6214:1 6322:3 7000:1 7303:1 7979:1 8832:1 9688:1 #
0.0052545779408258233567075023984216 83:1 190:1 308:1 329:1 382:1 396:1 405:1 662:1 726:1 1182:1 1382:1 1442:2 1488:1 1579:1 1606:1 1820:1 1910:1 2157:1 2683:1 2829:1 3425:1 3755:1 4413:1 4567:4 4797:2 4844:1 5262:1 5811:1 6024:1 6292:1 6302:1 6322:1 6672:1 7171:1 7194:1 7979:2 #
0.0052545779408258233567075023984216 1382:1 1579:1 1865:1 4567:1 6322:4 7194:1 7495:1 #
-0.0052545779408258233567075023984216 190:1 199:1 311:1 331:1 433:1 483:1 495:1 673:1 1207:1 1579:1 2211:1 2537:1 3319:1 3439:1 4567:1 4797:3 5211:2 5214:1 5262:1 6322:3 6568:2 7000:2 #
0.0052545779408258233567075023984216 111:1 591:1 1543:1 1736:1 1910:1 2829:1 4915:1 5005:2 #
0.0052545779408258233567075023984216 329:1 510:2 4567:2 6292:1 #
-0.0052545779408258233567075023984216 38:1 329:1 382:1 495:1 726:3 1035:1 1184:1 1207:1 1304:1 1398:1 1579:2 1721:1 1795:1 2157:1 2354:1 2395:2 2423:1 3337:1 4188:1 4567:1 4797:1 4915:1 5005:1 5151:1 6024:1 6322:2 7000:1 7194:1 #
0.0052545779408258233567075023984216 329:1 506:1 678:1 717:1 1207:1 1280:1 1312:1 1579:2 1624:1 2048:1 2801:1 3337:1 4567:1 4603:1 4797:3 4915:1 5673:1 6322:7 6568:3 7194:3 8130:1 #
0.0052545779408258233567075023984216 84:1 347:1 391:1 448:1 757:1 1267:1 1282:1 1488:1 1579:1 2354:1 2471:1 2683:1 3319:1 4111:2 4625:1 4797:1 6024:1 6322:1 7194:1 #
-0.0052545779408258233567075023984216 190:1 329:1 331:1 634:1 757:1 971:2 1304:1 1335:1 1500:1 1981:1 2193:1 2354:1 3081:2 4188:1 4567:4 4797:1 4915:1 5211:2 6024:1 6322:1 6783:1 7062:1 7194:1 7495:2 8130:1 #
-0.0052545779408258233567075023984216 203:1 396:1 509:1 534:1 554:1 586:1 772:1 1043:1 1083:1 1185:1 1207:1 1214:1 1315:1 1579:1 1743:1 2354:1 2699:1 3319:2 4567:2 4756:1 4797:2 5126:1 5211:2 6292:1 6322:1 6568:1 7495:1 7572:2 7591:1 #
-0.0052545779408258233567075023984216 65:2 190:3 329:1 414:1 423:1 485:1 534:1 591:1 1184:1 1207:1 1442:1 1489:1 1624:1 1910:1 2108:1 2411:1 2829:1 4567:1 4747:1 4785:1 4797:5 5753:1 6024:1 6322:1 7194:1 #
0.0052545779408258233567075023984216 342:1 495:1 557:1 726:1 2308:1 3081:1 4358:1 4567:2 6292:1 7495:1 #
-0.0052545779408258233567075023984216 375:1 453:1 537:1 649:1 673:1 709:1 854:1 1315:3 1469:2 1579:1 1910:2 3081:2 3319:1 3724:1 4567:1 4797:4 5211:2 5248:1 5698:1 6292:1 6322:1 6568:1 6726:1 7034:1 #
-0.0052545779408258233567075023984216 84:1 181:1 347:1 416:1 448:3 534:1 641:1 1489:1 1579:1 1740:1 1995:1 4567:4 4797:4 5114:1 6322:1 9040:1 9936:1 #
0.0052545779408258233567075023984216 111:2 172:1 190:2 329:1 339:1 495:1 678:1 745:1 1441:1 2829:1 3070:1 4797:1 5211:1 6292:1 6322:1 6549:1 7000:1 7194:2 7495:1 #
0.0052545779408258233567075023984216 123:2 181:1 971:1 1304:2 1442:3 1496:1 1910:1 2108:1 2380:1 3319:1 4567:1 4797:1 6024:1 6322:1 6626:1 #
0.0052545779408258233567075023984216 681:1 809:1 1716:1 2683:2 3255:1 3319:1 4567:1 4797:1 5211:1 5279:1 6322:1 7779:1 #
-0.0052545779408258233567075023984216 181:1 194:1 342:1 591:1 634:1 673:1 1112:1 1382:1 2683:2 4567:3 4793:1 5237:2 5474:1 6024:1 6322:1 6568:4 7194:2 9816:1 #
-0.0052545779408258233567075023984216 185:1 190:1 422:1 483:1 742:1 1288:2 1382:1 1567:1 1579:1 1740:1 1898:1 2048:1 2142:1 2237:1 2741:1 2765:1 2829:1 3381:1 4567:3 4915:1 5005:1 5211:1 5353:1 5934:1 6024:3 6322:2 #
-0.0052545779408258233567075023984216 194:1 550:1 634:1 1028:1 1150:1 1304:1 1442:1 1468:1 1483:1 1543:1 1621:1 2157:1 2213:1 2514:1 2829:1 3523:1 4567:1 4699:1 4797:2 6322:3 6568:2 #
-0.0052545779408258233567075023984216 111:1 329:1 347:1 396:1 422:1 483:1 506:1 597:1 662:1 1179:1 1304:1 1315:1 1613:1 1653:1 1994:1 3069:1 3196:1 4567:3 4797:1 5270:1 6024:1 6322:1 7000:1 9936:1 #
-0.0052545779408258233567075023984216 329:2 478:1 557:1 986:1 1068:1 1168:1 1304:1 1488:2 1639:1 1910:1 2213:1 2395:1 2683:1 3082:1 3319:2 4109:1 4394:1 4797:3 4915:1 5211:1 5975:1 6322:2 6568:2 7194:1 7947:2 8093:1 #
0.0052545779408258233567075023984216 194:1 342:1 465:1 608:1 904:1 1042:1 1056:1 1184:1 1198:1 1304:1 1437:1 1442:1 1468:2 1488:1 1543:1 1579:2 1851:1 2807:1 4567:2 4719:1 4797:3 5211:1 6322:2 6672:1 9699:1 #
-0.0052545779408258233567075023984216 67:1 181:1 190:1 342:1 396:1 422:1 478:1 485:1 534:2 712:2 1442:1 1781:1 1883:1 2082:1 3319:1 3961:1 4188:1 4567:5 4797:2 5211:1 6322:3 #
-0.0052545779408258233567075023984216 329:1 485:1 575:1 656:1 662:1 829:2 1014:1 1304:2 1377:1 1442:1 1985:1 2213:1 2253:1 2398:1 2640:1 2658:1 2807:1 2829:1 3319:1 4295:1 4567:3 4797:3 5079:1 5211:4 6142:1 6322:3 6408:1 6568:1 7056:2 7103:1 #
-0.0052545779408258233567075023984216 190:1 199:1 422:1 534:1 594:1 696:1 712:1 1000:1 1304:1 1312:2 1501:2 1806:1 2048:1 2057:1 2253:1 3480:2 4034:1 4159:1 4567:3 4797:2 6322:3 6549:1 #
0.0052545779408258233567075023984216 377:1 1473:1 1544:1 1740:1 1820:1 2565:1 2645:1 3081:1 6322:1 #
0.0052545779408258233567075023984216 83:1 1544:1 1877:1 5005:1 5211:1 6322:2 #
0.0052545779408258233567075023984216 301:1 485:1 506:1 673:2 726:1 927:1 1417:1 1441:1 1910:1 2325:1 2459:1 2829:1 3255:1 3264:1 3337:1 4567:1 4797:1 6322:1 7495:1 7782:1 #
0.0052545779408258233567075023984216 331:1 509:1 534:1 673:1 1074:1 1304:2 1492:1 2525:1 2549:1 2565:1 3081:1 3247:1 3319:1 4567:1 4797:2 6024:1 6322:2 7495:1 #
-0.0052545779408258233567075023984216 342:1 509:1 561:1 591:2 673:2 913:1 1150:1 1315:1 1488:1 1579:1 1820:1 1993:1 2142:1 2683:1 2829:1 3069:1 3072:1 3937:1 4188:1 4567:2 4655:1 4797:2 6024:1 6292:1 6438:1 6568:2 7000:1 7495:1 8151:1 9593:1 #
-0.0052545779408258233567075023984216 329:1 396:1 493:1 576:2 591:1 673:1 827:1 904:1 1437:1 1500:1 1579:1 1795:1 2048:1 2640:1 2829:1 3287:1 3369:1 4567:2 4729:1 4797:3 4933:1 5004:3 6024:1 6322:1 7000:1 8832:1 #
-0.0052545779408258233567075023984216 58:1 77:1 339:1 483:1 510:1 591:1 712:1 1184:1 1216:1 1579:3 1995:1 2108:1 2731:1 4156:1 4567:1 4797:3 4825:1 5005:1 6322:2 6517:1 7000:1 7062:2 7495:1 #
0.0052545779408258233567075023984216 534:1 548:1 1288:1 1304:1 1488:1 6322:1 6417:1 #
0.0052545779408258233567075023984216 466:1 534:1 837:2 1288:1 1781:1 2325:1 2419:2 2683:1 3081:1 4567:1 5211:2 #
-0.0052545779408258233567075023984216 181:1 341:1 550:1 673:2 1288:1 1315:1 1781:1 2048:1 3264:1 3538:1 4567:2 4797:2 5449:1 5945:1 6024:2 6292:1 6322:2 9936:1 #
-0.0052545779408258233567075023984216 199:1 396:1 506:1 557:1 662:1 712:1 1093:1 1117:1 1315:1 1551:1 3283:1 3319:1 4100:1 4567:2 4655:1 4797:3 5151:1 5211:1 6024:1 6322:2 7495:1 8180:1 #
0.0052545779408258233567075023984216 433:1 500:1 534:2 673:1 712:1 827:1 1179:1 1579:1 1795:2 5037:1 5262:1 6024:1 6322:3 #
0.0052545779408258233567075023984216 510:1 534:1 717:1 1579:1 1795:1 2076:1 4567:1 6322:1 #
0.0052545779408258233567075023984216 377:1 673:1 829:1 1184:1 1303:1 1442:1 2411:1 3061:1 4485:2 4567:1 5278:1 5650:1 6292:1 6322:1 6328:1 #
0.0052545779408258233567075023984216 717:1 1442:1 1820:1 3287:1 4109:1 5220:1 #
0.0052545779408258233567075023984216 181:1 575:1 696:2 1579:1 1781:1 2120:1 3012:1 3319:1 4567:1 6292:1 6322:2 6568:1 7000:1 7440:1 8180:1 #
0.0052545779408258233567075023984216 111:1 190:2 246:1 329:1 364:1 534:1 1239:1 1263:1 1442:1 1488:1 2048:1 2683:2 3081:1 4567:1 4797:3 4915:1 6322:3 6568:1 7495:2 #
-0.0052545779408258233567075023984216 203:1 377:1 510:1 673:1 876:1 1028:1 1114:2 1198:1 1382:1 1716:1 1740:1 1784:1 1820:1 1849:1 2278:1 2932:1 4519:1 4567:3 4797:2 4915:1 5005:1 5262:1 6292:1 6322:2 6417:1 6568:2 7495:3 #
0.0052545779408258233567075023984216 29:1 77:1 550:1 1304:1 4485:1 4567:2 5211:2 6024:1 #
0.0052545779408258233567075023984216 6:1 166:1 181:2 190:1 266:1 396:1 485:1 509:1 591:2 671:1 1230:1 1579:2 1612:1 1624:1 2170:1 2206:1 2213:1 2683:1 3257:1 4567:2 4797:2 5005:1 6322:2 7000:1 7194:1 9936:1 #
-0.0052545779408258233567075023984216 219:1 294:1 329:1 414:1 485:1 506:1 550:1 678:1 969:1 1263:1 1280:1 1315:1 1579:2 2142:1 2912:1 3081:1 3319:2 4567:2 4991:1 5005:2 5094:2 5546:1 5650:1 6024:1 6322:2 7833:1 8832:1 9936:1 #
-0.0052545779408258233567075023984216 391:1 396:1 673:2 717:1 1179:1 1263:1 1304:2 1305:1 1500:1 1551:1 1579:1 2213:1 2528:1 2683:1 3081:1 4567:2 4797:2 4915:1 5211:1 6292:1 6322:1 8130:1 #
-0.0052545779408258233567075023984216 329:1 634:1 662:1 1377:1 1740:1 2473:1 3882:1 4204:1 4567:1 4797:3 5271:1 6322:7 6568:2 7000:1 7194:1 8437:1 #
0.0052545779408258233567075023984216 422:2 673:1 1442:1 1795:1 2192:1 4567:3 5214:1 7495:1 #
0.0052545779408258233567075023984216 11:1 242:1 312:1 375:1 508:1 610:1 654:1 712:1 717:1 1963:1 2932:2 3105:1 4567:2 4785:1 4797:1 5005:1 5248:1 6024:1 7495:1 8130:1 #
0.0052545779408258233567075023984216 264:1 509:1 534:1 673:1 1074:1 1304:1 2142:1 2829:2 3724:1 4797:1 5650:1 7495:2 8614:1 8832:1 #
-0.0052545779408258233567075023984216 140:2 199:1 534:2 575:2 1304:1 1305:1 1382:1 1468:1 1488:1 1776:1 2708:3 3081:1 3961:1 4567:1 5237:1 6322:2 6841:1 7194:1 9936:1 #
0.0052545779408258233567075023984216 377:1 3319:1 4797:1 5005:1 6322:1 7000:1 8832:1 #
-0.0052545779408258233567075023984216 140:1 591:2 656:1 1043:1 1304:1 1377:1 1579:1 1963:1 2058:1 2829:1 3167:2 4567:1 4797:1 5211:2 6024:2 6322:1 #
-0.0052545779408258233567075023984216 329:1 342:1 550:1 712:1 772:1 792:1 1000:1 1335:1 1468:1 1579:1 2643:1 2765:1 3722:1 4567:2 4797:1 5211:2 #
0.0052545779408258233567075023984216 342:1 493:2 673:2 678:1 1468:1 2211:1 3430:2 4797:2 4915:2 5005:1 5919:1 6024:1 6292:1 6322:2 7495:1 7850:1 #
-0.0052545779408258233567075023984216 190:3 709:2 2213:1 2237:1 2459:2 3081:1 4567:1 4655:1 4797:3 5005:1 5220:1 6024:1 7062:1 7495:1 #
-0.0052545779408258233567075023984216 329:1 342:1 422:1 459:1 465:1 673:1 1288:3 1304:1 1442:2 1579:1 2058:2 2699:1 3319:1 4567:1 4797:2 5005:1 5225:1 5820:1 6024:1 6322:1 #
0.0052545779408258233567075023984216 83:1 396:1 534:1 696:1 726:1 1184:1 1579:3 2932:1 3247:1 3319:6 3699:1 4567:3 4915:2 5256:1 6322:3 7000:1 7056:1 9936:2 #
-0.0052545779408258233567075023984216 190:1 396:1 550:1 656:1 852:1 1058:1 1551:1 1579:1 1963:1 2213:1 2354:1 2829:2 4567:3 4797:1 4915:1 6322:2 6831:1 7000:1 7194:1 7495:1 7947:1 9936:1 #
-0.0052545779408258233567075023984216 190:1 203:1 396:1 591:2 673:2 712:1 971:1 1288:1 1377:1 1468:1 1740:1 1795:1 2154:1 2463:1 2829:1 3319:1 4567:3 4915:1 4986:1 5495:1 6024:1 6322:2 7000:2 7284:1 #
0.0052545779408258233567075023984216 266:1 534:1 662:1 862:1 4797:1 6322:1 7000:1 #
0.0052545779408258233567075023984216 893:1 971:1 1412:1 1469:1 1795:1 2649:1 3381:1 4797:2 7000:1 7495:1 #
-0.0052545779408258233567075023984216 140:2 329:1 528:1 862:1 1179:1 1207:1 1442:1 1579:2 1995:1 2237:1 2411:1 2683:2 3264:1 3319:1 4567:1 4797:2 5005:1 5211:2 5934:1 6322:2 7062:1 7194:1 7495:2 #
-0.0052545779408258233567075023984216 342:1 557:1 709:1 726:2 1304:1 1322:1 1377:1 1468:1 1469:1 1579:2 2765:1 2807:1 3319:1 4567:1 4797:3 4860:1 4915:1 5005:1 6322:1 7062:1 7495:1 9936:1 #
-0.0052545779408258233567075023984216 367:1 459:1 483:1 654:1 673:1 726:1 930:1 959:1 1579:1 1910:1 2048:1 2222:1 2423:1 3319:2 3778:1 3994:1 4111:1 4797:2 4915:1 5211:1 6322:3 7495:2 7769:1 9922:1 #
0.0052545779408258233567075023984216 84:1 185:1 342:1 597:1 673:1 1117:1 1269:1 1377:1 1437:1 1716:1 1795:1 1993:1 1995:1 2237:1 2278:1 2699:1 2765:1 2801:1 2829:2 3319:1 4567:1 4797:1 5005:1 5211:1 6322:1 6568:2 6770:1 7000:2 7194:1 7495:1 9936:1 #
0.0052545779408258233567075023984216 38:1 190:2 367:1 485:1 673:2 1567:1 1624:1 2058:1 2781:1 3728:1 4109:1 4567:1 4797:2 6322:3 6823:1 7000:1 #
-0.0052545779408258233567075023984216 172:1 342:2 459:1 483:1 534:1 673:1 772:1 1179:1 1417:1 1587:1 2157:1 2244:1 2412:1 2500:1 3319:1 4567:1 4797:3 4915:1 5005:1 7000:1 7495:1 9936:1 #
-0.0052545779408258233567075023984216 185:1 673:4 1509:1 1910:1 2048:1 2142:1 2932:1 3081:1 3319:1 4137:1 4567:2 4797:1 7062:1 9936:1 #
0.0052545779408258233567075023984216 80:1 123:1 485:1 667:1 681:1 726:1 739:3 757:1 947:1 1056:1 1076:1 1304:2 1579:1 1740:1 1791:1 2048:1 2213:1 2683:1 2765:1 2807:1 2932:1 3319:2 6658:4 7000:1 #
0.0052545779408258233567075023984216 377:2 483:1 590:1 827:1 1304:1 1469:1 1579:1 2411:1 3556:1 4567:1 4797:1 5211:2 6024:3 6322:2 6568:1 #
0.0052545779408258233567075023984216 442:1 461:1 726:1 827:1 1057:1 1150:1 1305:1 1468:1 1579:2 1795:1 2187:1 2213:1 2296:1 2683:1 6024:1 6322:2 6770:1 #
-0.0052545779408258233567075023984216 190:1 662:2 709:1 827:1 1536:1 1995:1 2142:1 4797:1 6024:3 6322:2 6568:2 7194:1 8219:1 #
-0.0052545779408258233567075023984216 199:1 329:1 478:1 483:1 561:3 591:1 1102:3 1288:1 1304:1 1579:1 1606:1 1795:1 1806:1 2244:1 3081:1 3727:1 4111:2 4567:4 4797:1 6024:1 6292:2 6823:1 7062:1 #
-0.0052545779408258233567075023984216 190:1 266:1 329:1 534:1 673:1 712:1 827:1 1377:1 1382:1 1468:1 1579:2 1795:1 3319:2 3369:1 4567:6 4797:2 4915:1 5211:3 6024:2 6322:5 6568:1 7591:1 9922:1 #
0.0052545779408258233567075023984216 190:1 329:1 591:1 597:1 862:1 1132:1 1442:1 1551:1 2253:1 4915:1 5211:1 6322:3 6549:1 9936:3 #
0.0052545779408258233567075023984216 120:1 190:1 591:1 673:1 827:1 1468:1 1488:2 1551:2 1579:1 2683:1 2829:1 4797:1 6322:3 6549:2 7062:1 9936:1 #
0.0052545779408258233567075023984216 301:1 329:2 534:1 571:1 575:1 722:1 772:2 836:1 862:1 971:1 976:1 1160:1 1543:2 1740:1 2142:1 2392:1 2683:1 2829:3 2845:1 3081:1 3247:1 3255:1 3257:1 3319:2 3699:2 4176:1 4207:1 4565:1 4567:5 4797:6 4820:1 5211:2 6322:10 6403:1 6469:1 6549:1 7495:1 9593:1 9936:1 #
-0.0052545779408258233567075023984216 190:1 448:1 465:1 554:1 1105:1 1551:1 1579:1 3081:1 4567:1 4797:3 5211:1 5262:1 6024:1 6322:2 9936:1 #
-0.0052545779408258233567075023984216 166:1 203:1 329:1 342:1 557:1 778:1 954:1 1168:1 1216:1 1251:1 1304:1 1483:1 1579:1 2213:1 3283:1 4797:3 5025:1 5211:1 6322:3 #
0.0052545779408258233567075023984216 209:1 339:1 396:2 459:1 478:1 534:3 561:1 862:1 1074:1 1382:1 1551:1 1579:4 1740:1 2233:1 2308:1 3319:3 3904:1 4567:1 4797:2 5005:1 7000:1 7194:2 7495:1 7591:2 8130:2 #
0.0052545779408258233567075023984216 534:1 673:1 1312:2 1740:1 2829:1 3319:1 3728:1 4567:2 6292:1 7000:1 7575:1 #
0.0052545779408258233567075023984216 132:1 329:1 367:1 396:3 462:1 1304:1 1579:5 1677:1 2213:1 2825:1 3319:3 3369:1 4519:4 4567:4 4636:1 4797:1 5278:1 5359:2 6292:1 6322:1 7000:1 7440:1 #
0.0052545779408258233567075023984216 265:1 329:1 347:1 541:1 673:2 1288:1 1304:1 1579:1 2699:1 4567:2 4797:1 4915:1 5004:1 5005:2 6568:2 7000:1 7947:1 8900:1 #
-0.0052545779408258233567075023984216 534:1 634:1 1288:1 1377:1 1543:1 1551:1 1579:2 1740:1 2213:2 5005:1 5211:1 6024:1 7702:1 #
-0.0052545779408258233567075023984216 459:1 673:2 1468:1 1579:1 1806:1 1910:1 2683:1 2829:2 3081:1 3319:1 6292:1 6568:2 7194:1 7495:1 #
0.0052545779408258233567075023984216 77:1 81:2 199:1 436:1 963:1 1774:1 1994:1 2142:1 3081:1 4567:2 4797:1 4915:1 5000:1 5004:1 6322:1 6847:1 8832:1 #
0.0052545779408258233567075023984216 1074:1 1488:1 2048:1 2057:1 2734:1 3069:1 3081:1 4567:2 5237:1 #
0.0052545779408258233567075023984216 168:1 329:1 347:1 367:1 506:1 634:1 971:2 1117:1 1184:1 1282:1 1294:1 1304:1 1315:1 1375:1 1377:1 1378:1 1536:1 1579:2 1795:1 1820:1 2120:1 2354:2 3755:1 4034:1 4567:3 4655:1 4797:2 4915:1 5151:3 5262:1 6322:3 9936:1 #
0.0052545779408258233567075023984216 58:1 111:1 329:2 597:1 634:1 673:1 726:1 1056:1 1088:1 1339:1 1382:1 1442:1 1783:1 1820:1 2314:1 2471:1 2683:1 2825:1 3319:1 3498:1 4218:1 4567:2 4797:2 5211:1 5353:1 6322:1 7000:1 7572:1 9936:1 #
0.0052545779408258233567075023984216 190:1 534:1 1114:1 1382:1 1468:1 1985:1 2142:1 2211:1 2354:1 2640:1 4567:4 4797:2 4915:1 6322:3 6328:3 7062:1 7495:3 7591:1 9936:1 #
0.0052545779408258233567075023984216 84:1 140:1 199:1 242:2 377:1 396:1 466:5 483:1 495:1 534:1 702:1 882:1 1579:2 1910:1 2157:1 2237:3 2395:1 2829:2 4797:2 #
0.0052545779408258233567075023984216 485:1 510:1 1382:1 1468:1 1469:1 1579:1 2643:1 3081:1 4797:1 5005:2 6322:1 7194:1 #
-0.0052545779408258233567075023984216 203:1 329:1 1185:1 1579:1 1765:1 2643:1 3081:1 3106:1 3257:1 3492:1 4567:5 4747:1 4797:5 5211:1 6322:3 7947:1 #
-0.0052545779408258233567075023984216 83:1 301:1 339:1 380:1 434:1 550:1 631:1 673:1 689:1 726:1 757:1 1375:1 1831:1 1851:1 2142:1 2801:1 3319:1 3727:2 4567:1 4797:1 6292:1 6726:1 7495:1 9936:2 #
0.0052545779408258233567075023984216 726:1 1795:1 4797:1 6024:1 #
-0.0052545779408258233567075023984216 190:2 673:1 717:1 726:1 1184:1 1304:1 1579:1 1610:1 1746:1 2765:1 4567:1 4601:1 5005:1 6024:1 8832:1 #
0.0052545779408258233567075023984216 51:1 111:1 190:1 377:1 575:1 976:1 1304:2 1442:1 1488:1 3028:1 3770:1 4188:1 4567:1 4797:2 5005:1 6024:1 6292:1 6322:3 6454:1 6770:1 7194:1 #
0.0052545779408258233567075023984216 190:3 396:1 448:1 591:1 1464:1 1579:1 4567:2 5211:1 6322:1 8180:1 #
0.0052545779408258233567075023984216 172:1 367:1 673:3 1117:1 1382:2 1579:1 1746:1 2057:1 2354:1 2683:1 4797:4 5193:1 6322:2 7000:1 7194:1 8306:1 #
0.0052545779408258233567075023984216 534:1 554:1 1795:1 6549:2 #
0.0052545779408258233567075023984216 301:1 342:1 506:1 778:1 1150:1 1288:1 1304:1 1376:1 1579:1 1892:1 3081:1 3491:1 3557:1 4797:3 #
0.0052545779408258233567075023984216 484:1 510:1 712:1 726:1 3356:1 4797:2 5022:1 5211:1 7575:1 8832:1 #
0.0052545779408258233567075023984216 6:1 190:1 510:1 534:1 673:1 991:1 1551:1 1782:2 1963:1 2142:1 2932:1 4188:1 4567:2 4747:1 4797:1 6322:1 #
0.0052545779408258233567075023984216 478:1 656:1 772:1 908:1 1043:1 1225:1 1304:1 1377:2 1446:1 2829:1 6322:2 #
0.0052545779408258233567075023984216 256:1 478:3 518:1 1184:2 1579:1 2765:1 5211:1 5248:1 7495:1 9936:1 #
0.0052545779408258233567075023984216 301:1 485:1 506:1 673:2 726:1 927:1 1417:1 1441:1 1910:1 2325:1 2459:1 2829:1 3255:1 3264:1 3337:1 4567:1 4797:1 6322:1 7495:1 7782:1 #
0.0052545779408258233567075023984216 772:1 2142:1 4797:1 6024:1 #
0.0052545779408258233567075023984216 296:1 1305:1 1315:1 1442:1 1795:1 1820:1 2829:1 4567:1 6024:1 6322:1 7194:1 7495:1 #
0.0052545779408258233567075023984216 190:2 327:1 405:1 422:1 597:1 1058:1 1308:2 1442:1 1544:1 1746:1 2057:1 2643:1 4567:1 4797:1 6292:1 6322:1 6568:1 #
0.0052545779408258233567075023984216 111:1 367:1 509:1 534:5 582:1 597:1 991:1 1064:2 1129:1 1137:1 1184:1 1280:1 1330:1 1382:1 1455:1 1579:2 1740:3 1820:1 1849:1 2643:1 3070:2 3319:3 3369:1 4567:2 4797:1 4844:1 5005:6 5211:1 5811:2 6024:1 6302:1 6322:5 6568:1 7034:1 7062:2 9936:4 #
0.0052545779408258233567075023984216 422:1 673:1 681:1 888:1 971:1 1162:1 1288:1 1364:1 1417:1 1544:1 1740:2 1743:1 1795:1 2411:1 2829:2 4188:2 4282:1 4567:5 4741:1 4797:1 4860:2 5108:1 5211:4 5262:1 5474:1 6024:2 6322:2 6507:1 6549:1 7000:3 7495:1 8832:2 #
0.0052545779408258233567075023984216 100:1 339:2 448:2 465:1 509:1 534:1 591:1 673:1 712:1 1184:1 1304:1 1489:1 1502:1 1740:4 1844:1 1910:2 2193:2 2403:2 2578:2 2731:1 4567:4 4656:1 4797:2 4924:1 5262:2 6024:1 7000:1 #
0.0052545779408258233567075023984216 534:2 591:1 803:1 1093:1 1382:1 1579:1 1784:1 2829:1 3246:1 3319:2 4109:1 4111:2 4567:5 4797:2 5211:2 6024:1 6292:2 6568:1 7000:1 7194:1 #
-0.0052545779408258233567075023984216 367:1 414:1 449:1 534:1 673:1 726:1 1184:1 1305:1 1468:1 1500:1 1579:2 1740:1 2047:1 2278:1 2403:1 2640:1 2683:1 2829:1 2912:1 3319:2 4565:1 4567:4 4797:3 4915:2 5211:1 9936:2 #
0.0052545779408258233567075023984216 342:1 485:1 534:2 591:1 726:2 1035:1 1102:1 1468:1 1877:1 2142:1 2423:1 2643:2 3319:1 3728:1 3778:1 4567:1 4797:2 4915:1 5005:2 5193:1 5211:1 6292:1 6322:2 6549:1 7194:1 #
0.0052545779408258233567075023984216 38:1 77:1 172:1 329:1 342:2 377:1 380:1 480:1 509:1 528:1 671:2 702:1 1184:1 1410:1 1579:1 1743:2 1795:1 1865:1 1885:1 2683:3 2979:1 4188:3 4567:4 4797:2 5185:1 5211:2 6292:2 6322:5 6549:2 8832:1 8947:1 #
0.0052545779408258233567075023984216 301:1 483:1 485:2 534:2 673:1 836:1 1267:1 1304:1 1500:1 4188:1 4567:2 4729:1 4797:2 6292:2 7495:1 #
0.0052545779408258233567075023984216 367:1 485:1 591:2 1315:1 1442:1 1489:1 1551:1 2237:1 2354:1 2829:1 3070:1 4567:3 4797:1 5005:1 5978:1 7495:1 #
0.0052545779408258233567075023984216 41:1 111:1 209:1 342:1 377:1 485:1 534:1 591:1 936:1 1319:1 1377:1 1441:1 1442:1 1654:1 1910:1 2213:1 2829:4 3319:2 4208:1 4282:1 4567:5 4797:4 5005:1 6024:1 6292:1 6322:2 6568:1 7495:2 #
0.0052545779408258233567075023984216 181:1 204:1 347:1 367:1 534:1 656:1 678:1 717:1 726:1 930:1 971:1 1056:1 1579:1 1743:3 3055:1 3319:2 3475:1 4156:2 4476:1 4567:7 4797:4 6024:2 6292:1 6322:2 7032:1 7324:1 7495:1 #
0.0052545779408258233567075023984216 181:2 204:2 355:1 485:2 651:1 726:1 1382:2 1488:2 1781:1 1795:2 1865:1 2643:1 2785:1 3069:1 3149:1 3319:4 3788:1 3796:2 4188:1 4567:4 4656:2 4797:3 4915:1 5641:1 5842:1 6024:3 6322:4 6568:3 6770:2 7495:1 9936:1 #
0.0052545779408258233567075023984216 123:1 181:1 199:1 459:1 591:2 687:1 844:1 1074:1 1188:1 1225:1 1268:1 1304:1 1377:1 2213:1 2829:1 3167:1 3255:1 4567:6 4797:2 6847:1 7000:1 7194:1 7495:5 7947:1 #
-0.0052545779408258233567075023984216 194:1 329:1 377:1 726:1 862:1 911:1 996:1 1114:1 1129:1 1288:1 1442:1 1488:1 1579:2 2683:1 3319:1 3827:1 4413:1 4567:3 4797:4 6024:1 6322:2 6823:1 #
0.00030887683210559409296980248882392 172:1 203:1 268:1 306:1 339:1 405:1 423:1 434:1 557:1 629:2 862:1 1056:1 1073:1 1584:1 1740:1 1795:1 1831:2 1995:1 2142:1 2485:1 2708:1 2829:1 2932:1 3332:1 4358:1 4567:6 4797:6 5211:1 6292:4 6322:1 6726:2 #
0.0048664640683200059353974431530787 459:1 485:2 500:1 534:1 550:1 597:1 673:1 1304:3 1377:2 2509:1 2765:1 2829:1 2912:1 3319:1 3457:1 3542:1 3729:1 4567:2 4797:1 5211:1 5262:1 6322:2 6568:1 7000:1 8180:1 #
0.0052545779408258233567075023984216 485:1 534:1 622:1 774:1 1043:1 1536:1 1543:1 1942:1 2057:1 2213:1 2829:2 2932:1 2982:1 3319:1 3712:1 4567:1 4793:1 5005:1 5237:1 6024:1 6549:2 6568:1 7000:2 #
-0.0052545779408258233567075023984216 317:1 329:1 347:1 449:1 534:1 550:1 673:1 991:1 1781:1 1898:1 2514:1 2643:2 2829:1 2908:1 2910:1 3081:1 4358:1 4567:1 4652:1 4797:4 5211:7 6024:1 6292:1 6322:6 6978:1 9936:1 #
-0.0052545779408258233567075023984216 111:1 203:1 301:1 367:1 377:1 382:1 396:1 534:1 673:2 726:1 971:2 1084:1 1117:1 1377:1 1721:1 1820:2 2683:2 2829:1 2889:1 3319:2 4454:1 4567:3 4797:4 5211:1 5298:1 5353:1 6322:4 7000:1 7194:1 8832:1 #
-0.0052545779408258233567075023984216 172:1 342:1 422:1 509:1 591:1 742:1 930:1 1442:1 2170:1 2640:1 2683:1 3319:1 4797:3 4980:1 5211:1 6024:1 6322:2 #
-0.0052545779408258233567075023984216 168:1 190:1 214:1 219:1 327:1 329:8 339:1 367:1 450:2 459:1 634:1 662:1 671:1 696:1 712:1 772:1 930:1 1074:1 1138:1 1315:1 1483:1 1501:1 1544:1 1551:1 1606:1 1639:1 1740:3 1781:1 1782:1 1910:1 2057:1 2142:2 2163:1 2643:1 2683:2 2739:1 2829:1 3081:3 3319:3 3699:2 4111:1 4567:16 4797:12 4915:2 5211:2 5449:1 6024:4 6292:2 6322:23 6549:1 7000:3 7194:1 8832:1 #
0.0052545779408258233567075023984216 185:1 190:2 329:1 373:1 396:1 853:1 951:1 1393:1 1442:1 1468:2 1500:1 1704:1 1740:1 2048:2 2142:1 2213:1 2643:1 2829:1 3081:1 3255:1 3319:1 4282:2 4567:4 4915:1 5005:1 6024:1 6322:4 6549:1 9936:2 #
-0.0052545779408258233567075023984216 18:5 166:5 377:5 422:5 485:5 597:5 673:5 712:5 827:5 2683:5 4330:5 4567:10 5005:5 6322:5 7062:5 #
-0.0052545779408258233567075023984216 166:1 181:1 246:1 265:1 323:1 364:1 597:1 634:2 673:1 709:1 816:1 936:1 963:1 1135:1 1423:1 1437:1 1679:1 1740:1 1795:1 2237:1 2683:1 3070:1 3169:1 3174:1 3255:1 3271:1 3298:1 3319:2 3660:1 3674:1 3786:1 4109:1 4276:1 4567:5 4797:6 5211:3 6024:1 6292:1 6322:6 6549:2 7194:1 7495:2 8832:2 #
-0.0052545779408258233567075023984216 77:1 181:5 194:1 377:1 465:1 510:1 534:1 554:1 634:1 673:1 712:1 976:2 1114:1 1468:1 1579:1 1795:1 2463:1 2801:2 2829:3 2908:1 3319:2 3778:2 4567:4 4797:3 4860:1 6024:2 6322:3 6568:3 7000:1 7062:1 7194:2 7495:3 8832:1 #
-0.0052545779408258233567075023984216 6:1 77:1 120:2 132:3 190:2 306:1 509:1 550:1 576:1 597:2 662:2 714:2 726:1 853:1 971:1 1043:1 1114:1 1117:3 1193:1 1214:1 1315:2 1376:1 1468:1 1489:1 1609:1 1740:1 1746:2 1985:1 1993:1 1995:1 2243:1 2349:1 2354:3 2376:1 2640:1 2643:2 2683:1 3196:1 3319:3 3532:1 4006:2 4033:1 4111:1 4567:7 4797:7 4862:4 4915:1 5005:1 5564:1 5868:1 5916:1 6164:1 6292:1 6322:12 6568:6 6978:1 7000:1 7175:1 7495:1 7645:2 9936:3 #
-0.0052545779408258233567075023984216 181:1 190:1 203:1 219:2 322:2 329:3 330:1 339:1 355:1 396:1 422:1 485:1 534:1 541:1 591:1 597:1 662:1 673:4 714:1 717:1 726:1 772:1 837:2 862:1 863:1 908:1 1012:1 1080:1 1083:1 1218:1 1284:1 1315:1 1377:1 1393:1 1442:1 1455:1 1464:2 1468:1 1488:2 1536:1 1558:1 1579:1 1692:2 1738:1 1744:1 1855:1 1898:2 1956:1 1963:1 1995:1 2048:1 2120:1 2142:2 2157:4 2423:1 2683:1 2829:1 2842:1 3028:1 3081:1 3257:1 3319:1 3994:2 4519:1 4567:22 4616:1 4656:2 4797:8 4915:1 5162:1 5211:1 5231:1 5262:2 5353:1 5412:1 6292:7 6322:13 6568:2 7000:7 7194:1 7259:1 8130:1 9936:1 #
-0.0052545779408258233567075023984216 83:1 242:1 275:1 306:1 329:1 339:1 347:1 377:1 380:1 433:1 459:1 507:1 509:1 557:1 678:1 717:1 1028:1 1117:1 1184:3 1225:1 1304:2 1579:5 1624:1 1651:1 1740:1 1910:1 2202:1 2293:1 2683:2 2829:1 3319:2 3337:1 3542:1 4567:21 4797:8 4870:1 5005:2 5211:3 5262:1 5495:1 6024:1 6142:1 6292:2 6302:1 6322:17 6568:4 6754:3 7000:2 7171:1 7194:1 7495:1 7850:1 9936:2 #
-0.0052545779408258233567075023984216 98:1 172:1 190:1 342:1 377:1 422:1 485:1 557:1 671:2 673:1 712:1 726:1 1117:1 1331:4 1579:2 1795:1 1910:1 2683:2 3319:2 4567:1 4797:1 5005:1 6024:1 6322:1 6626:1 7194:1 7495:2 #
-0.0052545779408258233567075023984216 79:1 172:1 296:2 377:1 422:1 445:1 448:1 459:1 534:1 575:1 590:1 591:1 597:5 634:3 654:1 662:1 673:1 712:1 717:1 726:3 947:1 1043:1 1057:1 1073:1 1074:1 1120:1 1304:1 1441:1 1502:1 1579:3 1667:1 1782:1 1795:1 1877:1 1898:1 1956:1 1995:2 2170:1 2211:2 2463:1 2571:1 2683:2 2699:1 2829:1 3129:1 3247:1 3319:7 3324:2 3728:1 3961:1 4282:3 4467:1 4567:18 4797:6 4915:2 5211:1 5398:1 5474:1 6024:1 6292:4 6322:9 6403:1 6549:1 7000:3 7194:3 7495:1 8093:1 8832:6 9936:2 #
-0.0052545779408258233567075023984216 6:2 82:2 83:1 111:1 123:1 172:1 181:3 190:3 329:6 342:1 377:1 422:2 466:1 485:1 495:1 534:1 557:2 575:1 580:1 634:4 654:1 673:4 681:1 689:1 726:3 757:1 812:1 844:1 882:1 934:1 1021:1 1095:1 1129:1 1168:1 1304:1 1315:1 1319:1 1374:1 1377:1 1442:1 1468:1 1536:1 1544:1 1579:1 1795:4 1820:1 1851:2 1963:1 2108:1 2136:1 2213:1 2296:1 2458:1 2496:1 2608:1 2640:1 2643:2 2672:1 2734:1 2829:4 2880:1 2932:1 3082:1 3281:1 3319:5 3778:3 4109:1 4188:1 4189:1 4567:16 4719:1 4784:1 4797:14 4915:3 5262:1 5474:4 5756:1 6024:1 6292:3 6322:17 6549:2 6568:4 7000:3 7034:1 7062:2 7194:1 7495:5 7508:1 8832:2 9936:2 #
-0.0052545779408258233567075023984216 111:1 181:1 190:2 341:1 342:2 494:1 591:2 673:1 681:2 812:1 827:1 1193:1 1263:1 1288:1 1579:1 1740:1 1795:1 1923:1 2564:1 2651:1 2683:1 2801:2 2932:1 3319:5 3378:1 3457:1 4054:1 4109:1 4282:1 4567:12 4677:1 4797:4 4862:1 5262:1 5474:2 6024:4 6292:1 6322:14 6549:3 6568:3 6684:1 7000:1 7171:1 7194:2 7572:1 9936:1 #
0.0052545779408258233567075023984216 510:1 3081:1 3319:2 4797:1 #
0.0052545779408258233567075023984216 301:1 895:1 2549:1 3081:1 3820:2 4567:2 4797:3 6024:1 7062:1 8987:1 #
-0.0052545779408258233567075023984216 6:1 165:1 329:1 375:1 449:1 478:2 528:2 612:1 673:1 827:1 844:1 930:1 1028:1 1117:1 1227:1 1304:1 1312:1 1315:2 1455:2 1579:1 1624:1 1985:1 2095:1 2142:1 2683:3 2932:1 3081:1 3457:1 3692:1 4188:1 4567:9 4637:1 4797:5 6024:1 6322:5 6568:1 7495:2 #
-0.0052545779408258233567075023984216 6:1 37:1 38:1 77:1 329:1 339:1 342:2 347:1 459:1 485:2 506:1 557:3 591:1 678:1 687:2 709:1 712:1 772:2 862:1 927:1 1141:1 1239:1 1267:2 1304:4 1315:1 1319:1 1423:1 1474:1 1582:1 1599:1 1731:1 1795:1 1831:1 1963:1 2057:1 2163:1 2293:1 2411:2 2643:3 2683:1 2801:1 2829:1 2845:1 2932:1 3081:1 3082:1 3083:1 3319:1 3480:2 3492:1 3568:1 4567:15 4797:9 4860:1 4997:1 5005:3 5211:1 5248:1 5262:1 6024:2 6292:3 6322:8 6568:1 7495:2 7508:1 7575:1 9936:3 #
-0.0052545779408258233567075023984216 190:1 329:2 673:1 717:1 908:1 1377:1 2683:1 3081:1 3319:1 4567:1 4797:1 4915:2 6322:1 8180:1 #
-0.0052545779408258233567075023984216 391:1 485:1 591:1 1305:1 1437:1 2829:1 4567:1 4797:2 8130:1 #
-0.0052545779408258233567075023984216 219:1 281:1 322:1 329:1 339:1 342:2 634:1 656:1 673:1 726:2 757:1 1043:1 1245:1 1304:1 1579:1 1776:1 2683:3 4188:1 4567:1 4797:4 4915:1 5353:1 6322:3 6403:1 6415:1 6659:1 7000:1 7194:2 7495:1 #
-0.0052545779408258233567075023984216 111:2 190:3 329:1 391:1 485:2 493:1 681:1 862:1 930:1 1114:1 1377:1 1442:1 1558:1 1579:2 1740:1 1746:1 1795:2 1820:1 1877:1 2057:1 2222:1 2308:1 2514:1 3081:3 3264:1 3283:4 4567:1 4797:3 4823:1 5005:1 5934:1 6568:1 7062:1 7194:2 8130:1 8832:1 #
-0.0052545779408258233567075023984216 120:1 289:1 466:1 495:1 509:1 1496:1 1740:1 2643:1 4567:2 4719:1 4797:2 5005:1 6024:1 7495:2 7707:1 8130:2 #
-0.0052545779408258233567075023984216 111:1 495:1 597:1 1367:1 1488:1 1489:1 2254:1 2354:1 3319:1 4234:1 4567:1 4797:1 5005:1 5211:2 6322:1 7194:1 #
0.0052545779408258233567075023984216 190:1 485:1 534:1 634:2 717:1 1315:1 1442:2 1500:1 2829:1 6024:1 6322:1 #
0.0052545779408258233567075023984216 186:1 190:2 329:3 591:1 603:1 687:1 862:1 1218:1 1239:1 1579:4 1606:1 2142:1 2308:1 2458:1 2699:1 3081:1 3273:1 3670:1 4567:6 4797:1 5211:1 5248:1 6568:1 7572:2 8180:1 #
-0.0052545779408258233567075023984216 347:1 506:1 862:1 1981:1 2257:1 4797:1 5211:2 6292:1 7194:1 #
-0.0052545779408258233567075023984216 77:1 485:1 809:1 1304:1 1377:1 1424:1 1468:1 1544:1 2058:1 2371:1 2683:1 2801:1 3265:1 3429:1 4797:4 5005:1 5211:1 5252:1 6190:1 7000:1 #
-0.0052545779408258233567075023984216 220:1 306:1 1315:1 2142:1 2734:1 4188:1 5211:1 5237:1 5934:1 6322:1 6549:2 6553:1 7194:1 8180:1 #
-0.0052545779408258233567075023984216 58:1 317:1 509:1 634:1 1146:1 1551:1 1963:1 2354:1 2829:1 3319:1 4655:1 4797:3 5005:1 5211:1 6322:1 9936:1 #
-0.0052545779408258233567075023984216 190:1 461:1 656:1 914:1 1488:1 1781:1 2170:1 5079:1 6322:1 6568:2 #
0.0052545779408258233567075023984216 673:1 1028:1 2880:1 4797:1 7062:1 #
-0.0052545779408258233567075023984216 190:1 971:1 1305:2 1488:1 1849:1 2643:1 3081:1 4358:1 6322:1 #
-0.0052545779408258233567075023984216 342:1 459:1 480:1 895:1 1176:1 1288:1 1304:3 1417:1 1442:3 1579:2 1740:1 2411:1 2829:1 3722:1 4470:1 4567:3 4797:2 4915:1 5211:4 6322:2 6328:1 7000:3 9936:1 #
-0.0052545779408258233567075023984216 739:1 1192:1 1227:1 1254:1 1488:1 2319:1 3778:2 4567:2 6322:1 7495:1 #
-0.0052545779408258233567075023984216 534:2 557:1 591:1 1382:1 1433:1 1468:1 1544:1 1795:1 1963:1 2649:1 2829:1 3319:1 4797:1 4915:2 6024:1 6322:1 7000:1 #
-0.0052545779408258233567075023984216 199:1 506:1 554:2 560:1 591:1 742:1 1012:1 1064:1 2213:1 2440:1 2932:2 3196:1 3319:1 3961:1 4797:1 6024:1 6292:1 6322:1 #
-0.0052545779408258233567075023984216 1579:1 4111:1 4655:1 7572:1 #
-0.0052545779408258233567075023984216 6:1 83:1 560:1 1304:1 1544:1 1579:1 2829:1 4567:1 5005:1 5094:1 5211:1 5934:1 6322:1 8073:1 9037:1 9936:1 #
0.0052545779408258233567075023984216 181:2 1551:1 #
-0.0052545779408258233567075023984216 199:1 485:1 726:1 1304:1 1740:2 2213:1 4567:1 5262:1 7194:2 #
0.0052545779408258233567075023984216 38:1 190:1 203:1 453:1 461:1 466:1 534:1 576:1 577:1 631:1 634:1 678:1 712:1 719:1 792:1 951:1 1042:1 1114:1 1239:1 1382:1 1423:2 1488:2 1624:1 1784:1 1806:1 1815:1 2605:2 2634:1 2640:1 2643:1 2683:1 2723:1 2801:1 3070:1 3319:2 3378:1 3439:1 3545:1 3960:1 4567:8 4797:2 5211:4 5298:1 5383:1 5919:1 6024:1 6292:4 6322:15 6549:3 6568:4 7000:1 7109:1 8738:1 9040:1 9936:1 #
-0.0052545779408258233567075023984216 83:1 510:1 1382:1 1544:1 1579:1 4567:1 5005:1 5811:1 6024:1 6322:1 7000:1 7194:1 #
-0.0052545779408258233567075023984216 509:1 557:1 1412:1 1551:1 2308:1 3306:1 6024:2 6322:1 8130:1 #
-0.0052545779408258233567075023984216 339:1 510:2 1488:1 2495:1 4567:1 4797:1 6322:1 7194:1 #
-0.0052545779408258233567075023984216 367:1 1304:1 1579:1 1954:1 2057:1 2108:2 3480:1 4567:1 6322:1 8832:1 #
-0.0052545779408258233567075023984216 111:1 190:1 306:1 329:1 461:1 495:1 509:1 673:2 709:1 1363:1 1423:1 1488:1 1579:1 1782:1 2438:1 3214:1 3820:1 4188:1 4282:1 4413:1 4567:4 4797:8 5005:1 6292:1 6322:8 6484:1 7000:2 7194:1 7495:1 #
-0.0052545779408258233567075023984216 6:2 111:1 265:1 396:2 448:1 478:1 534:1 554:1 597:1 673:1 717:2 757:1 827:1 1117:1 1129:1 1190:1 1442:1 1468:3 1488:1 1500:1 1579:3 1624:1 2514:1 3369:1 4295:1 4567:7 4797:6 4915:1 5005:1 5162:3 5193:2 5262:1 6024:3 6322:6 6568:3 7000:2 7194:3 7316:1 #
-0.0052545779408258233567075023984216 65:1 339:1 485:1 550:1 575:1 1114:1 1304:1 1491:1 1503:1 1551:1 1750:1 1782:1 2192:1 2222:1 3287:1 3319:1 3324:1 4567:1 4797:5 5270:1 6292:3 6322:2 6808:1 7000:1 #
-0.0052545779408258233567075023984216 199:1 485:1 495:1 506:1 534:1 673:2 742:1 827:2 1194:1 1304:2 1544:1 1721:1 1781:1 1932:1 2056:1 2643:1 2801:2 3319:2 3457:1 4188:1 4330:1 4567:1 4797:2 4915:1 5211:2 5414:1 6292:1 6322:8 6549:1 7495:1 #
-0.0052545779408258233567075023984216 123:1 172:1 181:3 199:1 329:1 377:1 396:2 534:3 591:2 603:1 712:2 1057:2 1382:1 1433:1 1464:2 1500:2 1579:5 1782:1 1808:1 1820:1 2237:1 2912:1 3081:1 3255:1 3319:1 4567:11 4797:6 4915:2 6024:1 6322:10 6568:2 7000:1 7194:1 7495:3 7702:1 8181:1 8738:1 #
-0.0052545779408258233567075023984216 11:2 84:1 172:1 186:1 199:1 206:1 268:1 434:1 461:1 465:1 726:1 908:1 1057:1 1083:1 1263:1 1330:1 1579:2 1624:1 1956:1 2825:1 3255:1 4567:11 4656:1 4797:3 5211:2 6292:1 6322:3 6549:3 7194:1 7259:1 8832:2 9936:3 #
-0.0052545779408258233567075023984216 111:1 190:1 342:1 478:1 550:1 656:1 673:1 712:2 1304:2 1351:1 1488:1 1536:1 1579:3 1806:2 2829:1 3391:1 3430:1 4295:1 4567:5 5359:1 6024:2 6322:4 6549:7 7000:4 7194:1 7204:1 7495:1 #
-0.0052545779408258233567075023984216 65:1 347:1 506:4 586:1 591:2 714:1 744:1 903:1 963:1 1150:1 1216:1 1239:1 1267:1 1288:1 1377:1 1424:1 1441:1 1468:1 1765:1 1795:1 2575:1 2829:1 3098:1 3337:1 3446:1 3733:1 3778:1 3885:1 4282:1 4567:7 4797:5 4862:1 5004:6 5005:1 6060:1 6322:4 7455:1 8052:1 8832:2 #
-0.0052545779408258233567075023984216 98:1 168:2 190:2 220:1 329:1 347:1 351:1 367:1 377:1 422:1 465:1 499:1 534:1 539:1 601:1 712:2 772:1 778:1 837:1 987:1 1094:3 1216:1 1225:1 1382:1 1400:1 1424:1 1514:1 1544:1 1551:2 1579:1 1653:1 1731:1 1746:2 1795:1 1855:3 1910:1 2142:1 2423:1 2471:1 2829:7 3155:1 3319:1 3480:1 3722:1 3724:1 3897:1 3985:1 4452:2 4567:10 4797:8 5004:1 5005:1 5108:1 5211:6 5753:1 6024:2 6292:2 6322:7 6568:1 6847:1 7000:1 7056:2 7194:1 7236:1 8093:2 #
-0.0052545779408258233567075023984216 485:1 673:1 991:1 1111:1 1184:1 1185:1 1225:1 1364:1 1424:1 1579:3 1781:1 2636:1 2683:1 2741:1 2829:1 2912:1 3283:1 3770:1 3994:2 4285:1 4567:7 4797:6 4860:1 5211:1 5237:1 6024:1 6292:1 6322:5 6549:1 7000:1 8130:1 9938:1 #
-0.0052545779408258233567075023984216 203:1 396:1 987:1 1150:2 1216:1 1437:1 1442:1 1464:1 1579:2 3039:1 3081:1 3240:1 3255:1 4188:1 4282:1 4567:4 4707:1 4797:3 6322:3 6549:3 7194:1 9936:1 #
-0.0052545779408258233567075023984216 168:1 190:1 391:1 448:1 1129:1 1245:1 1382:1 1441:1 1579:1 2142:1 3255:1 3308:1 3319:2 4358:1 4567:5 4797:4 5662:1 6322:2 6469:1 8130:1 #
-0.0052545779408258233567075023984216 301:1 473:1 717:1 1184:1 1227:1 3283:1 4567:2 4797:3 4862:1 6024:1 6322:1 7303:1 #
-0.0052545779408258233567075023984216 329:1 434:1 714:1 908:1 1288:1 1382:1 1442:1 1469:1 1579:2 3081:1 3319:1 3457:1 3538:1 3568:1 4282:1 4567:3 4656:1 4707:1 4797:2 6024:2 6322:4 8093:1 8832:1 #
-0.0052545779408258233567075023984216 80:1 132:3 146:1 434:1 862:1 1216:1 1239:1 2293:1 2473:1 2643:1 2829:2 3081:1 4567:2 4655:3 4797:3 5211:1 5474:1 6568:1 6960:2 9699:1 9936:1 #
-0.0052545779408258233567075023984216 190:3 367:1 391:1 691:1 1102:1 1579:2 1612:1 1724:1 1910:1 2048:1 2142:1 2369:1 2683:1 2912:1 2979:1 2982:1 3081:1 3319:1 3439:1 4567:8 4797:6 4915:1 5211:3 5474:1 6322:3 6823:1 7471:1 8151:1 #
-0.0052545779408258233567075023984216 6:4 80:1 111:1 181:1 190:1 377:1 485:1 493:1 510:1 591:2 662:1 673:1 726:1 742:1 809:1 871:1 963:1 1207:1 1227:1 1304:2 1374:1 1377:1 1464:1 1469:1 1551:2 1579:2 1624:2 1765:1 1806:1 1910:1 2057:1 2238:1 2567:1 2821:1 2829:1 3319:2 3439:1 4285:1 4567:6 4797:6 5211:4 5474:2 6024:4 6322:7 6469:1 6549:5 7000:1 8130:3 #
-0.0052545779408258233567075023984216 422:1 510:2 534:1 603:1 673:2 996:1 1088:1 1254:1 1963:1 2395:1 2417:1 2636:1 2912:2 3457:1 4492:1 4567:4 4797:5 5211:3 5237:2 5248:1 5262:1 5772:1 6024:3 6302:1 6322:4 6549:2 6568:1 6672:1 7000:1 #
-0.0052545779408258233567075023984216 181:1 518:1 1064:1 1084:1 1382:1 2643:2 2825:1 3265:1 4295:2 4567:5 4797:6 5004:1 5653:1 6024:2 6302:1 6322:1 6549:3 6918:1 7495:1 8180:1 #
0.0052545779408258233567075023984216 58:1 396:1 554:1 757:1 816:1 1114:1 1157:1 1354:1 1469:1 1612:1 1720:1 1820:1 1846:1 1910:1 2785:1 2829:1 3319:1 4567:5 4656:1 4797:4 5005:1 5414:1 6024:1 6292:1 6322:8 6568:1 7020:1 8093:1 #
0.0052545779408258233567075023984216 80:2 190:2 1382:1 2142:1 3069:1 3081:1 3319:2 4188:1 7034:1 7194:1 9936:1 #
-0.0052545779408258233567075023984216 380:1 459:1 534:2 554:1 671:2 712:1 1043:2 1083:1 1417:1 1437:1 1442:1 1551:1 1609:1 1624:1 1743:1 2683:1 2829:1 4188:1 4567:4 4656:1 4797:4 4970:1 6024:1 6164:2 6322:11 6461:1 6568:1 6770:2 7194:1 8832:2 #
0.0052545779408258233567075023984216 111:2 120:1 190:4 203:1 329:7 339:1 342:5 375:1 422:1 500:1 510:1 576:1 580:1 591:1 628:1 673:6 772:2 827:1 862:2 951:2 1058:1 1094:1 1102:1 1304:1 1382:2 1445:1 1464:3 1469:1 1488:1 1551:4 1579:2 1740:3 1820:1 1846:1 1910:1 1956:3 1988:1 2142:3 2211:1 2254:2 2537:1 2640:1 2683:2 2699:3 2807:1 3070:1 3167:4 3255:1 3319:1 3378:1 3660:1 3722:1 3877:1 3994:2 4544:1 4567:9 4797:13 5005:2 5262:1 5279:1 6024:6 6292:3 6322:23 6549:2 6568:9 6770:1 6847:1 7000:7 7062:2 7194:2 7495:4 7572:2 8130:3 8832:2 9936:1 #
0.0052545779408258233567075023984216 77:1 111:2 172:1 307:1 448:1 534:1 539:1 712:1 726:1 757:1 827:1 908:1 991:1 1315:2 1442:1 1464:1 1486:1 1579:1 1721:1 1781:1 2048:1 2142:1 2801:1 3070:1 4797:6 5211:3 6024:1 6302:1 6322:4 6568:1 7194:1 7236:1 #
0.0052545779408258233567075023984216 168:1 329:1 405:2 485:1 493:1 550:1 557:1 1116:1 1910:1 1995:1 2253:1 2765:1 3213:1 3319:4 4330:1 4355:1 4567:1 4797:6 4915:1 5005:1 5211:4 6322:2 6437:1 7000:2 7020:1 #
0.0052545779408258233567075023984216 51:1 67:1 181:1 204:1 209:1 339:1 367:1 377:1 485:1 557:1 631:1 811:1 1280:1 1288:1 1315:1 1544:1 2211:1 2683:1 2709:1 3081:1 3319:2 3439:1 4567:3 4797:5 4814:1 4915:1 5185:1 5211:1 6024:1 6292:2 6322:1 7000:1 7034:1 #
-0.0052545779408258233567075023984216 181:2 190:2 194:1 199:1 277:1 534:1 591:3 1000:4 1377:1 1740:1 1776:1 1985:1 2108:1 2142:1 2374:1 2829:2 4282:1 4567:4 4747:1 4939:1 5037:1 6024:4 6292:1 6322:4 7194:2 7495:1 #
-0.0052545779408258233567075023984216 190:1 302:1 459:1 495:1 534:1 1057:1 1469:1 1579:1 1716:1 2108:1 3729:1 4282:1 4567:4 4797:1 6322:1 7495:1 #
0.0052545779408258233567075023984216 58:1 111:1 117:3 190:1 194:1 203:3 219:1 277:1 329:1 331:1 339:1 342:4 367:1 382:1 396:1 422:3 485:1 495:2 510:2 534:2 557:2 656:1 671:1 673:3 712:4 726:3 837:1 971:1 1055:1 1116:1 1141:1 1179:1 1205:3 1216:1 1227:1 1280:1 1282:1 1294:1 1339:1 1377:3 1404:1 1455:1 1469:2 1549:2 1579:2 1740:2 1746:1 1750:1 1795:1 1806:1 1844:1 1849:1 1963:2 2057:1 2076:1 2142:1 2154:1 2160:1 2213:1 2237:1 2238:3 2296:1 2471:1 2499:1 2699:1 2741:1 2849:1 3070:1 3072:2 3081:1 3147:1 3205:1 3264:1 3279:1 3319:7 3727:1 3776:1 3961:2 3996:1 4109:1 4567:25 4581:1 4656:4 4660:2 4707:1 4797:31 5000:1 5079:1 5211:2 5957:1 6024:1 6292:7 6322:20 6568:6 7000:4 7175:1 7194:4 7495:1 8832:4 #
0.0052545779408258233567075023984216 6:1 58:1 79:1 84:1 98:1 100:1 111:1 242:1 329:10 339:1 342:3 396:1 465:1 478:1 480:1 483:1 485:6 493:2 506:1 509:1 528:1 534:1 561:1 622:1 673:2 712:1 726:1 757:1 772:1 882:1 913:1 971:1 1068:1 1184:1 1227:1 1282:1 1288:1 1301:1 1304:2 1315:1 1377:1 1558:1 1579:1 1639:1 1740:1 1750:1 1781:3 1800:1 1806:1 1814:2 1834:1 1844:1 1912:2 2142:2 2163:1 2213:2 2253:1 2267:1 2307:1 2541:1 2556:1 2640:1 2683:3 2699:2 2741:1 2829:1 3081:2 3281:1 3319:8 3495:1 3722:1 3728:1 3778:1 3882:1 4188:1 4314:1 4567:27 4705:1 4797:15 4915:4 5211:4 5262:1 5300:1 5702:1 5919:1 5978:1 6024:2 6292:4 6322:39 6549:3 6568:2 6861:1 7000:7 7034:1 7194:1 7495:2 7645:1 8052:1 8093:1 8130:1 8832:1 9170:1 9416:1 9929:1 9936:1 #
0.0052545779408258233567075023984216 294:1 301:1 329:2 342:1 375:1 478:1 483:1 662:1 673:2 726:1 950:1 951:1 1114:1 1315:1 1377:1 1437:1 1488:1 1579:5 1624:1 1910:2 2219:1 2293:1 2683:1 3319:1 3378:1 3728:2 4358:1 4567:1 4797:10 5079:1 5211:5 6024:2 6164:3 6292:1 6322:4 6549:1 6770:1 7194:1 7495:1 8738:1 9936:1 #
0.0052545779408258233567075023984216 208:1 449:1 459:1 557:1 597:1 634:1 673:2 772:1 778:1 908:1 963:1 1193:1 1322:1 1382:1 1544:1 2048:1 2829:1 2845:1 3662:1 4282:1 4567:1 4655:1 4797:5 4915:1 5211:3 5597:1 5934:1 6024:1 6322:1 7000:2 7495:1 #
0.0052545779408258233567075023984216 190:2 199:1 204:2 329:1 396:2 458:1 510:1 575:1 662:1 673:1 779:1 1058:1 1216:1 1308:1 1536:1 1544:1 1820:1 2354:1 3319:2 3994:1 4188:1 4565:1 4567:5 4797:8 4915:1 6024:4 6292:1 6322:13 6568:1 7000:4 8832:1 9936:2 #
-0.0052545779408258233567075023984216 219:1 341:1 396:1 428:1 778:1 815:1 1267:1 1488:1 1735:1 2076:1 2150:1 3573:1 3729:1 4262:1 4418:1 4567:2 4797:2 5279:1 6024:2 6322:1 7194:1 7316:1 7495:1 8227:1 8832:1 9936:2 #
0.0052545779408258233567075023984216 42:1 58:1 81:1 111:2 181:1 213:1 329:6 364:1 367:1 391:1 396:4 422:1 483:4 510:2 534:1 557:2 591:1 673:2 714:1 772:1 827:1 969:2 976:1 1064:1 1117:1 1121:1 1149:1 1168:1 1184:1 1218:1 1278:1 1288:1 1377:3 1393:1 1424:1 1437:3 1457:1 1464:1 1551:1 1579:2 1587:1 1624:2 1679:1 1740:2 1910:2 1963:1 1995:1 2048:1 2108:1 2109:1 2394:1 2591:1 2683:1 2741:2 2845:1 3065:1 3319:4 3471:1 3633:1 4189:1 4285:1 4359:1 4413:1 4567:13 4625:1 4655:1 4797:21 4868:1 5003:1 5004:1 5005:1 5211:7 5237:2 5343:1 6024:5 6292:4 6302:1 6322:24 6549:8 6568:9 7000:2 7194:3 7947:1 8130:4 8487:2 8947:1 #
0.0052545779408258233567075023984216 132:1 176:1 181:1 185:2 190:2 275:1 329:1 339:1 342:2 377:2 396:1 422:1 465:1 478:1 485:3 504:1 526:1 575:1 591:2 597:1 603:2 634:1 671:1 673:4 714:1 722:1 827:1 862:2 971:2 1043:1 1064:1 1074:1 1138:1 1214:1 1225:2 1267:1 1304:2 1377:2 1441:1 1442:1 1469:1 1488:1 1551:1 1579:2 1624:1 1731:3 1746:8 1872:1 1910:1 1963:1 1985:1 2048:1 2057:1 2170:1 2308:1 2364:1 2419:1 2640:1 2683:1 2825:1 3257:1 3264:1 3319:3 3367:1 3480:1 4188:2 4276:1 4285:1 4513:1 4567:15 4797:18 4915:2 4997:1 5005:1 5079:2 5211:7 5237:1 5262:1 5474:1 5549:1 6024:3 6292:2 6322:22 6549:13 6568:11 7000:2 7062:2 7171:2 7194:2 7495:1 7702:1 7947:1 8832:1 9936:2 #
0.0052545779408258233567075023984216 123:1 166:1 181:4 190:2 199:1 329:1 414:1 478:2 550:1 575:1 730:1 827:1 991:1 1207:1 1424:3 1551:1 1976:1 2396:1 2591:1 2643:1 3319:1 4567:1 4797:6 6322:4 6782:1 8130:2 #
0.0052545779408258233567075023984216 84:1 155:1 203:1 204:1 539:1 557:2 803:1 1114:1 1446:1 1492:1 1551:1 1782:1 2528:1 2801:1 2829:1 3319:1 4567:6 4785:1 4797:6 4825:1 4915:1 5211:1 5282:1 5712:1 6292:2 6322:7 6395:1 7109:1 7645:1 7947:1 #
0.0052545779408258233567075023984216 83:1 345:1 347:1 609:1 726:1 809:1 971:1 1080:1 1175:1 1223:1 1298:1 1312:1 1423:1 1442:1 1904:1 2264:1 2829:1 3003:1 3728:1 4006:1 4567:10 4797:6 4915:1 5237:1 5372:1 6292:1 6322:2 9936:1 #
0.0052545779408258233567075023984216 134:1 266:1 329:1 485:2 654:1 656:1 726:6 891:1 927:1 1057:1 1114:1 1315:1 1442:1 1501:1 1551:1 1567:1 1579:2 2058:1 2446:1 3081:1 3319:2 3621:1 4188:2 4567:3 4797:8 5211:1 6322:2 7194:2 8832:1 8947:1 #
-0.0052545779408258233567075023984216 190:3 449:1 485:1 506:1 510:1 571:1 712:1 717:1 726:1 927:1 1150:1 1263:1 1377:1 1469:1 2048:1 2095:1 2142:1 2829:1 3039:1 3081:2 4567:6 4655:1 4797:2 5211:1 5248:1 5449:1 6823:1 7000:1 7495:1 7572:1 #
0.0052545779408258233567075023984216 29:1 38:1 65:1 111:1 122:1 190:1 202:1 220:1 329:6 342:1 422:2 461:1 495:1 506:1 534:2 591:4 634:1 673:6 689:2 712:1 717:1 726:1 767:1 862:2 991:1 996:1 1056:1 1064:1 1116:1 1216:1 1218:1 1288:1 1304:1 1315:2 1377:1 1393:1 1437:1 1441:1 1469:1 1488:1 1551:1 1558:1 1567:2 1579:5 1624:2 1651:1 1740:2 1795:2 1820:3 1851:2 1910:1 1956:2 1985:1 2056:2 2099:1 2108:1 2237:1 2394:1 2471:1 2525:2 2643:1 2683:1 2801:2 2814:1 2825:1 2829:5 3081:2 3169:1 3205:1 3247:1 3265:1 3319:2 3610:1 3956:1 3961:1 4002:1 4148:1 4282:1 4567:14 4747:4 4797:24 4915:2 5005:4 5100:1 5211:9 5248:1 5279:1 5412:1 5449:1 5753:1 5942:2 6024:3 6292:2 6322:28 6500:1 6549:2 6568:4 6823:1 7000:5 7061:1 7062:8 7175:1 7194:2 7495:2 7541:1 7572:1 7769:1 8832:1 9936:1 #
0.0052545779408258233567075023984216 172:2 190:1 329:2 377:1 422:1 465:1 483:1 673:1 909:1 991:1 1225:1 1441:1 1483:1 1544:1 1782:1 2699:1 2829:1 4567:5 4797:2 5151:4 6024:1 6322:3 7000:1 7210:1 7599:1 7707:1 #
-0.0052545779408258233567075023984216 77:1 111:1 181:5 215:1 507:2 678:1 812:1 971:1 1193:1 1225:1 1227:1 1279:1 1304:1 1377:1 1431:1 1579:1 1740:1 2099:1 2398:1 3167:1 3319:1 3610:1 4567:2 4797:3 4860:1 5005:2 5934:1 6292:1 6322:3 8437:1 #
-0.0052545779408258233567075023984216 190:1 331:1 367:2 534:1 662:1 730:1 971:1 977:1 1064:1 1193:1 1382:1 1442:1 1769:1 1781:1 1910:1 2237:1 2829:1 3214:1 3319:1 4485:1 4565:1 4567:4 6024:1 6322:5 6568:1 6823:1 7000:1 7062:2 #
0.0052545779408258233567075023984216 47:1 51:1 54:1 111:2 190:1 194:1 329:2 342:1 373:1 375:1 377:2 379:1 396:1 466:2 485:1 506:1 528:2 534:2 554:1 557:3 571:1 591:1 634:2 656:1 673:10 712:1 714:1 726:2 757:2 772:1 778:1 827:1 837:2 871:1 903:1 908:2 991:1 1006:1 1095:1 1114:2 1116:1 1184:1 1198:1 1200:1 1214:1 1227:1 1263:1 1315:3 1377:2 1417:1 1424:1 1441:2 1442:1 1473:1 1543:1 1544:2 1579:6 1721:1 1740:3 1774:1 1795:2 1842:1 1932:1 1963:2 1985:1 2142:1 2213:1 2219:1 2232:1 2296:1 2403:1 2411:1 2420:1 2458:1 2471:1 2683:3 2741:1 2751:1 2801:4 2829:3 2912:1 2953:1 2982:1 3066:1 3081:4 3319:3 3430:1 3439:1 3498:2 3879:1 4188:1 4211:1 4269:1 4282:5 4519:1 4567:29 4656:1 4797:14 4915:2 5005:1 5079:1 5143:1 5211:10 5237:1 5252:1 5262:1 5919:1 6024:7 6292:5 6322:35 6549:2 6568:5 6770:1 7000:2 7030:1 7062:1 7194:4 7495:4 7769:1 8130:1 8832:2 9936:1 #
0.0052545779408258233567075023984216 179:1 347:3 367:1 422:1 448:5 459:1 485:1 506:1 510:1 662:1 673:1 696:1 730:1 827:1 1057:1 1064:1 1194:1 1225:1 1304:1 1315:1 1354:1 1441:1 1442:1 1474:1 1544:1 1851:1 2095:2 2211:1 2353:1 2683:2 2708:1 2834:1 3595:1 4188:1 4567:6 4797:5 4860:1 5262:1 5359:1 5753:2 5919:1 5934:1 6024:1 6322:4 6549:2 8832:1 9699:1 #
-0.0052545779408258233567075023984216 181:1 405:1 458:1 671:1 1083:1 1184:1 1849:1 3319:3 4111:1 4282:1 4567:3 4797:1 5211:1 6322:1 6549:1 7194:1 #
0.0052545779408258233567075023984216 364:1 591:1 1442:1 1551:2 1606:2 1795:2 2048:1 2643:2 4567:2 4797:1 5162:1 6024:1 6292:1 6322:3 7194:1 #
0.0052545779408258233567075023984216 190:2 246:2 364:1 448:3 509:1 591:1 656:1 726:1 951:1 1192:1 1268:1 1280:1 1315:2 1776:1 1782:1 1995:1 2048:2 2142:1 2163:1 3255:2 3319:2 4485:1 4567:13 4797:3 4915:1 5079:1 6322:5 6823:1 7096:1 7194:1 8130:3 8832:2 #
0.0052545779408258233567075023984216 65:1 85:1 166:1 242:1 329:1 396:1 434:1 485:1 557:2 575:1 580:1 772:2 1301:1 1442:1 1457:1 1500:1 1551:1 1579:1 1746:1 1954:2 1958:1 2057:1 2157:1 2213:1 2307:1 2723:1 2792:1 2829:2 3081:1 3155:1 3181:1 3312:1 3319:1 3330:1 3568:1 3778:1 4188:1 4470:1 4567:10 4604:1 4797:11 5005:1 5211:2 5246:1 5934:1 6292:5 6322:9 7000:1 7495:4 8130:1 #
-0.0052545779408258233567075023984216 190:1 465:1 634:1 726:1 1377:1 1488:1 1653:1 2048:1 2056:1 2142:1 2314:1 2471:1 3255:2 3625:1 4567:2 4797:1 5211:4 6024:1 6322:3 7572:1 9936:2 #
0.0052545779408258233567075023984216 181:1 194:1 220:2 329:5 342:1 367:5 377:1 422:3 449:1 504:2 534:2 550:1 591:5 603:1 612:1 634:1 673:3 681:1 688:1 697:1 709:1 726:1 772:1 854:1 862:1 927:1 1056:2 1080:1 1160:1 1184:1 1268:1 1280:2 1288:1 1304:1 1312:1 1315:1 1330:1 1404:1 1417:1 1431:1 1437:2 1468:1 1483:1 1624:2 1653:1 1782:1 1795:3 1865:1 1942:1 1963:1 2048:1 2141:2 2192:1 2232:1 2237:1 2411:2 2459:1 2471:1 2648:1 2829:4 2921:1 3070:1 3114:1 3369:1 4111:2 4220:1 4567:13 4602:1 4655:1 4797:21 4915:3 5211:6 6024:2 6101:1 6292:2 6322:6 6549:1 6568:1 6770:1 6970:1 7000:1 7020:4 7194:2 7572:2 8832:1 9936:1 #
-0.0052545779408258233567075023984216 190:1 339:1 448:2 534:1 591:1 634:1 971:1 1117:1 1963:1 2048:1 3081:1 3538:1 4111:1 4358:1 4567:3 4797:1 5211:2 6322:1 7495:1 #
0.0052545779408258233567075023984216 18:1 67:1 111:1 181:2 190:1 422:1 485:1 534:2 634:1 673:1 1150:1 1282:1 1442:1 1551:1 1579:2 2354:5 3264:1 3283:2 3319:2 3822:1 4111:1 4567:2 4797:1 6322:1 9936:1 #
0.0052545779408258233567075023984216 132:1 140:1 329:1 597:1 726:1 1193:1 1382:1 1442:1 2683:2 3319:1 3461:1 4567:2 4797:2 4915:1 4985:1 5005:1 5211:1 5934:2 6024:2 6292:1 6549:4 7194:1 9936:3 #
0.0052545779408258233567075023984216 65:1 339:2 347:1 534:1 597:1 1441:1 1549:1 2099:1 2643:1 2683:1 3319:1 4567:3 4797:2 5359:1 5896:1 6549:3 7000:1 7210:1 8968:2 9936:2 #
-0.0052545779408258233567075023984216 206:1 396:1 485:1 1489:1 3265:1 4797:2 5005:1 6322:1 7000:2 7194:1 7495:1 #
-0.0052545779408258233567075023984216 111:1 485:1 726:1 1437:1 1488:1 1910:1 2829:1 3625:1 4567:1 4797:1 5211:3 7000:2 #
-0.0052545779408258233567075023984216 190:1 301:1 504:1 927:1 1500:1 1579:1 2640:1 4567:1 4797:1 4915:1 6322:1 7000:1 #
0.0052545779408258233567075023984216 132:1 172:1 339:1 367:1 419:1 485:1 534:1 550:1 575:1 634:1 673:2 712:2 772:1 1114:1 1184:1 1245:1 1330:1 1543:2 1544:1 1551:2 1834:1 1956:1 1985:1 2225:1 2801:1 2829:2 3081:2 3319:1 3796:1 3897:1 4111:1 4567:7 4797:3 4860:1 5151:1 5919:3 6322:4 6568:2 6684:1 6770:1 7062:1 8832:1 #
-0.0052545779408258233567075023984216 111:1 190:1 347:1 377:2 419:1 483:1 485:2 507:1 510:2 534:2 591:1 597:1 609:1 673:6 712:1 714:1 746:1 816:1 837:1 895:1 908:1 991:1 1021:1 1042:1 1043:1 1207:1 1315:1 1319:1 1376:1 1377:2 1437:1 1442:1 1469:4 1488:2 1579:3 1624:2 1746:1 1795:1 1820:1 1844:1 1877:1 1963:1 2048:1 2057:1 2237:1 2296:1 2683:2 2699:1 2709:1 2773:1 3070:1 3081:3 3169:1 3264:1 3319:3 4188:1 4358:1 4534:1 4567:19 4625:1 4655:1 4797:7 4915:1 5005:3 5237:2 5262:1 6024:1 6292:5 6322:13 6549:2 6568:2 7000:3 7062:3 7194:1 8832:2 9040:1 9936:3 #
-0.0052545779408258233567075023984216 500:1 772:1 1910:1 2829:1 3255:1 3319:1 3557:1 4111:1 4567:3 4797:1 5211:1 7495:1 #
0.0052545779408258233567075023984216 111:1 709:1 1057:1 1136:1 1179:1 1225:1 1377:1 1653:1 1716:1 1795:2 1995:1 2048:1 2192:1 2213:1 2683:1 2734:1 3264:1 3319:2 4567:2 4604:1 4797:5 5005:1 6322:2 6549:3 7062:1 8130:1 9011:1 #
0.0052545779408258233567075023984216 557:1 827:1 1288:1 1304:1 1377:3 1500:1 1579:1 1613:1 1654:1 1820:1 2213:1 2253:1 2643:1 2829:1 3324:1 4567:4 4797:2 5151:6 6024:2 6322:2 #
0.0052545779408258233567075023984216 341:1 480:1 597:2 630:1 1105:1 1469:1 2683:2 3264:1 3778:1 4567:1 4797:1 6024:1 6322:2 #
-0.0052545779408258233567075023984216 483:1 726:1 1074:1 1263:1 1441:1 1464:2 1579:2 1795:2 1820:1 1963:1 2829:1 4567:3 4797:2 4915:1 5046:1 5211:1 6292:1 6322:1 6537:1 6549:4 7495:1 #
0.0052545779408258233567075023984216 199:1 485:1 597:1 634:2 726:1 728:1 772:1 971:1 1043:1 1214:1 1304:1 1393:1 1441:1 1442:1 1455:1 1678:1 1795:1 1808:1 2253:1 2400:4 2683:1 2829:2 4567:6 4729:1 4797:2 5211:2 5934:1 6292:1 6322:4 6403:2 6568:1 7000:2 7194:1 8093:1 8832:1 9037:2 #
0.0052545779408258233567075023984216 190:1 327:1 329:2 373:1 459:1 465:2 485:2 495:1 712:1 726:1 814:1 1101:1 1117:1 1304:1 1377:1 1544:2 1551:1 1579:1 1782:4 2048:1 2057:1 2142:1 2473:1 2643:1 2683:2 2829:1 3319:1 3557:1 4567:7 4797:2 6024:1 6322:3 6568:1 7000:1 7011:1 7053:1 7495:1 8130:1 8180:1 9699:1 9936:1 #
0.0052545779408258233567075023984216 190:1 194:2 485:1 493:1 509:1 591:1 709:1 757:1 927:1 996:1 1304:1 1340:1 1579:1 1672:2 1731:1 2149:1 2587:1 2651:1 2658:1 3319:2 4156:1 4417:1 4565:1 4567:1 4784:1 4797:1 4915:1 5021:1 6322:1 7000:1 7787:1 8151:1 #
0.0052545779408258233567075023984216 422:1 459:1 483:1 485:1 534:1 591:1 597:1 1088:1 1102:1 1179:2 1184:1 1227:1 1304:1 1473:1 1898:1 2108:1 2170:1 2932:1 3082:1 3265:1 3319:1 3557:1 3727:1 4567:4 4797:4 4915:1 5211:1 5279:1 6322:5 6505:1 6672:1 7034:1 7062:1 7194:1 7495:1 7575:1 9240:1 #
0.0052545779408258233567075023984216 172:1 649:1 889:1 2829:1 3319:1 4567:1 5298:2 6322:2 6549:1 8529:1 #
-0.0052545779408258233567075023984216 80:1 265:1 301:1 534:1 673:1 717:1 1267:1 4655:1 4915:1 6322:1 7572:1 #
-0.0052545779408258233567075023984216 342:1 534:1 726:1 971:1 1489:1 1544:1 2264:1 4567:2 #
0.0052545779408258233567075023984216 246:1 281:1 364:1 377:1 575:1 591:1 662:1 1025:1 1319:1 1441:1 1579:1 1956:1 2237:1 2829:1 3291:1 4567:2 4797:4 6024:4 6322:3 7034:1 #
0.0052545779408258233567075023984216 190:1 377:1 673:1 1245:1 1956:1 2829:2 4567:1 4797:1 6322:1 6823:1 #
-0.0052545779408258233567075023984216 888:2 2142:1 #
-0.0052545779408258233567075023984216 190:1 246:1 364:1 1820:1 2829:1 3081:1 4111:1 6200:1 #
0.0052545779408258233567075023984216 199:1 504:1 673:2 689:1 853:1 1207:1 1312:1 1382:2 1834:1 2072:1 2225:1 2683:1 2889:1 3319:1 4285:1 4567:2 4797:6 6322:2 7000:1 #
0.0052545779408258233567075023984216 190:1 199:1 206:1 322:1 643:1 673:1 726:1 1337:1 1415:1 2048:1 2640:1 2829:1 4567:4 4797:3 5162:1 5211:1 6322:2 8486:1 8947:1 #
0.0052545779408258233567075023984216 242:1 243:1 301:1 329:1 434:1 459:1 485:1 494:1 504:1 506:1 509:1 554:1 597:1 726:2 1083:1 1295:1 1304:1 1417:1 1441:1 1442:1 1469:1 1544:1 1579:1 1624:1 1740:1 1795:1 1849:1 2213:2 2649:1 2683:1 2829:2 3264:1 3273:1 3319:2 4282:1 4567:4 4797:2 6322:4 7495:2 9936:1 #
0.0052545779408258233567075023984216 18:1 132:1 190:3 597:2 726:1 1129:1 1315:1 1377:2 1579:1 2680:1 3081:2 3882:1 4567:4 4797:1 5248:1 6322:2 #
0.0052545779408258233567075023984216 448:1 485:1 1322:1 1363:1 1464:2 3319:1 4295:1 4567:2 4797:1 6322:2 6549:2 7000:1 #
-0.0052545779408258233567075023984216 478:1 1424:1 1488:1 1500:1 1551:1 1579:1 1910:1 2403:1 3778:1 4111:1 4567:2 4797:1 6024:1 6164:1 6322:3 7000:1 7194:1 7303:1 9936:1 #
-0.0052545779408258233567075023984216 190:3 219:1 510:2 634:1 1047:1 1464:1 1544:1 1579:1 1587:1 1781:1 1808:1 2723:1 4111:1 4130:1 4567:3 4797:3 4972:1 5211:3 5383:1 6024:1 6322:6 6549:1 6568:1 7000:2 7062:1 9011:1 #
0.0052545779408258233567075023984216 190:1 591:1 1488:1 1579:1 1606:1 2142:2 2423:2 3081:1 4567:2 5211:1 6292:1 6322:2 9936:1 #
0.0052545779408258233567075023984216 284:1 317:1 396:1 534:1 709:1 1146:1 1551:1 2829:1 3283:2 3319:1 4567:1 6322:1 #
0.0052545779408258233567075023984216 190:3 396:1 485:1 534:1 550:1 1551:1 1579:1 4567:2 4655:1 4915:2 6322:2 8137:1 8151:1 #
-0.0052545779408258233567075023984216 717:1 1442:1 1579:1 3264:1 3319:1 4567:2 4915:1 5211:1 7572:1 #
-0.0052545779408258233567075023984216 730:1 782:1 3098:1 3319:1 3568:1 4567:2 4785:1 4797:1 6024:1 #
-0.0052545779408258233567075023984216 83:1 554:1 634:1 1441:1 1496:1 3214:1 4567:1 4797:1 4915:1 6024:1 6322:1 8832:1 9936:1 #
0.0052545779408258233567075023984216 190:1 329:1 591:2 1225:1 1364:1 1488:1 1500:1 1820:1 1898:1 1910:2 2048:1 2145:1 2683:1 2829:2 3069:1 3491:1 4567:3 4747:1 4797:3 5151:3 6322:2 7000:1 7194:1 #
0.0052545779408258233567075023984216 166:1 199:3 422:1 827:1 1305:1 1441:1 1544:1 1579:1 1740:2 1820:1 3081:1 3167:1 4797:5 5211:1 5237:1 6164:1 6322:2 7000:1 7194:1 #
0.0052545779408258233567075023984216 111:1 266:1 339:1 485:1 591:1 1105:1 1132:1 1305:1 1483:1 1536:1 1606:1 1856:2 2003:1 3081:1 3324:1 3778:1 4567:3 4797:2 5211:4 5712:1 6024:2 6322:2 6568:1 7000:1 8437:1 #
-0.0052545779408258233567075023984216 172:1 396:1 485:1 510:1 603:1 1243:1 1442:1 1579:1 1782:1 1808:1 1898:1 2142:1 2157:1 2688:1 2829:2 2932:1 2982:1 3081:1 3255:1 3257:1 3319:2 4567:1 4797:5 5262:1 5775:1 6322:2 6549:2 7194:1 8426:1 #
0.0052545779408258233567075023984216 111:2 281:1 342:1 534:1 591:1 656:1 726:1 1263:1 1335:1 2608:2 2631:1 3319:1 3778:2 4567:6 5248:1 6024:2 6322:1 6549:1 7439:1 #
0.0052545779408258233567075023984216 100:1 194:1 329:1 391:1 495:1 812:1 913:1 991:1 1057:1 1464:1 1579:1 1995:1 2237:1 2414:1 3319:3 4567:3 4915:1 5211:1 5474:1 6292:1 6322:1 7000:1 7440:1 #
-0.0052545779408258233567075023984216 111:1 190:3 827:1 2403:1 2829:1 4567:2 5211:2 6322:2 7194:1 7440:1 7495:1 8180:1 9936:1 #
-0.0052545779408258233567075023984216 396:1 461:1 726:1 909:1 1117:1 1437:1 1492:1 1910:1 2504:1 2643:1 2912:1 2932:1 3319:1 4282:1 4567:5 4655:1 4797:2 4860:1 4915:1 6322:3 7000:1 7194:1 #
0.0052545779408258233567075023984216 166:1 396:1 846:1 1579:1 2829:1 3134:1 3214:1 3319:4 3961:1 4567:1 4797:3 4860:1 5299:1 7000:1 7194:2 #
0.0052545779408258233567075023984216 396:1 459:1 462:1 480:1 485:1 651:2 717:2 1263:1 1579:1 1587:1 2048:2 2608:1 2636:1 3319:1 4567:5 4797:3 6024:4 6214:1 7000:1 7194:1 7303:1 #
-0.0052545779408258233567075023984216 203:1 342:1 377:1 396:1 510:1 651:1 662:1 673:1 889:1 1121:1 1225:1 1424:2 1441:1 1474:1 1579:1 1995:1 2829:2 4567:2 4797:1 5211:4 5237:1 6322:2 #
-0.0052545779408258233567075023984216 265:1 726:1 1304:1 1442:1 1551:1 1579:1 2829:2 3081:1 3314:1 3319:1 4567:3 4797:1 5211:3 6322:3 #
-0.0052545779408258233567075023984216 111:1 329:2 339:1 342:1 347:1 377:1 480:1 510:1 534:1 550:1 673:1 853:1 1115:1 1502:1 1530:1 1579:3 1985:1 2057:1 2108:1 2213:2 2222:1 2237:1 2387:1 2829:1 2932:1 3012:1 3281:1 3430:1 3457:1 4524:1 4567:7 4797:7 5079:1 5211:1 5934:1 6024:1 6292:4 6322:9 6568:1 7495:2 #
0.0052545779408258233567075023984216 203:1 341:1 557:1 687:1 1114:1 1184:1 1267:1 1898:1 2845:1 3319:1 3820:1 4567:8 4797:1 4915:1 6024:1 6549:1 6847:1 7495:1 #
0.0052545779408258233567075023984216 132:1 204:1 219:1 396:1 507:1 534:2 726:1 1083:1 1138:1 1304:1 1319:1 1551:1 1795:1 2202:1 2683:1 2801:1 2829:1 3081:1 3098:1 3255:1 3319:2 4282:1 4567:7 4797:2 5079:1 5211:1 6292:2 6322:5 6549:1 6568:2 7194:1 7495:1 8130:1 #
0.0052545779408258233567075023984216 140:1 391:1 495:2 597:3 634:1 726:1 971:1 1080:1 1117:1 1184:1 1315:1 1501:1 1579:1 1795:1 2213:1 2278:1 3081:1 3319:2 4567:4 4705:1 4797:4 6292:1 6322:4 7000:1 7194:3 8093:1 8130:1 #
-0.0052545779408258233567075023984216 246:1 329:1 364:1 584:1 662:1 678:1 1160:1 1218:1 1288:1 2643:1 2683:1 2821:1 2910:1 3255:1 4492:1 4567:5 4797:1 5004:1 5211:1 5262:1 5449:1 6024:3 6322:2 6549:1 6659:1 7000:1 #
0.0052545779408258233567075023984216 85:1 329:1 534:1 597:1 654:1 757:1 909:1 1057:1 1382:1 1579:1 1685:1 2142:1 3319:2 4567:1 4797:2 5211:2 5237:1 6024:1 #
0.0052545779408258233567075023984216 329:1 422:1 510:1 534:2 681:1 1372:1 1374:1 1428:1 1575:1 1609:1 1795:1 1820:1 2054:1 2108:1 2643:3 2829:1 4282:1 4567:2 4797:1 5211:2 7194:1 7495:1 #
0.0052545779408258233567075023984216 79:1 84:1 172:2 329:1 382:1 422:1 495:1 717:1 1138:1 1468:1 1995:1 2057:1 2237:1 4567:2 5211:2 6322:1 7062:1 7947:1 #
-0.0052545779408258233567075023984216 1057:1 1377:1 1579:1 1963:1 1985:1 2829:1 2912:1 3255:1 3337:1 4567:6 4797:1 4915:1 5211:1 5811:2 6322:1 7947:1 8130:2 #
0.0052545779408258233567075023984216 190:2 507:1 2825:1 4567:2 6024:1 6322:1 7062:1 8130:2 #
0.0052545779408258233567075023984216 109:2 111:1 134:1 199:1 534:1 634:1 662:1 1304:1 1319:1 1374:1 1483:1 1579:3 1775:1 1831:1 1929:1 2170:1 3264:1 3776:1 4567:4 4797:1 5004:1 5162:1 5896:1 5927:2 6024:1 6337:1 7000:1 #
0.0052545779408258233567075023984216 329:1 449:1 478:1 597:1 1442:1 1468:1 1579:1 2354:1 2371:1 2683:1 3319:1 4188:1 4355:1 4567:2 4797:2 5237:2 5262:1 6322:2 6823:2 7000:2 9936:1 #
-0.0052545779408258233567075023984216 190:1 483:1 510:1 591:1 671:1 1133:1 1227:1 1493:1 1579:2 2643:1 2699:1 3369:1 3491:1 4797:1 6024:1 6322:5 6549:1 7000:3 8093:1 8130:1 9936:1 #
0.0052545779408258233567075023984216 199:1 485:2 597:1 717:1 1563:1 1579:1 1738:1 1783:1 1808:1 3319:1 3457:1 3621:1 4156:1 4567:9 4797:1 6024:1 6214:1 #
0.0052545779408258233567075023984216 339:1 534:1 634:1 696:1 1464:3 1994:1 2912:1 4797:1 6322:3 6549:4 6770:1 7194:1 #
0.0052545779408258233567075023984216 190:2 534:1 681:1 1057:2 1304:2 2683:1 3264:1 4567:1 6024:1 #
-0.0052545779408258233567075023984216 339:1 506:3 634:1 681:1 717:1 812:1 1579:1 1898:1 1910:1 2180:1 2683:1 2801:1 4282:1 4567:2 4797:2 4939:1 5919:1 6322:2 7000:1 #
-0.0052545779408258233567075023984216 190:1 478:1 997:1 1442:1 1488:1 1910:1 4567:1 4797:2 6322:1 #
0.0052545779408258233567075023984216 203:1 483:1 634:1 709:4 712:1 1225:2 1304:1 1457:1 1579:1 3081:1 3319:2 3369:1 4111:1 4567:3 4797:2 6292:1 6322:1 #
0.0052545779408258233567075023984216 36:1 190:1 396:1 671:1 712:1 1579:1 2801:1 3391:1 4282:1 4565:1 4567:6 4797:3 5211:1 6322:2 6471:1 6853:1 7000:1 7062:1 7194:1 #
0.0052545779408258233567075023984216 510:1 1282:1 1464:1 1469:1 3283:1 3319:3 3633:1 3778:1 4567:4 4797:2 5424:1 8832:1 #
-0.0052545779408258233567075023984216 111:6 181:1 194:1 277:1 301:1 329:4 339:1 480:1 504:1 507:1 510:2 534:5 554:1 575:1 591:2 634:1 673:4 726:1 971:1 1168:2 1196:1 1269:1 1304:5 1312:2 1377:1 1469:1 1488:2 1551:1 1579:2 1624:2 1740:1 1795:5 1865:1 2057:1 2157:1 2213:1 2485:1 2683:2 2829:1 3200:1 3265:1 3381:1 3439:1 3778:1 3994:2 4485:1 4567:22 4797:12 4915:1 5004:1 5005:1 5048:1 5549:1 6024:2 6322:9 6549:1 7000:1 7062:4 7194:1 7495:10 7979:1 8832:2 9816:1 #
0.0052545779408258233567075023984216 65:1 329:1 465:1 557:1 607:1 673:1 908:2 1168:1 1304:2 1736:1 1781:1 1963:1 2829:3 3050:1 3081:1 3961:1 4567:2 4797:5 5211:1 5609:1 5927:2 6322:5 8093:1 8614:2 #
0.0052545779408258233567075023984216 190:1 322:1 342:1 459:1 709:1 927:1 1473:1 1910:1 2048:2 2621:1 2932:1 3319:2 3538:1 3897:1 4040:1 4282:1 4567:3 4797:3 5650:1 6322:3 6770:1 8130:1 #
0.0052545779408258233567075023984216 190:1 342:1 448:1 510:1 536:1 1469:1 1579:1 2057:1 2108:1 2222:1 2683:1 2829:2 3091:1 3281:1 4567:3 4797:2 5211:1 5546:1 6322:2 7194:1 8487:1 8832:1 #
0.00023366701285158425547942850908356 134:1 329:1 396:1 434:1 485:1 507:1 622:1 667:1 712:1 726:1 730:1 932:1 991:1 1117:1 1184:1 1225:1 1227:2 1315:3 1379:1 1488:1 1579:4 1783:1 1820:1 2041:1 2058:1 2364:1 2463:1 2471:1 2741:3 3036:1 3255:1 3319:2 3439:1 3778:2 3820:1 4111:2 4207:1 4262:1 4282:2 4567:15 4707:1 4797:7 4915:2 5005:2 5211:1 5412:2 5474:1 5753:1 6014:1 6142:1 6164:1 6292:3 6322:6 6549:3 7000:4 7062:1 7194:2 7495:1 7979:1 8832:1 9936:1 #
-0.0052545779408258233567075023984216 47:1 134:1 140:1 166:1 181:1 190:2 194:1 196:1 203:1 242:1 289:1 329:4 342:1 367:2 396:1 405:2 462:1 485:1 500:1 506:2 534:1 539:1 550:2 557:4 697:1 715:1 717:1 772:2 812:1 834:1 837:1 846:1 862:1 863:1 882:1 930:1 947:1 987:1 1000:1 1010:1 1064:2 1068:2 1101:1 1214:1 1227:1 1268:1 1269:2 1280:1 1288:1 1304:1 1355:1 1372:1 1469:1 1543:1 1579:2 1746:1 1856:1 1865:1 1910:1 1958:1 1995:2 2066:1 2187:1 2213:1 2318:1 2354:1 2549:1 2661:1 2683:1 2781:1 2829:1 2882:1 2921:1 2923:1 2926:1 3070:1 3081:1 3200:1 3319:5 3796:1 3824:1 3994:2 4111:1 4188:1 4314:1 4519:1 4567:31 4797:29 4825:1 5005:1 5211:1 5237:1 5712:1 6282:1 6292:3 6322:29 6535:1 6549:2 6568:3 7000:1 7194:2 7440:1 7495:4 7638:1 7645:1 8832:1 9936:1 #
-0.0052545779408258233567075023984216 77:1 111:1 306:1 339:1 375:1 485:1 597:1 662:1 673:2 714:1 726:1 827:1 1117:1 1424:2 1579:3 1612:1 1740:1 1743:1 1820:1 1910:1 2293:1 2683:2 2932:1 3069:1 3319:3 3369:1 3425:1 4034:1 4567:6 4797:3 4860:1 4915:1 5211:2 5237:1 5934:1 6024:1 6164:1 6322:2 7000:1 7062:1 7194:1 7572:1 #
-0.0052545779408258233567075023984216 199:1 466:1 509:1 534:1 662:1 1150:1 1184:1 1305:1 1500:1 1624:1 1808:1 1820:1 2048:1 2640:1 2643:1 2829:1 3081:1 3728:1 4567:3 4655:1 4797:6 6322:5 7194:1 #
0.0052545779408258233567075023984216 534:1 1442:1 1468:1 2643:1 2912:1 3169:1 4567:2 5211:1 6322:2 8180:1 #
-0.0052545779408258233567075023984216 380:5 391:1 534:3 673:1 862:1 908:1 1184:1 1312:1 1315:1 1544:5 1609:2 1743:3 1985:1 1995:1 2253:1 2658:1 2683:1 2801:1 3081:1 3670:1 4282:3 4567:3 4797:3 6024:1 6292:1 6322:3 6568:1 6770:1 7000:1 7062:1 7495:1 8130:1 #
-0.0052545779408258233567075023984216 6:1 199:1 459:1 485:3 493:1 504:1 534:1 591:1 673:1 862:2 1304:2 1315:3 1579:2 1624:1 1740:2 1781:2 1795:1 1904:1 1995:1 2395:1 3313:1 3319:1 3369:1 3457:1 3562:1 3670:1 4567:1 4785:1 4797:3 5005:1 5079:1 5588:1 5934:1 6024:1 6292:3 6322:9 7495:1 8180:1 8832:1 8988:1 #
