SVM-light Version V6.02
0 # kernel type
3 # kernel parameter -d 
1 # kernel parameter -g 
1 # kernel parameter -s 
1 # kernel parameter -r 
empty# kernel parameter -u 
9947 # highest feature index 
18457 # number of training documents 
5258 # number of support vectors plus 1 
-0.2899804 # threshold b, each following line is a SV (starting with alpha*y)
-0.0039245350571364395059203999949204 329:2 405:1 543:1 807:1 991:1 1045:1 1288:1 1304:1 1436:1 1579:2 1675:1 1738:1 1910:1 1942:1 1952:1 2415:1 2829:1 2833:1 3113:1 3300:1 3319:2 3331:1 4394:1 4567:4 4797:4 5205:1 5570:1 5943:1 7000:1 7495:1 8133:4 8201:1 8397:1 8832:1 9310:1 #
0.0039245350571364395059203999949204 26:1 41:1 43:5 54:1 67:2 100:2 140:1 143:2 190:1 229:1 324:4 329:6 345:1 377:1 422:1 462:1 469:1 485:1 500:1 603:1 671:1 673:1 811:1 813:1 872:1 947:1 1010:1 1057:4 1113:2 1114:1 1192:1 1304:1 1319:1 1330:1 1433:1 1436:1 1598:1 1740:1 1808:1 1882:1 1903:4 1952:1 1976:3 1994:1 2108:1 2731:1 2734:5 2765:1 2829:1 3105:1 3143:1 3275:2 3319:2 3674:1 3824:5 4176:2 4188:3 4234:1 4389:1 4567:12 4655:1 4705:1 4797:2 5798:1 6115:1 6121:1 6292:1 6406:1 6838:1 7000:6 7147:1 7194:1 7208:1 8133:4 8181:6 9037:1 #
-0.0039245350571364395059203999949204 18:1 85:1 199:1 281:1 306:1 603:1 1279:1 1505:1 1579:1 4650:1 6322:1 #
-0.0039245350571364395059203999949204 1:1 41:1 182:1 198:1 499:1 612:2 681:1 930:1 1014:1 1064:1 1549:1 1579:2 1740:1 2549:1 2734:1 3963:1 5005:1 5144:1 5969:1 6578:1 7495:1 8243:2 8361:1 #
-0.0039245350571364395059203999949204 364:1 485:1 584:2 673:1 706:1 757:1 1056:1 1469:1 1740:1 1952:1 6549:1 7000:3 #
0.0039245350571364395059203999949204 591:1 1740:1 #
-0.0039245350571364395059203999949204 349:1 355:1 681:1 953:1 1078:1 1579:1 1740:1 2683:1 2829:1 3319:1 4567:1 4655:1 4797:2 5691:2 6322:1 7000:1 7211:1 #
-0.0039245350571364395059203999949204 26:1 83:1 154:1 171:3 206:1 219:1 220:1 227:1 314:1 329:2 339:1 345:1 377:2 422:1 459:1 478:1 485:1 534:1 557:1 603:1 634:1 662:1 667:1 688:1 712:1 908:1 1020:1 1064:1 1084:1 1177:2 1288:2 1304:1 1377:1 1544:2 1579:4 1613:1 1704:1 1740:1 1787:2 1910:1 2234:1 2680:1 2829:3 2849:3 3120:1 3319:1 3378:1 3538:1 3854:3 4176:3 4369:1 4389:2 4567:11 4793:4 4797:4 4868:1 5005:1 5130:1 6011:1 6292:1 6322:4 6328:1 6410:1 6635:6 7000:3 7062:1 7194:1 7495:1 8133:4 8832:1 #
0.0039245350571364395059203999949204 4:2 422:2 485:1 568:1 603:1 656:1 827:1 872:1 914:1 1177:1 1288:1 1300:1 1319:1 1410:1 1495:1 1865:1 2086:1 2142:1 2149:2 2157:1 4176:1 4330:1 4389:1 4573:1 4797:1 6024:1 6322:4 7000:1 7272:1 7643:2 7941:1 9936:1 #
-0.0039245350571364395059203999949204 1:1 38:1 647:1 673:1 872:1 971:1 1056:2 1177:1 1241:2 3319:2 5376:1 6223:1 8133:1 8141:1 #
0.0039245350571364395059203999949204 83:1 182:1 220:1 254:1 329:1 377:1 461:1 509:1 591:1 597:1 641:1 681:1 990:1 1177:1 1215:1 1259:1 1462:1 1489:1 1538:1 1781:1 1865:1 2234:1 2829:2 3319:1 4567:1 6322:2 7158:1 #
0.0039245350571364395059203999949204 85:1 146:1 458:1 1177:1 4330:1 4567:1 #
-0.0039245350571364395059203999949204 84:1 190:2 277:2 329:1 422:1 508:1 673:1 681:1 684:1 722:1 953:2 1280:1 1305:1 1377:1 1483:1 1579:3 1740:1 1788:1 2731:6 2829:1 3319:1 4567:5 4797:2 6023:2 6322:5 7000:1 7702:1 7947:1 #
0.0039245350571364395059203999949204 140:2 681:1 953:1 1010:1 1544:1 2237:1 2829:1 3283:1 3360:1 3536:1 3824:1 4567:2 4797:1 5943:1 6292:1 7068:3 8989:1 #
-0.0039245350571364395059203999949204 13:1 15:1 17:1 29:1 182:1 218:2 317:1 329:2 342:1 387:1 405:1 459:1 485:1 506:2 671:1 712:2 715:1 847:1 1215:1 1216:1 1288:1 1442:1 1579:1 1704:1 1740:1 1781:1 1898:1 2093:1 2765:1 3451:1 4389:1 4567:5 4797:2 4997:1 5546:1 5662:1 6322:2 8133:1 #
-0.0039245350571364395059203999949204 13:2 29:1 34:1 154:1 209:1 219:1 327:1 405:1 557:5 647:3 667:1 685:1 772:2 854:1 862:1 930:1 946:1 993:3 1036:1 1098:3 1268:1 1304:3 1315:1 1339:1 1395:3 1787:2 2213:1 2829:1 3118:2 3319:1 3534:1 4107:1 4567:7 4793:1 4797:2 6322:3 6378:2 7167:1 8152:1 #
-0.0039245350571364395059203999949204 953:1 1073:1 2415:1 2833:1 5503:1 7679:1 #
-0.0039245350571364395059203999949204 29:2 67:1 190:1 199:1 219:1 367:2 377:2 465:1 478:1 534:1 662:1 726:1 814:1 1146:1 1177:1 1579:1 2785:1 3319:1 4567:2 4719:1 4797:2 5414:1 6292:1 6322:5 7000:1 8318:1 #
0.0039245350571364395059203999949204 77:1 85:1 162:1 171:1 240:1 289:1 317:1 339:1 377:1 419:1 459:1 485:2 586:1 594:1 653:1 654:1 667:1 697:4 742:1 782:1 808:1 862:1 927:1 932:3 1009:2 1056:2 1068:2 1241:50 1259:80 1304:6 1471:1 1579:2 1692:1 2415:1 2731:2 2829:1 2932:1 3319:3 3659:1 3673:1 4176:1 4389:1 4567:10 4797:6 5005:1 6322:35 7000:2 7495:2 8559:1 #
0.0039245350571364395059203999949204 289:1 465:1 927:1 #
-0.0039245350571364395059203999949204 41:3 67:1 82:1 138:1 162:3 182:3 277:3 307:1 329:1 377:1 405:1 557:4 847:3 1036:1 1223:3 1259:3 1304:1 1633:1 1740:1 1787:1 1791:1 3689:3 4188:1 4320:1 5985:1 6292:1 6322:1 7643:3 8133:3 #
-0.0039245350571364395059203999949204 6549:2 8133:1 #
0.00052255626640320264157668628257625 264:1 308:1 341:1 394:1 459:1 509:1 514:1 726:1 1304:1 1305:1 1462:2 1863:1 2003:1 2213:1 3147:1 3300:1 3319:2 3425:1 4567:2 4785:1 4797:1 5005:1 6142:1 6292:1 6322:1 6568:3 9823:2 #
0.0016198195222729583776094530733758 4:1 6:1 8:1 11:6 12:1 18:1 26:1 29:5 40:1 42:1 65:1 80:2 83:1 100:2 111:1 140:2 165:2 172:1 181:1 185:1 186:4 190:1 194:3 199:1 203:2 219:6 229:1 242:4 243:1 246:1 262:1 264:2 265:1 266:1 277:1 301:1 308:1 329:13 337:3 341:1 342:5 345:1 346:6 347:4 351:1 355:2 367:5 377:2 381:2 387:2 391:1 433:1 434:2 462:1 466:6 473:1 478:3 480:1 485:5 504:2 506:3 508:4 509:2 510:25 518:1 521:1 539:1 557:1 560:1 580:2 591:2 593:6 597:1 609:1 610:1 634:1 654:1 657:1 662:1 666:1 667:3 671:2 673:2 681:2 684:5 697:2 712:1 714:2 717:1 719:1 730:1 745:1 757:1 767:1 792:1 812:1 814:1 847:1 872:1 873:1 893:1 903:1 908:1 910:1 913:1 936:1 947:1 950:1 954:1 965:2 969:1 984:7 989:1 996:2 1000:3 1006:1 1033:1 1068:3 1102:1 1113:2 1115:1 1116:3 1121:1 1124:4 1127:1 1129:1 1149:1 1155:1 1177:21 1188:1 1190:1 1218:2 1294:2 1296:1 1304:5 1305:1 1308:2 1312:1 1315:1 1319:2 1322:2 1335:1 1337:1 1339:1 1341:1 1377:2 1389:3 1412:9 1424:1 1437:6 1450:1 1455:1 1469:1 1473:1 1536:2 1547:1 1551:3 1579:20 1624:1 1635:1 1721:1 1740:4 1743:3 1760:1 1765:1 1781:2 1784:1 1795:1 1820:1 1836:1 1851:3 1855:1 1865:3 1919:1 1923:2 1940:2 1949:3 1995:2 2018:2 2067:1 2108:1 2234:1 2237:2 2387:1 2398:1 2441:1 2500:1 2525:1 2537:1 2608:2 2683:6 2699:1 2701:1 2709:1 2731:2 2741:2 2829:9 2859:1 2932:1 2957:1 3014:1 3070:1 3106:1 3130:1 3151:1 3155:2 3169:1 3306:1 3313:3 3319:19 3378:2 3471:1 3480:1 3604:1 3610:1 3653:1 3670:1 3699:1 3728:1 3729:1 3733:1 3773:4 3961:1 4111:2 4188:2 4197:1 4389:1 4443:1 4567:47 4655:1 4707:1 4792:1 4797:69 4846:3 4915:2 5005:1 5069:1 5151:1 5220:1 5495:1 5662:1 5691:1 5917:1 5927:2 6109:3 6151:1 6217:1 6292:2 6322:63 6568:5 6659:1 7000:7 7034:1 7089:1 7165:1 7194:7 7210:1 7385:1 7495:2 7572:1 7702:1 7778:1 7968:2 8133:1 8318:1 8505:1 8559:3 8832:9 9936:4 9942:2 #
0.0039245350571364395059203999949204 185:1 206:1 306:1 478:1 565:2 1579:1 2213:1 4797:4 6322:1 #
0.0039245350571364395059203999949204 317:2 405:1 485:1 499:1 723:1 1177:1 1223:2 1527:1 1692:1 4176:1 4389:1 4797:1 7000:1 8133:1 #
0.0025135654862460145297919922313667 185:1 268:1 396:1 422:1 493:1 495:1 671:1 673:1 712:1 951:1 984:3 1094:1 1192:1 1245:1 1315:1 1437:1 1579:1 1624:1 1703:1 1910:1 2142:1 2398:2 2643:2 2683:1 2731:2 2932:1 3319:1 4567:3 4655:1 4797:4 5005:1 5108:1 5414:1 6322:4 6328:1 7056:1 7495:1 9936:1 #
-0.0027022155825841003180809440920029 1:2 140:1 190:1 199:1 209:1 342:1 461:1 485:1 504:1 560:1 662:1 726:1 953:1 971:1 1177:19 1241:3 1259:1 1315:1 1651:1 1795:1 2149:1 2559:1 2629:1 2765:1 2829:1 3313:1 3319:2 3337:1 3348:1 4188:1 4389:1 4567:1 4797:1 4915:1 4985:1 6322:4 7000:1 7778:1 8133:1 8236:1 8397:1 8487:1 #
-0.0032235168913630437605155609759322 15:1 37:1 100:1 140:1 206:1 219:3 329:1 347:1 367:3 485:2 509:2 597:3 603:4 634:1 722:1 726:1 822:1 853:1 950:1 951:11 1117:1 1177:2 1207:1 1245:1 1304:1 1308:2 1489:4 1501:1 1691:1 1910:1 1951:1 2057:1 2149:3 2206:1 2829:2 3319:4 3728:1 3825:1 4055:2 4188:1 4498:1 4567:4 4797:4 6292:1 6322:3 7194:1 8133:2 8832:1 #
-0.0039245350571364395059203999949204 166:4 339:1 1064:4 1136:1 1177:2 1898:1 2211:1 2340:8 2889:4 3060:1 3283:1 3319:4 4389:1 5546:1 6292:4 8133:1 8397:1 8725:1 #
-0.0039245350571364395059203999949204 83:1 100:1 199:1 364:2 673:1 726:1 1149:1 2463:1 3281:1 6322:3 #
0.0039245350571364395059203999949204 329:2 347:2 405:3 448:1 506:3 557:16 774:1 970:1 1078:3 1356:1 1560:2 1704:1 1738:3 1781:1 2007:1 2213:3 2391:1 2508:1 2748:1 2866:1 3319:1 4567:3 4797:2 5371:6 5448:2 5690:1 5737:1 6292:1 6322:1 7157:1 8133:5 #
-0.0039245350571364395059203999949204 67:1 96:1 171:1 194:1 206:1 324:1 329:1 331:2 495:1 506:2 557:1 603:1 719:1 739:1 903:1 996:1 1331:1 1579:2 1704:1 1740:4 1791:1 1795:1 2683:2 2765:2 2866:1 3319:1 4567:2 4797:1 5472:1 5489:1 5934:1 6322:1 7000:1 7194:1 8133:2 #
-0.0039245350571364395059203999949204 29:1 179:1 220:1 465:1 528:1 927:1 1084:1 1094:1 1129:1 1196:1 1551:1 2807:1 3430:1 4358:2 4567:1 4793:1 4797:1 5005:1 5639:1 5820:1 6024:1 7495:1 8133:1 #
0.0039245350571364395059203999949204 41:1 199:1 214:1 275:1 301:1 377:1 662:2 953:1 987:1 1056:1 1094:2 1218:1 1527:2 1676:1 1704:1 2154:1 3772:1 3902:1 4263:2 4389:1 4567:2 4797:1 6322:2 7000:1 7194:1 #
0.0039245350571364395059203999949204 67:3 182:1 336:1 413:1 495:1 591:1 726:1 1177:1 1297:1 1304:1 1377:2 1417:1 1842:1 2683:2 2829:2 3319:2 3585:1 4797:3 7000:1 #
-0.0039245350571364395059203999949204 405:1 543:1 1045:1 1129:1 1134:1 1177:2 1196:1 1259:1 1436:1 1463:1 1551:1 1731:1 1738:2 2142:1 2149:1 2213:1 2326:1 2387:1 2463:1 3306:1 3319:2 3365:1 3779:1 4111:1 4309:1 4567:3 4751:1 4797:4 5918:1 6144:1 6322:5 6363:1 6549:1 6665:1 7000:2 7194:2 8133:4 8329:1 #
-0.0039245350571364395059203999949204 324:1 686:1 1789:1 2734:1 3319:2 4130:1 5503:1 #
-0.0039245350571364395059203999949204 603:1 953:1 1910:2 4567:1 5548:1 #
-0.0039245350571364395059203999949204 37:2 80:1 81:1 140:1 159:2 165:1 199:2 284:1 301:1 324:1 327:1 347:1 364:1 375:1 434:1 436:2 510:2 534:1 550:1 557:1 722:1 767:1 824:2 847:1 854:1 984:4 1035:1 1094:5 1304:1 1464:1 1469:1 1590:1 1731:1 1787:1 2336:1 2395:2 3319:1 3360:1 3503:3 4089:1 4567:4 4571:1 4797:4 6406:1 #
-0.0039245350571364395059203999949204 29:2 67:1 190:1 219:1 367:2 377:2 465:1 478:1 534:1 814:1 1146:1 1177:1 1579:1 2785:1 3319:1 4567:3 4719:1 4797:2 5414:1 6292:1 6322:4 7000:1 8318:2 #
0.0039245350571364395059203999949204 113:1 140:2 262:1 534:1 722:1 987:1 1579:1 1740:1 1910:1 2019:1 2829:1 2931:1 3378:1 4567:1 4797:1 5112:1 7000:2 7356:1 7495:1 #
0.0039245350571364395059203999949204 80:1 172:1 182:1 209:2 336:1 347:1 364:1 379:1 405:1 422:2 506:1 557:2 591:1 757:1 794:1 908:1 909:1 1177:1 1213:1 1446:1 1740:1 1795:1 2019:1 2067:1 2984:1 4567:2 4915:1 5934:1 6114:1 6322:4 7656:1 8397:2 #
-0.0039245350571364395059203999949204 1:1 140:1 317:1 1241:1 1259:1 1303:1 1579:1 1808:1 4396:1 4797:1 5353:1 6322:3 7778:1 8152:1 9874:1 #
0.0039245350571364395059203999949204 289:1 465:1 927:1 #
0.0039245350571364395059203999949204 165:1 200:2 254:1 318:2 1953:1 4778:1 #
-0.0022877276622297543565154320788224 1:1 4:2 40:1 149:2 218:1 281:2 289:3 405:1 911:1 991:2 1138:1 1396:6 1474:1 1503:1 1560:1 1738:1 1994:1 2086:4 2095:1 2136:3 2293:3 2803:2 3113:1 3313:1 3398:3 4067:1 4176:1 4387:4 6292:6 6322:5 8133:13 9197:2 #
0.0039245350571364395059203999949204 405:1 953:1 1340:1 1740:1 2149:1 2213:1 2829:1 3319:1 4537:2 6292:1 9937:1 #
0.0026567988678379570247067853472345 6:1 23:1 109:1 146:2 190:1 199:1 209:1 306:2 323:1 329:1 342:1 422:1 478:1 506:2 514:1 526:1 534:3 539:1 577:1 584:1 591:3 656:1 673:9 712:2 714:1 726:6 745:1 757:3 827:1 852:1 872:3 947:1 1000:1 1080:1 1102:1 1132:1 1133:1 1177:6 1193:1 1214:1 1225:1 1259:9 1304:3 1315:2 1322:1 1339:1 1377:2 1471:2 1489:1 1527:1 1543:1 1551:2 1579:4 1613:1 1639:1 1704:1 1740:2 1781:1 1789:1 1795:8 1806:3 1820:2 1829:3 1834:1 1883:1 1910:1 1945:1 2213:3 2305:1 2485:1 2578:1 2683:1 2699:1 2796:1 2801:1 2829:2 2873:2 2880:1 2932:4 2957:1 3069:1 3070:1 3105:1 3257:1 3319:3 3381:1 3509:1 4006:1 4164:2 4176:2 4285:1 4389:3 4567:11 4656:1 4797:9 4915:2 4993:1 5005:4 5237:3 5934:1 6024:2 6140:2 6292:2 6322:21 6332:1 6450:1 6770:3 6873:1 6979:1 7000:3 7062:1 7091:1 7171:1 7194:2 7495:1 7572:1 7707:1 7803:2 8133:1 8180:1 8437:1 #
-0.0039245350571364395059203999949204 42:1 85:1 339:1 453:1 508:1 603:1 726:1 1254:1 1422:1 1704:1 1815:1 2932:1 4389:1 4567:1 6223:1 6406:1 7000:1 #
0.0020646676737419685301877514405078 84:1 534:1 539:1 1398:1 5042:1 7000:2 #
0.0039245350571364395059203999949204 4:1 42:2 219:1 289:2 385:1 509:1 534:1 667:1 872:1 1149:1 1469:1 1795:1 2829:1 3319:1 4136:1 4797:4 5349:2 5934:1 6292:2 6322:2 7194:1 7963:1 #
0.0039245350571364395059203999949204 398:1 514:1 557:3 1302:1 1340:1 1572:1 2724:1 3021:1 3503:1 3580:1 6025:1 6564:1 7096:1 7273:1 8473:1 8836:1 #
0.0039245350571364395059203999949204 485:1 709:1 867:1 930:1 953:1 8803:1 #
0.0039245350571364395059203999949204 324:1 1177:1 2149:1 2845:1 4567:1 8133:1 8559:1 #
-0.0039245350571364395059203999949204 18:1 171:3 203:2 377:1 391:1 472:2 534:2 792:1 996:1 1248:1 1377:1 1489:1 1704:1 1731:2 2395:1 2765:2 3129:1 3319:1 4148:1 4176:2 4567:3 5546:1 5896:1 6292:1 6322:4 8133:1 #
-0.0039245350571364395059203999949204 159:1 199:2 268:1 289:2 329:1 377:1 422:1 550:1 662:1 673:1 726:2 1330:1 1354:1 1572:2 1740:2 2142:1 2683:1 2741:1 2804:1 2829:2 4567:1 4751:1 4797:1 4899:1 6322:3 7194:1 7495:1 7599:1 8133:2 8686:1 #
-0.0039245350571364395059203999949204 135:1 224:1 316:1 329:1 407:1 419:1 450:1 597:1 607:1 757:1 1119:1 1138:1 1201:1 1299:1 1441:1 1624:1 1741:1 1744:1 1808:1 1944:1 2573:1 2734:1 2747:1 2789:1 2847:1 2987:1 3031:1 3082:1 3586:1 3703:1 3974:1 4025:1 4497:1 4567:1 4797:1 4908:1 4998:1 5112:1 5154:1 5353:1 5902:1 6322:1 6362:1 6472:1 6849:1 7026:1 7214:1 7601:1 7791:1 7842:1 8014:1 8803:1 9040:1 9908:1 #
-0.0039245350571364395059203999949204 20:1 42:1 351:1 422:1 1188:1 1223:1 1259:1 1474:1 1740:1 1791:1 1827:1 1910:1 4176:1 4330:1 4567:1 4797:1 5640:1 6292:1 6322:1 7194:1 8133:1 #
-0.0011628115449147189558454229540985 4:2 47:1 85:2 138:1 172:2 181:4 219:3 228:1 256:1 294:3 329:3 342:1 367:1 382:1 405:4 413:3 422:2 465:1 532:1 598:1 612:1 634:2 673:1 686:1 717:1 726:4 757:1 827:1 991:1 1055:1 1064:4 1081:2 1177:2 1192:1 1259:2 1263:1 1304:7 1377:1 1433:1 1489:1 1501:2 1558:1 1579:2 1587:1 1704:3 1740:1 1782:1 1787:2 1820:1 1910:1 1994:3 2066:1 2067:1 2099:1 2149:1 2213:1 2683:1 2829:5 3319:4 3461:1 3491:1 3824:1 4176:1 4188:1 4389:1 4567:12 4797:9 5005:3 5934:1 6024:1 6292:1 6322:4 7000:1 7194:2 7495:1 8133:3 8567:1 #
0.0039245350571364395059203999949204 206:1 534:1 1579:1 1795:1 2149:1 4188:1 5934:1 #
-0.0039245350571364395059203999949204 12:1 18:1 25:2 37:2 38:1 47:1 73:1 79:1 81:1 83:1 84:1 140:1 150:3 169:1 171:1 176:3 185:1 187:7 203:2 214:1 264:1 284:1 289:1 306:1 316:1 329:6 342:1 387:2 394:2 409:1 422:1 453:2 459:1 485:3 508:1 510:7 534:1 550:1 554:4 557:4 576:1 582:2 603:1 647:1 689:2 712:3 723:6 757:1 827:1 836:1 837:3 867:1 932:3 1010:1 1045:1 1177:6 1188:2 1213:1 1225:1 1304:9 1436:4 1489:3 1507:3 1538:1 1579:3 1725:1 1740:1 1928:5 1929:1 1952:1 1980:7 2056:1 2057:1 2117:1 2213:2 2398:9 2571:1 2683:1 2787:1 2801:1 2829:2 2849:2 2866:4 2932:1 3118:2 3319:8 3360:3 3535:1 3685:1 3773:1 3933:4 4188:1 4215:1 4567:11 4604:1 4650:3 4718:1 4797:10 4846:2 4915:1 5080:1 5330:3 5343:1 6024:1 6121:3 6142:1 6292:2 6322:7 6568:3 7000:7 7076:2 7156:1 7224:1 7702:1 8133:3 8836:2 #
0.0039245350571364395059203999949204 742:1 847:1 1322:1 1507:1 4330:1 6024:1 #
0.0039245350571364395059203999949204 81:1 140:2 172:1 329:2 422:1 485:1 510:1 603:1 662:1 667:5 673:1 685:1 814:2 927:2 953:1 991:1 1081:1 1177:1 1268:1 1288:1 1322:1 1331:1 1431:1 1462:1 1579:1 1613:1 1740:2 1787:2 2213:1 2683:1 2765:1 3319:1 4559:2 4567:5 4793:5 5005:3 7093:1 7778:1 #
0.0039245350571364395059203999949204 4:3 36:1 106:2 146:4 289:1 323:1 329:1 356:1 405:3 462:1 506:1 536:1 557:2 603:1 656:1 726:2 738:1 742:1 774:1 872:1 873:1 1078:1 1177:2 1241:3 1259:1 1300:1 1313:1 1538:1 1563:1 1610:1 1738:2 1783:1 1787:1 1791:1 2019:2 2082:2 2246:2 2428:1 2527:1 2530:3 2801:5 2833:2 2866:1 3110:1 3264:1 3300:1 3355:1 3540:1 3586:1 3674:1 3860:1 3937:1 4006:1 4176:35 4321:1 4389:33 4464:1 4567:3 4650:1 4666:1 4797:5 4856:1 4890:1 4997:1 5041:1 5151:1 5207:1 5256:1 5377:1 5618:1 6113:1 6292:1 6301:1 6322:3 6328:1 6782:2 6962:1 7000:2 7058:2 7234:1 7242:1 7495:1 7778:2 8133:29 8397:2 8538:3 8739:1 8878:1 9398:1 #
0.0039245350571364395059203999949204 1:1 4:2 26:1 29:1 199:1 206:4 319:1 342:1 405:1 422:1 485:1 591:1 603:1 641:1 657:1 673:2 712:1 827:1 953:1 1045:1 1177:1 1280:1 1300:1 1304:1 1377:1 1431:1 1462:1 1469:1 1579:1 1704:1 1731:6 1738:1 1740:2 1808:1 1958:1 2055:1 2086:2 2099:1 2142:1 2213:1 2225:1 2829:3 4176:6 4282:1 4389:6 4567:1 4650:2 4793:1 4993:1 6102:4 6322:1 7000:1 7495:4 7643:2 8133:2 8137:1 #
-0.0013427150514993204007130334076692 172:1 190:1 289:1 373:1 459:1 508:1 534:1 554:1 712:2 726:2 852:1 872:1 1098:1 1133:2 1192:2 1259:71 1441:1 1446:1 1820:1 2149:1 2683:2 2957:1 3149:1 3319:2 4567:3 4915:1 5005:1 5934:1 6322:1 6549:2 7194:1 7375:1 7495:2 8483:1 #
-0.0039245350571364395059203999949204 364:1 422:1 1064:1 1377:1 1437:1 1551:1 1740:1 1820:1 2142:1 2889:1 2912:1 3319:1 3439:1 3961:1 4567:1 4797:2 6142:1 6292:1 6322:1 8936:1 #
-0.0039245350571364395059203999949204 6:2 74:1 85:1 199:1 275:1 289:1 534:2 591:1 656:1 673:2 712:2 1304:2 1501:1 1795:1 2149:1 2463:1 2683:1 2829:1 2916:1 3319:2 4567:1 4797:1 4899:1 5262:1 5350:1 5495:1 6024:1 6322:2 6568:3 7194:2 7495:1 8133:2 8287:1 8686:1 #
-0.0033305969581036787632855045160341 105:1 166:2 266:2 306:1 329:1 389:1 500:1 601:1 739:1 1010:1 1304:3 1318:1 1322:1 1373:1 1374:1 1449:1 1503:2 1551:1 1579:1 1624:1 1877:2 2001:1 2058:1 2149:4 2380:2 2415:1 2643:1 3147:1 3319:3 3369:1 3993:1 4567:3 4797:2 5005:1 5252:1 6024:2 6292:2 6322:5 6370:1 6549:1 6568:3 6963:1 7000:1 7175:1 7259:1 7375:1 7615:1 8832:1 9936:2 #
0.0039245350571364395059203999949204 15:3 67:1 171:2 199:2 228:2 329:1 331:1 342:1 405:1 469:1 485:1 506:1 603:3 673:2 726:3 732:1 947:2 953:2 1064:1 1072:1 1177:3 1188:1 1192:2 1198:1 1268:1 1294:1 1305:1 1437:2 1513:1 1543:1 1579:1 1599:1 1704:1 1994:1 2057:1 2093:2 2108:1 2142:1 2234:1 2683:1 2765:1 2829:2 3129:1 3264:1 3319:1 3872:2 3925:2 4176:4 4330:1 4388:1 4389:13 4567:10 4655:1 4797:5 6292:1 6322:6 6328:1 6517:1 7000:1 7194:1 7495:1 7778:1 8983:2 #
-0.0039245350571364395059203999949204 38:1 67:1 329:1 485:1 501:1 597:1 726:1 2395:1 6322:1 #
0.0039245350571364395059203999949204 130:1 219:1 284:1 329:3 339:1 341:2 347:1 377:1 405:1 557:1 603:2 659:1 685:3 712:1 951:4 1177:4 1304:3 1305:1 1312:1 1340:1 1377:1 1441:2 1501:2 1551:1 1579:3 1704:2 1795:1 1994:1 2086:1 2095:1 2149:4 2296:1 2423:1 2608:1 2765:2 3319:1 4020:1 4326:1 4330:2 4567:9 4573:1 4655:1 4793:1 4797:3 4915:1 6292:1 6322:6 6841:1 7093:1 7495:1 7537:1 8133:4 8151:1 8832:2 9423:1 #
0.0039245350571364395059203999949204 289:1 465:1 927:1 #
0.0039245350571364395059203999949204 165:1 364:1 462:1 495:1 953:1 1259:1 1700:1 2397:2 2683:1 2829:1 2938:1 4567:1 7000:1 9898:1 #
0.0039245350571364395059203999949204 306:1 645:1 953:1 1245:1 1304:1 1953:1 2142:1 2202:1 2256:1 4567:3 4793:1 4797:2 7419:1 8158:1 #
-0.0039245350571364395059203999949204 127:1 134:1 165:1 342:1 405:1 495:1 586:1 597:1 709:1 712:1 947:1 1003:1 1045:1 1188:1 1207:1 1225:1 1288:1 1441:1 1469:2 1538:1 1558:1 1563:1 1738:1 1842:1 1865:1 2057:1 2086:1 2142:1 2149:1 2213:2 2291:1 2485:1 2683:1 2829:1 3319:1 4111:1 4418:1 4567:6 4775:1 4797:2 5005:1 6169:1 6322:2 6328:1 6403:1 6568:1 7536:1 7577:1 7826:1 7968:1 8133:3 8472:1 #
-0.0039245350571364395059203999949204 283:1 323:1 329:2 405:1 422:1 485:1 506:1 508:1 510:1 867:1 872:1 1105:1 1177:1 1791:1 2724:1 2829:2 3319:2 4111:1 4176:1 4330:1 4389:2 4567:2 4797:3 5327:2 6292:2 6322:1 7000:2 7167:2 7947:1 8133:2 #
-0.0039245350571364395059203999949204 6:7 280:1 301:1 398:1 423:1 586:1 812:1 953:1 1133:4 1149:1 1177:3 1303:1 1304:3 1341:1 1377:1 1432:1 1462:1 1469:1 1501:1 1579:5 1613:1 1815:1 2142:1 2353:1 2569:1 2683:2 3021:1 3546:1 4181:1 4567:7 4656:1 4797:2 6023:1 6292:1 6322:2 6568:5 6808:1 #
-0.0039245350571364395059203999949204 681:2 1416:1 1579:2 1815:1 1898:1 2380:1 3909:1 4567:1 7056:1 #
0.0039245350571364395059203999949204 26:1 83:1 140:1 190:1 199:1 264:1 284:1 323:1 327:1 331:1 342:1 377:3 422:1 485:2 495:1 500:1 548:1 554:1 576:1 591:1 597:1 603:1 622:1 681:1 712:2 726:4 827:1 872:4 984:1 1043:1 1056:1 1146:1 1177:1 1225:1 1269:2 1301:1 1304:6 1341:3 1404:2 1412:1 1469:6 1579:1 1704:1 1740:1 1795:1 1910:2 1932:1 2142:4 2211:1 2254:1 2394:1 2395:1 2683:2 2741:1 2931:1 2992:1 3098:1 3264:1 3531:1 3562:1 3778:1 4521:1 4567:5 4707:1 4797:3 4915:1 5507:1 5934:2 6292:1 6322:10 7000:1 7062:3 7495:1 8133:1 9291:1 9936:1 #
-0.00079086149942745459506809879712819 4:3 322:1 377:1 499:1 537:1 544:1 562:1 575:1 603:1 744:1 792:1 906:1 1000:1 1377:1 2150:1 2829:1 2944:1 3963:1 4567:1 4797:2 7525:1 7817:1 8151:1 #
-0.0036311841641336354766234073565556 37:1 41:1 42:2 67:1 98:1 159:1 186:2 199:3 317:1 485:1 521:1 550:1 641:5 772:1 814:3 987:1 1056:2 1064:1 1133:1 1149:1 1787:1 2067:1 2086:1 2108:1 2305:1 2455:1 2825:1 3281:1 3319:1 3824:1 4567:3 4797:2 5816:2 6684:1 7000:1 7194:1 8529:1 #
-0.0039245350571364395059203999949204 15:1 140:1 204:1 329:1 603:1 726:1 1254:1 1304:1 1700:1 1952:1 2765:1 2807:1 2829:1 3509:1 4389:1 6668:1 8003:1 8270:1 #
0.0039245350571364395059203999949204 114:1 198:1 534:1 #
-0.0024852257163448347732082055472347 1:1 17:1 26:1 140:1 347:1 422:1 548:1 846:1 953:1 1028:1 1193:1 1262:1 1319:1 1416:1 1579:2 1704:1 1740:1 1744:1 1795:1 1808:1 2256:1 2423:1 2683:1 3319:2 3584:1 3687:1 3902:1 4207:1 4282:1 4519:1 4567:2 4797:1 6164:1 6292:3 6322:9 6549:3 6568:2 6668:1 6871:1 6873:1 7000:1 7316:1 7412:1 7495:2 7778:1 8180:1 8832:1 9008:2 9514:1 9936:3 #
0.0039245350571364395059203999949204 80:1 81:1 166:1 172:1 181:1 199:4 203:1 219:2 264:8 284:1 329:3 342:1 405:1 413:1 462:1 495:2 603:1 606:2 681:1 726:2 814:1 824:3 1305:1 1322:1 1340:1 1377:1 1489:1 1501:1 1579:2 1613:1 1704:1 1740:2 1787:1 1791:3 1963:1 2086:5 2423:1 2683:1 2724:1 2765:1 2829:3 3319:4 3388:2 3621:2 3674:1 3861:1 4176:3 4330:1 4567:8 4797:1 5005:5 5414:1 5549:2 6328:1 7000:2 7495:1 8133:2 8472:1 8559:1 #
-0.0039245350571364395059203999949204 18:1 100:1 232:1 270:1 281:1 301:2 306:41 329:4 367:1 380:2 490:1 557:1 560:2 603:1 662:1 1177:3 1294:1 1304:1 1344:4 1405:1 1639:1 1704:1 1743:2 1766:2 1910:2 2398:3 2829:1 4567:2 4749:1 4797:2 6322:1 7020:1 7442:1 7850:1 8133:2 #
-0.0039245350571364395059203999949204 329:1 419:2 466:1 534:1 541:1 673:1 911:2 991:2 1030:2 1064:1 1305:1 1602:1 2086:1 2880:1 3471:3 4111:1 4176:3 4567:1 4797:3 7000:1 8133:2 9936:1 #
-0.0039245350571364395059203999949204 4:1 23:1 38:1 206:1 329:1 1599:1 1704:1 4389:1 4447:1 4738:1 5546:1 6322:2 7034:1 8133:1 8510:1 9936:1 #
0.0039245350571364395059203999949204 23:1 206:1 405:1 422:1 665:2 673:2 681:1 739:12 888:8 1003:1 1078:1 1171:1 1177:2 1259:3 1495:1 1579:2 1590:2 1624:1 1704:1 1738:2 1740:1 1800:1 1910:1 1928:1 1952:1 2291:3 2391:1 2748:1 2829:1 2845:1 2938:2 3118:1 3242:3 4477:1 4520:1 4567:2 4797:1 5459:1 5472:1 5923:1 6322:8 6388:1 6658:1 7056:1 7194:1 8025:1 8270:1 8559:4 8968:2 9937:1 #
-0.0039245350571364395059203999949204 11:2 13:1 15:3 23:4 34:1 100:1 148:1 171:1 199:3 204:3 208:1 224:1 256:2 293:1 306:1 307:1 319:2 384:3 405:1 557:2 577:1 619:10 628:1 641:1 645:1 673:1 678:1 685:2 723:1 772:1 872:1 987:1 1103:1 1114:1 1124:1 1133:1 1149:1 1155:1 1177:2 1259:2 1296:1 1304:1 1305:2 1330:2 1372:1 1507:1 1518:1 1576:3 1639:1 1692:1 1800:2 1872:1 1877:1 1951:1 2206:1 2246:1 2353:2 2398:1 2578:1 2683:1 2765:1 2866:1 2977:1 3116:1 3139:1 3313:1 3319:1 3491:1 3594:1 3634:1 4130:1 4187:1 4567:2 4603:1 4718:3 4797:6 5087:1 5144:1 5381:1 5503:3 6024:1 6564:1 6790:1 6826:1 7000:2 7170:1 7194:1 7449:1 7778:1 7802:1 7999:1 8133:2 8288:1 8397:1 8425:1 8575:1 8803:2 9557:2 #
-0.0039245350571364395059203999949204 187:1 270:1 510:1 634:1 1133:1 1865:1 2217:1 2394:1 2801:1 4188:1 4718:1 6322:2 6549:1 7194:1 #
-0.0039245350571364395059203999949204 171:1 289:1 367:1 405:1 612:2 673:1 740:1 862:1 911:1 1064:1 1138:1 1223:1 1259:1 1474:3 1609:1 1654:1 1704:1 1760:1 1775:2 1994:2 2680:1 2683:1 2699:1 3113:1 3120:1 3283:1 3388:1 3902:1 4176:2 4797:1 6292:5 6322:3 6549:1 6776:1 7000:1 7194:1 8133:8 #
-0.0039245350571364395059203999949204 181:1 252:1 264:1 377:1 422:1 485:1 550:1 757:1 1129:1 1177:1 1377:1 2007:1 2055:1 2463:1 2582:1 2998:1 3257:1 4188:1 4680:1 4797:1 5067:1 5178:1 7495:1 7804:1 7825:1 8267:1 9404:1 9936:1 #
0.0039245350571364395059203999949204 100:1 140:3 181:1 329:1 462:1 506:2 514:1 654:1 745:3 1125:2 1241:7 1445:1 1579:2 1783:1 3319:1 3615:1 4567:4 4797:4 7000:2 #
0.0039245350571364395059203999949204 198:1 534:1 1590:1 #
0.0039245350571364395059203999949204 47:1 62:1 140:1 190:3 209:1 291:1 329:1 341:1 347:2 364:1 367:2 377:1 382:1 485:3 534:1 557:1 591:2 597:1 673:2 681:1 714:1 872:3 951:1 990:1 1042:1 1074:1 1117:1 1177:5 1259:1 1284:1 1315:2 1318:1 1339:1 1377:1 1468:1 1469:1 1543:2 1551:1 1579:3 1777:1 1781:2 1782:1 1795:2 1844:1 1877:1 1882:1 2213:1 2495:1 2514:1 2640:2 2643:1 2683:3 2829:2 2982:1 3247:1 3313:1 3319:2 4519:1 4567:2 4656:1 4712:1 4785:2 4797:1 4915:1 5004:4 5005:2 5262:1 5503:1 5689:2 5934:1 6024:1 6322:7 6549:9 6776:1 7000:3 7062:1 7159:1 7194:1 7495:2 8762:1 9385:3 9936:4 #
0.0039245350571364395059203999949204 85:1 634:1 1507:1 2275:1 4567:1 5530:1 6328:1 #
-0.0039245350571364395059203999949204 67:1 140:1 204:1 206:1 218:1 375:4 603:1 634:1 681:2 726:2 1177:4 1241:4 1579:2 1884:2 2095:1 3105:2 4697:1 5472:1 6322:3 7194:1 #
0.0039245350571364395059203999949204 4:7 181:1 203:2 206:1 254:1 294:1 329:1 405:3 453:1 473:1 534:1 657:1 681:3 740:1 778:1 792:2 914:1 1003:1 1179:1 1193:1 1241:2 1259:3 1304:2 1339:1 1436:2 1455:1 1560:1 1610:1 1692:1 1738:3 1844:1 1898:1 1910:1 2057:1 2206:1 2209:1 2213:2 2246:1 2508:1 2789:1 2829:2 2997:1 3044:1 3138:1 3295:1 3300:1 3319:1 3348:1 3719:1 4089:1 4176:3 4389:3 4391:1 4567:2 4601:3 4797:4 5099:1 5448:1 6113:1 6292:1 6322:1 6328:1 6410:1 6814:1 7000:1 7090:1 7194:2 7199:1 7963:1 8133:29 8151:1 8240:5 8397:1 8400:1 #
0.0039245350571364395059203999949204 4:1 15:1 41:1 48:1 67:1 79:1 83:1 85:1 100:1 140:1 159:1 198:1 199:1 219:2 264:1 277:1 284:1 289:2 329:4 375:2 377:2 424:1 459:1 471:1 557:3 580:1 597:1 634:1 681:1 686:1 712:4 722:1 726:1 792:1 908:1 936:2 974:2 987:1 1005:1 1064:8 1177:1 1227:1 1262:1 1304:5 1377:1 1389:1 1501:1 1507:1 1576:1 1740:1 1883:2 1910:1 1924:5 1963:1 2017:1 2149:6 2246:1 2353:1 2604:1 2683:2 2829:1 2889:1 3105:2 3275:1 3319:3 3471:1 3538:1 4070:1 4114:1 4567:4 4797:3 5107:1 5549:1 6292:1 6322:8 6328:3 7000:5 7194:1 8130:1 8133:19 8983:4 #
0.0039245350571364395059203999949204 15:1 42:1 47:1 83:2 140:2 165:2 214:2 264:3 283:1 295:1 302:1 329:3 331:1 339:2 347:1 364:1 423:1 478:1 506:1 533:1 557:4 612:1 622:3 638:1 641:2 707:1 712:1 727:1 784:2 808:5 873:1 918:1 964:2 1018:1 1076:2 1177:4 1196:1 1210:1 1305:1 1308:2 1315:1 1510:1 1575:1 1579:2 1672:1 1738:1 2045:1 2086:1 2314:1 2398:2 2683:1 2731:1 2748:1 2932:1 3283:1 3319:1 3786:2 3874:1 4176:2 4188:1 4389:3 4400:1 4498:1 4567:5 4797:7 4915:1 6292:1 6322:1 6535:1 7000:2 7778:1 8133:5 8400:1 8425:1 #
0.0039245350571364395059203999949204 138:1 332:1 537:2 1058:1 1755:1 2270:1 3190:1 6322:1 #
0.0039245350571364395059203999949204 12:4 55:1 127:1 190:1 199:1 277:1 324:1 436:1 485:1 506:1 557:2 619:2 673:1 1009:1 1028:1 1177:1 1263:1 1392:1 1445:1 1486:1 1994:1 2043:1 3104:1 3319:1 4567:3 4603:1 4647:1 4797:7 5262:1 6292:3 6370:1 6568:2 7772:1 #
-0.0031009754831049958501143493094787 11:2 38:1 114:1 262:1 264:2 329:2 349:1 367:1 382:1 459:1 557:2 634:1 656:1 852:1 1083:1 1155:1 1177:2 1179:1 1241:1 1304:2 1319:1 1518:1 1543:1 1579:1 1599:1 1625:1 1791:1 1867:1 2057:1 2067:1 2149:1 2213:2 2243:1 2398:1 2643:1 2787:2 2825:1 2829:2 2845:1 3214:1 3319:3 3660:2 4006:1 4567:3 4797:8 5005:1 6292:2 6322:3 6568:1 7495:1 #
-0.0039245350571364395059203999949204 37:1 85:1 316:1 347:1 405:1 458:2 557:1 656:1 712:1 772:1 930:1 1010:2 1056:1 1157:1 1214:1 1304:2 1377:1 1395:1 1543:1 1579:2 1910:1 2142:1 2149:1 2354:1 2400:1 2724:2 3283:1 4567:1 4604:1 4797:1 6115:1 6322:1 6328:1 6672:1 7000:1 8133:5 8472:1 #
-0.0039245350571364395059203999949204 15:1 140:1 204:1 329:1 603:1 726:1 1254:1 1304:1 1700:1 1952:1 2765:1 2807:1 2829:1 3509:1 4389:1 6668:1 8003:1 8270:1 #
-0.0039245350571364395059203999949204 23:1 83:1 118:1 135:1 166:1 364:1 375:1 410:1 603:1 953:1 1101:1 1177:1 1259:1 1304:1 1808:1 1873:1 2054:1 2142:1 3302:1 3641:1 3809:1 4040:1 4243:1 4389:3 4567:3 4797:4 5970:1 6024:1 6365:1 6472:1 7000:1 #
-0.0039245350571364395059203999949204 6:3 12:1 42:1 83:1 85:1 127:1 140:2 191:3 199:4 219:1 222:1 308:3 323:1 347:1 403:1 428:1 436:1 459:2 471:1 485:1 537:2 594:1 673:1 712:1 726:1 745:1 782:1 834:1 990:1 1045:1 1177:4 1215:1 1225:1 1268:1 1304:2 1431:1 1436:1 1440:1 1455:1 1551:1 1781:1 1795:1 1815:1 2254:1 2514:1 2643:1 2801:1 2823:1 2829:1 2849:1 2907:2 2932:1 3181:1 3319:4 3836:1 3937:1 3952:1 4567:6 4603:2 4797:3 5113:1 5185:1 5325:1 5479:1 6024:1 6142:1 6292:2 6322:7 6568:1 6731:1 7000:3 7495:2 7779:1 8274:1 8478:1 8832:1 9936:1 #
0.0039245350571364395059203999949204 25:1 38:1 170:1 317:1 329:1 342:2 416:1 422:1 485:1 548:1 557:1 634:1 969:1 971:1 1304:1 1474:5 1740:2 1995:1 2213:1 2441:1 2571:1 2849:1 2877:1 4567:1 4797:1 5549:1 6024:1 6322:3 6979:1 7495:1 #
0.0039245350571364395059203999949204 15:1 67:1 69:1 70:1 80:1 83:1 96:1 171:1 190:1 243:1 317:1 329:3 568:1 603:3 626:1 667:1 712:1 717:1 722:1 726:1 811:1 1010:1 1011:1 1043:1 1056:10 1177:1 1188:2 1268:1 1300:1 1304:2 1332:1 1340:1 1377:1 1398:1 1495:1 1579:2 1614:1 1740:1 1787:1 1791:1 1877:1 2086:1 2093:1 2095:1 2142:1 2631:1 2829:1 2877:1 3005:1 3319:1 4330:1 4797:1 5549:2 6120:1 6142:2 6322:1 6328:1 6476:1 7000:3 7313:1 7572:1 7788:1 8133:4 8983:1 9339:1 #
-0.0039245350571364395059203999949204 4:1 85:1 199:1 485:1 534:1 602:1 634:1 673:1 804:1 911:1 930:2 1074:1 1177:1 1192:1 1259:1 1304:1 1437:1 1442:1 2048:1 2220:1 2438:1 2648:1 2789:1 2972:1 3313:1 3319:1 4567:5 4797:3 7495:2 7708:1 #
-0.0039245350571364395059203999949204 18:2 67:1 219:1 283:2 304:1 653:1 792:1 824:1 953:1 1043:1 1149:1 1227:1 1304:2 1377:1 1424:4 1579:1 1740:1 2683:1 2932:1 3273:2 3319:1 4567:2 4797:1 6322:1 #
-0.0039245350571364395059203999949204 67:2 140:1 204:1 329:3 367:1 459:1 461:1 534:1 541:1 597:1 667:1 1003:1 1245:1 1304:2 1308:1 1462:1 1489:1 1575:1 1579:1 1716:1 1746:1 1994:2 2149:2 2206:3 2246:1 2631:1 2683:1 2807:1 2829:3 2849:1 2932:1 3319:6 4567:3 4797:7 5549:3 6024:1 6322:3 7000:1 8133:1 #
0.0039245350571364395059203999949204 29:1 47:1 172:1 199:4 218:4 264:1 306:1 331:1 422:1 495:1 506:1 508:1 667:2 681:1 712:1 1028:1 1043:1 1056:1 1114:1 1149:2 1177:1 1304:2 1340:1 1579:1 1740:2 1808:2 1898:1 2099:1 2369:1 2380:1 2415:3 3319:2 4020:1 4330:1 4389:1 4567:2 4797:1 5262:1 5549:2 6292:2 7362:1 7495:3 7690:1 #
0.0039245350571364395059203999949204 29:1 85:1 111:1 199:2 377:2 436:1 459:1 478:1 521:1 576:1 673:1 814:1 862:1 1094:2 1124:1 1146:1 1149:1 1308:1 1315:1 1330:1 1579:2 1781:1 1795:1 1806:1 1910:2 2234:1 2398:1 2640:1 2765:1 2829:1 2877:1 2889:1 2932:1 3014:1 3039:1 3273:1 3667:1 4567:9 4797:6 5262:1 5816:1 5934:1 6024:1 6322:5 6328:4 7000:3 7194:1 8559:1 #
0.0039245350571364395059203999949204 1:1 85:1 140:1 367:1 412:1 422:1 434:1 485:1 534:1 557:1 586:2 603:1 685:1 712:1 726:5 827:1 853:1 872:1 1043:2 1056:1 1074:1 1177:2 1193:1 1421:1 1437:1 1579:2 1716:1 1795:2 1815:2 1844:1 2318:1 2643:2 2683:1 2765:1 2829:1 3319:2 3388:1 4656:1 4797:1 5005:1 5934:1 6140:1 6322:2 6549:1 7000:5 7056:1 7062:1 7316:2 7375:1 7495:2 7712:1 8133:1 8900:1 9385:1 #
0.0013719596241898372561418550930057 1:4 12:5 37:1 74:1 185:2 229:1 281:3 295:2 329:2 332:1 364:1 378:1 409:1 413:1 427:1 462:1 506:2 626:1 673:1 697:1 723:1 724:1 726:1 872:1 922:2 950:1 1018:2 1045:1 1304:2 1340:1 1392:2 1398:1 1579:7 1795:2 1981:1 2149:7 2512:2 2823:6 3313:1 3319:2 3535:1 3899:5 4520:1 4567:7 4637:2 4797:3 5005:1 5934:2 6322:3 7000:1 7445:6 7495:1 7778:1 8270:1 9937:4 #
0.0039245350571364395059203999949204 6:1 342:1 367:1 377:1 380:1 422:1 459:2 485:1 509:1 528:1 557:1 617:1 671:1 673:2 712:1 726:1 872:3 953:1 971:1 990:4 1030:1 1083:1 1304:2 1377:1 1579:1 1740:3 1795:1 1820:1 1963:1 2142:2 2213:1 2237:1 2654:1 2683:1 3128:1 3167:2 3319:2 4567:2 4797:2 5005:3 5220:1 5689:1 6322:1 7000:2 7026:1 7062:1 7159:1 7171:1 7194:2 7495:3 7778:1 8133:1 8662:2 9936:1 #
-0.0039245350571364395059203999949204 382:1 662:1 681:1 697:1 1000:1 1064:1 1128:1 1268:1 1288:1 1424:1 1579:1 1795:2 2103:2 2463:1 3120:1 3281:1 4567:1 5005:1 5934:2 6392:1 7194:1 8133:1 #
-0.0036578298694199973956076021863737 4:1 37:1 42:2 83:1 98:1 100:1 159:3 168:1 206:1 306:1 329:1 422:1 557:1 571:1 712:1 714:1 722:1 872:1 984:1 1064:1 1133:1 1149:1 1572:1 1579:2 1738:1 1740:1 1791:1 1815:1 2067:1 2149:1 2765:1 3281:1 4176:2 4389:2 4520:1 4567:1 4793:1 4844:1 6322:2 7194:1 7495:1 8133:1 #
-0.0039245350571364395059203999949204 1:1 4:1 85:1 154:1 162:1 266:1 301:1 377:1 673:1 681:1 697:1 722:1 726:1 953:1 1011:1 1149:1 1188:1 1304:1 1424:1 1579:2 1738:1 1795:1 2057:1 2829:1 2932:1 3281:1 3803:1 4567:3 5934:1 6140:1 6322:1 8824:1 8989:1 9003:1 #
0.0039245350571364395059203999949204 96:1 138:1 200:1 329:1 664:2 681:1 726:1 1304:1 3557:1 6322:1 7566:1 #
-0.0033639278084686063605146522093037 422:2 459:1 662:1 726:3 872:1 903:2 1304:6 1572:1 1579:1 1738:1 1898:1 2801:1 3149:2 3319:1 3439:1 4111:1 4198:1 4567:2 5474:3 5495:1 5985:1 6322:1 8832:1 #
-0.0039245350571364395059203999949204 317:5 329:1 448:1 584:1 709:1 953:1 1056:2 1304:1 1458:1 1573:1 1860:1 2108:1 2380:1 2683:1 2829:1 2889:1 3023:1 4567:1 4797:1 6322:2 6380:1 7495:1 8560:12 #
-0.0039245350571364395059203999949204 15:1 47:1 111:1 171:3 189:2 219:6 240:1 264:11 329:4 367:1 413:1 448:2 459:2 473:1 485:1 506:6 554:6 580:1 653:1 742:1 744:1 811:2 824:1 834:1 873:1 936:1 1021:1 1056:2 1129:1 1201:1 1304:3 1319:2 1322:1 1340:5 1377:1 1389:1 1518:1 1579:7 1738:1 1787:1 1795:1 1924:1 1963:1 1994:1 2149:2 2409:1 2683:1 2730:1 2731:2 2829:4 3283:1 3319:3 3365:1 3786:1 4567:3 4797:2 6292:5 6322:1 7000:1 8832:1 8860:1 9938:2 #
0.0039245350571364395059203999949204 4:1 394:1 465:1 681:1 1738:1 1740:1 2213:1 3005:1 5005:1 7096:1 8922:1 #
0.0039245350571364395059203999949204 48:2 198:1 243:1 289:1 300:1 322:2 405:1 462:1 499:1 575:2 612:1 667:1 1064:1 1138:1 1201:2 1223:1 1303:2 1396:1 1474:3 1507:1 1652:5 1877:2 1910:2 1994:3 2057:1 2078:2 2305:2 2691:1 2724:1 2807:2 3014:1 3036:1 3283:2 4220:1 4387:1 4525:1 5709:1 5817:1 #
0.0039245350571364395059203999949204 6:1 85:1 111:1 422:1 500:1 504:1 534:2 568:1 603:1 654:1 656:1 726:1 990:1 1259:1 1301:1 1319:1 1551:1 1704:1 1910:1 4797:1 5496:1 6322:1 7000:1 7062:1 7194:1 7375:1 7712:1 8133:1 9385:1 #
-0.0039245350571364395059203999949204 557:1 681:1 930:1 1000:1 1177:4 1501:1 1795:1 2211:1 2213:1 3264:1 3319:1 3439:1 3457:2 4797:2 5021:1 5474:1 5934:1 6322:4 7098:1 #
0.0039245350571364395059203999949204 25:1 70:1 154:1 219:2 264:7 329:5 458:1 534:1 557:1 568:1 571:1 673:2 722:4 757:2 872:1 969:1 996:1 1056:5 1177:2 1188:2 1300:1 1333:1 1340:1 1377:1 1489:2 1579:2 1704:1 1740:1 1795:2 1815:1 2056:1 2086:4 2149:2 2314:1 2409:1 2680:1 2824:2 2829:4 2931:1 2932:1 3098:1 3319:4 3469:1 3701:12 4176:3 4389:2 4567:2 4797:2 5405:2 5549:3 6322:4 6363:1 7000:1 7702:1 8133:13 8559:1 #
0.0039245350571364395059203999949204 65:1 83:1 114:1 162:2 194:1 204:2 206:1 264:7 275:1 291:1 306:1 329:3 367:1 377:1 394:1 434:1 478:1 560:1 561:1 580:1 597:1 603:1 685:2 697:2 726:1 827:1 844:1 932:1 971:1 1146:1 1177:2 1198:1 1288:1 1304:6 1315:1 1389:1 1391:1 1579:1 1692:1 1716:1 1898:1 2395:1 2683:1 2731:2 3080:1 3319:3 4241:3 4567:7 4797:5 5005:1 5398:1 6024:1 6292:1 6322:3 7000:1 7442:2 7495:1 #
-0.0039245350571364395059203999949204 199:1 534:2 1064:1 2213:2 2932:1 4567:1 5005:3 6121:1 #
-0.0039245350571364395059203999949204 4:3 419:1 911:2 1064:2 3471:4 4111:2 4176:1 4797:1 7000:1 9936:1 #
-0.0039245350571364395059203999949204 26:1 37:1 42:1 100:1 199:1 378:1 422:1 427:1 485:1 575:1 597:1 634:1 681:1 1098:1 1105:1 1114:1 1304:1 1543:1 1579:1 1598:1 1795:1 2057:1 2160:1 2308:1 2318:1 2699:1 2829:1 3319:1 3722:1 4111:1 4218:1 4282:1 4567:5 5005:7 5225:1 5816:1 6322:4 6328:1 6469:2 8133:3 8437:2 #
0.0039245350571364395059203999949204 284:1 322:1 377:1 422:1 653:1 655:1 656:1 872:1 990:1 1021:1 1075:1 1377:1 1495:1 1576:1 1579:2 1791:1 2093:1 2142:1 2724:1 3283:3 3610:1 4567:4 6322:4 7625:1 8622:1 #
-0.0039245350571364395059203999949204 329:1 377:1 405:1 769:2 1056:2 1058:1 1587:1 1704:1 1779:1 1791:1 1903:1 3702:1 8133:5 8270:1 #
-0.0039245350571364395059203999949204 277:1 405:1 557:2 681:1 769:2 953:1 1056:2 1058:1 1579:1 1587:1 1704:1 1787:1 1795:1 1903:2 2731:1 4176:1 4188:1 4797:1 5934:1 8133:2 8270:2 #
0.0039245350571364395059203999949204 2246:2 2724:1 6301:1 6994:1 #
-0.0039245350571364395059203999949204 162:1 171:3 327:1 466:1 478:1 485:1 509:1 563:1 673:1 726:1 1056:1 1083:1 1146:1 1177:1 1214:1 1279:1 1304:1 1333:1 1579:1 1594:1 1740:1 2149:2 2270:1 2510:2 2530:1 2734:1 2931:1 3319:3 3365:1 3382:1 3491:1 3538:1 3957:1 4111:1 4567:2 4797:2 6161:1 6322:3 6406:1 6680:1 6780:1 7255:1 7320:1 7332:1 7495:2 8133:3 8201:1 8711:1 #
-0.0039245350571364395059203999949204 1:1 140:1 317:1 631:1 661:1 1303:1 1579:1 1808:1 4396:1 4797:1 5691:2 6223:1 6322:2 7772:1 8180:1 8241:1 #
-0.0039245350571364395059203999949204 206:1 329:1 377:1 499:1 506:1 557:1 634:1 656:1 662:1 673:1 685:1 898:1 899:1 1121:1 1268:1 1304:1 1462:1 1543:1 1587:1 1624:1 1910:1 2149:1 2549:1 3319:2 3538:1 4567:2 4784:1 4797:1 5978:1 6322:2 7000:1 8133:1 8243:1 8472:1 9937:1 #
-0.0039245350571364395059203999949204 41:5 684:1 930:1 1377:1 1587:1 1910:1 1963:1 2643:1 2724:1 4567:2 6322:1 8243:1 9946:1 #
0.0039245350571364395059203999949204 96:1 199:2 317:1 508:1 571:2 656:1 950:1 964:1 1304:1 1491:1 1579:1 1932:1 2237:1 2636:1 4567:3 4797:3 5904:2 6322:2 7122:1 7390:1 #
0.0039245350571364395059203999949204 42:6 199:2 281:1 306:1 1024:2 1304:1 1393:1 4520:1 4797:1 5448:1 6322:1 7000:1 7909:1 7968:1 #
0.0039245350571364395059203999949204 65:2 77:1 83:1 168:1 185:1 199:3 219:1 319:1 329:1 367:1 377:1 422:2 459:1 485:1 634:1 656:1 673:1 898:1 914:1 987:1 997:1 1043:1 1088:1 1225:1 1315:1 1322:1 1469:1 1579:2 1740:2 1781:1 1910:1 1956:1 2157:1 2259:1 2825:1 2829:1 3319:4 4567:2 6314:1 6322:2 7171:1 7495:1 #
-0.0039245350571364395059203999949204 1:1 41:1 111:1 182:1 198:1 453:1 499:1 518:1 612:2 671:1 681:1 887:1 930:1 1014:1 1064:1 1078:1 1549:1 1579:2 1652:1 1740:1 2549:1 2734:1 3963:1 5005:1 5144:1 5969:1 6578:1 7495:1 7615:1 8243:2 8361:1 #
-0.0039245350571364395059203999949204 42:1 57:1 1177:1 1459:1 1507:1 1795:2 2395:1 2849:1 4797:3 #
-0.0039245350571364395059203999949204 41:1 73:1 85:6 172:1 199:6 203:1 243:1 254:1 269:1 281:4 295:1 329:3 342:1 355:1 364:5 436:6 534:1 537:1 634:2 673:1 726:2 742:1 745:1 757:1 849:1 1030:1 1043:3 1177:4 1218:1 1468:1 1579:1 1613:1 1639:1 1738:1 1746:1 1795:1 1967:1 2142:1 2807:1 2842:1 3081:1 3264:1 3319:4 4089:1 4567:3 4797:5 5549:1 6024:1 6292:1 6322:10 6370:1 7772:1 8133:1 #
0.0039245350571364395059203999949204 256:1 331:1 367:1 422:1 506:2 560:2 603:1 712:1 1043:1 1177:2 1701:1 1910:2 2003:1 2099:1 2415:1 2498:1 2629:1 2829:2 3113:2 3319:3 3538:1 4567:5 4797:1 4915:1 4998:1 5549:2 5817:1 6025:2 7495:2 7778:2 8133:1 #
0.0039245350571364395059203999949204 306:1 780:1 2816:1 3044:1 4718:1 8133:1 #
0.0039245350571364395059203999949204 30:1 80:3 81:1 100:1 220:1 229:1 238:1 306:2 342:1 382:2 405:1 422:1 485:1 550:1 557:1 595:1 597:1 671:1 673:2 822:2 827:1 903:1 927:1 1101:1 1177:3 1500:1 1543:1 1579:1 1740:2 1774:1 1795:1 1951:1 2569:1 2683:1 2829:2 3113:1 3281:1 3319:1 4389:2 4471:1 4567:5 4712:1 4797:1 5816:2 6268:2 6292:1 6322:6 6676:10 8832:1 9936:1 #
0.0035228832937259325561174527763342 100:2 329:1 485:1 506:1 723:1 846:1 871:2 1056:4 1058:2 1116:1 1129:1 1184:1 1340:2 1377:1 1527:1 1579:1 1635:1 1963:1 2086:1 2326:1 2829:1 3319:5 4567:2 4797:1 6261:1 6292:2 6322:3 6658:3 7495:1 7645:1 #
0.0039245350571364395059203999949204 38:1 277:1 323:1 329:4 506:1 537:1 557:2 726:1 909:1 1057:2 1177:3 1305:1 1446:1 1468:1 1469:1 1573:1 1704:1 1738:2 1877:2 1883:1 1898:1 2086:2 2108:1 2253:1 2383:1 2829:1 3044:5 3319:3 3451:2 3961:1 4176:1 4189:1 4207:1 4330:1 4567:7 4797:3 5474:1 5549:2 6292:1 6322:3 7000:2 7194:2 7495:1 8133:2 8947:1 #
-0.0039245350571364395059203999949204 172:1 220:1 306:2 323:1 342:1 405:1 413:1 459:1 603:2 711:1 1312:1 1377:1 1469:1 1634:1 1952:1 1985:1 2213:4 2683:2 2785:1 2829:1 3685:1 3778:1 4176:3 4389:1 4567:2 4793:1 4797:1 5005:2 5934:1 6322:1 6406:1 7000:1 7062:1 7284:1 8133:2 #
0.0039245350571364395059203999949204 140:1 514:1 597:1 812:1 1579:2 1738:1 1740:1 2397:1 3120:2 3319:1 4273:1 6271:1 6292:1 #
0.0039245350571364395059203999949204 38:1 367:1 591:1 673:1 742:1 951:1 953:1 1102:1 1304:1 1377:1 1624:1 1746:3 1795:3 1995:1 2142:1 2829:1 3283:1 3611:1 4797:2 4915:1 5458:1 6292:1 6322:2 7194:1 #
0.0039245350571364395059203999949204 85:1 229:1 240:1 275:1 373:1 586:1 620:1 852:1 953:1 1057:1 1177:1 1304:1 1430:1 1578:1 1579:1 1781:1 1795:1 1863:1 2040:1 2504:1 3369:1 3730:1 4718:1 4797:4 6322:1 7194:1 7495:1 8559:1 #
0.0039245350571364395059203999949204 190:1 423:1 506:1 1188:4 1268:1 1304:1 1788:1 1808:1 1952:1 2829:1 4567:1 4705:5 5549:1 6302:1 6322:1 7000:1 7645:1 8133:2 #
0.0039245350571364395059203999949204 100:1 172:1 199:1 203:1 206:2 219:1 240:1 264:1 275:1 329:1 331:1 367:1 465:1 534:2 603:2 712:1 726:1 913:7 953:1 1057:1 1177:1 1877:1 2095:1 2149:2 2380:1 2395:1 2683:1 2829:1 3319:1 3538:1 4567:6 4692:2 6292:1 6328:1 7194:1 8133:1 8472:4 #
0.0039245350571364395059203999949204 29:1 172:1 185:1 190:1 193:1 206:1 219:1 314:1 323:1 329:2 405:1 458:1 485:1 557:1 634:2 662:1 667:1 723:1 726:1 873:1 953:1 1003:1 1114:1 1177:4 1188:1 1192:1 1215:1 1315:1 1377:1 1501:1 1561:1 1591:1 1639:1 1651:1 1652:1 1738:1 1820:1 1877:1 1910:1 1953:1 2149:5 2213:1 2285:1 2683:2 3318:1 3319:1 3491:2 4198:1 4418:1 4567:2 4625:1 4797:2 4846:1 5260:1 6292:2 6322:4 6568:1 7000:1 7194:2 8133:4 8499:1 #
-0.0039245350571364395059203999949204 1223:1 1474:2 1994:1 2325:1 4095:1 5234:4 5359:2 6646:1 9937:4 #
-0.0039245350571364395059203999949204 58:1 186:1 190:1 266:1 304:1 329:1 367:1 375:3 485:2 509:1 557:1 813:1 827:1 872:1 1168:1 1304:1 1333:1 1489:1 1579:2 1863:1 2149:1 2829:2 4797:1 5934:2 #
-0.0039245350571364395059203999949204 377:1 382:1 681:2 697:1 844:1 859:1 1011:1 1128:1 1424:1 1473:1 1579:1 1910:1 2409:1 2941:1 3281:1 4567:1 5918:1 6322:1 6328:1 6392:1 7194:1 8133:1 #
0.0039245350571364395059203999949204 12:2 36:1 37:1 55:1 79:1 84:1 100:1 122:1 132:1 138:1 159:1 185:1 190:1 199:2 214:1 222:1 243:2 277:1 314:1 323:2 329:1 345:1 359:1 378:1 448:1 453:1 459:1 465:1 466:1 472:1 485:1 506:1 509:1 514:1 550:1 557:8 597:3 612:1 618:1 647:2 703:1 728:1 784:1 944:1 947:2 959:1 1000:1 1003:2 1028:1 1056:3 1078:1 1105:1 1177:2 1296:1 1304:1 1315:1 1319:1 1373:1 1455:1 1538:1 1572:1 1579:2 1773:1 2045:3 2056:1 2149:2 2232:1 2243:1 2371:1 2419:1 2510:3 2683:1 2724:1 2907:1 2973:1 2990:1 3298:1 3319:4 3662:1 3933:1 4176:1 4246:1 4389:2 4567:14 4797:1 4838:2 4846:1 5209:1 5934:1 6292:2 7000:2 7194:1 7343:1 7495:5 8184:1 8219:2 8832:2 9170:2 #
0.0039245350571364395059203999949204 198:1 289:1 405:1 478:2 485:1 534:1 662:1 673:1 726:1 930:3 933:1 953:1 1474:1 1579:1 1736:1 1738:2 1910:1 1956:1 2259:1 2380:1 2724:1 2829:1 3118:2 3283:4 3313:1 3535:1 4050:1 4176:1 4650:1 4793:1 4797:3 6322:2 7000:1 7485:1 7778:1 8270:1 #
-0.0039245350571364395059203999949204 685:1 1043:1 1377:1 1781:1 1903:2 2801:1 4567:1 4797:2 7259:1 7495:1 7979:1 #
0.0039245350571364395059203999949204 218:2 634:1 1083:1 1608:1 1704:1 3319:1 3546:2 5643:3 6024:1 #
0.0039245350571364395059203999949204 85:1 140:1 190:1 295:1 329:1 341:1 367:3 422:1 434:1 461:1 554:1 597:1 603:1 662:1 726:2 757:1 867:1 872:1 951:1 953:2 990:1 1114:1 1157:1 1245:1 1259:2 1315:1 1579:2 1731:2 1795:1 1829:1 1952:1 2099:1 2142:1 2683:1 2932:2 3118:1 3319:2 4262:1 4567:3 4797:4 5005:1 6322:3 6328:1 7000:2 8133:1 #
-0.0039245350571364395059203999949204 140:1 207:2 277:1 314:1 339:1 412:1 422:1 544:1 705:1 791:1 990:1 1010:1 1105:1 1177:1 1268:1 1296:1 1441:1 1442:1 1451:1 1579:1 1753:1 1774:1 1795:1 1877:1 2187:1 2226:1 2344:1 2365:1 2417:1 2608:1 2635:1 2754:1 2789:1 3130:1 3137:1 3174:1 3300:1 3313:1 3329:1 3430:1 3626:1 3798:1 3969:1 4076:1 4183:1 4331:1 4567:2 4653:1 4735:1 4803:1 4926:1 4930:1 4989:1 5232:1 5395:1 5581:1 6089:1 6553:1 7242:1 7495:2 7547:1 7639:1 7919:1 8354:1 8433:1 8712:1 9228:1 9798:1 9887:2 9921:1 #
-0.0039245350571364395059203999949204 681:2 1064:1 1489:1 1579:3 1898:1 1954:1 3451:1 6322:1 6417:1 7056:1 7495:2 #
-0.0039245350571364395059203999949204 41:1 55:1 264:1 307:1 327:1 377:1 379:1 414:1 422:1 664:1 681:1 815:1 947:1 990:1 995:1 1009:1 1026:1 1028:1 1039:1 1089:1 1097:1 1227:1 1438:1 1502:1 1520:1 1538:1 1560:1 1561:1 1575:1 1579:2 1613:1 1740:1 1798:1 1800:1 1818:1 1904:1 2032:1 2048:1 2098:1 2151:1 2232:1 2412:1 2428:1 2686:1 2848:1 2874:1 2932:1 2948:1 2955:1 3022:1 3023:1 3095:1 3149:1 3278:1 3284:1 3305:1 3399:1 3555:1 3562:1 3671:1 3772:1 3862:1 3865:1 3872:1 3908:1 3927:2 3974:2 4020:1 4190:1 4215:1 4253:1 4261:1 4284:1 4424:1 4502:1 4525:1 4567:2 4591:1 4655:1 4677:1 4784:1 4960:1 5107:1 5469:1 5495:1 5505:1 5741:1 5791:1 5842:1 5904:1 5947:1 6142:1 6248:1 6255:1 6322:1 6363:1 6396:2 6415:1 6642:1 6767:1 6771:1 6863:1 6901:1 7000:1 7122:1 7315:1 7495:1 7525:1 8027:1 8133:1 8359:1 8636:1 8935:1 9389:1 9454:1 #
0.0039245350571364395059203999949204 41:1 67:2 176:1 364:1 405:1 459:3 657:1 953:1 969:1 1155:1 1192:1 1296:1 1579:3 1738:1 2213:1 2848:2 2859:1 3779:2 4506:1 4785:2 5816:1 6292:2 6322:2 6568:4 8559:1 #
0.0039245350571364395059203999949204 306:1 433:1 500:1 582:1 597:1 953:1 1304:1 1377:1 2683:1 3532:1 3956:1 4567:2 7000:1 #
0.0039245350571364395059203999949204 100:1 199:2 485:1 594:1 656:1 673:1 726:1 1177:1 1738:1 1795:1 3319:1 5934:1 6568:1 7194:1 7712:1 8151:1 #
0.0039245350571364395059203999949204 11:1 206:1 209:1 264:2 504:1 509:1 699:3 808:1 953:1 1055:1 1162:1 1579:2 1815:1 2643:1 2781:1 3091:1 3319:1 3574:2 3728:1 4567:1 4797:2 4846:1 6322:4 #
0.0039245350571364395059203999949204 38:2 67:1 111:1 232:1 351:1 413:1 422:1 557:2 965:1 1133:1 1184:1 1304:1 1377:1 1624:2 2829:1 4797:2 5005:1 6322:3 6568:2 7000:1 8397:9 #
-0.0039245350571364395059203999949204 58:1 186:1 190:1 266:1 304:1 329:1 367:1 375:3 485:2 509:1 557:1 813:1 827:1 872:1 1168:1 1304:1 1333:1 1489:1 1579:2 1863:1 2149:1 2829:2 4797:1 5934:2 #
-0.0039245350571364395059203999949204 42:2 67:1 229:1 282:2 324:1 377:1 485:1 726:1 2932:2 3319:1 4567:1 4655:3 4797:1 5332:1 6318:1 #
-0.0039245350571364395059203999949204 18:2 67:1 219:1 283:2 304:1 480:1 485:1 575:1 792:1 824:2 1043:1 1149:1 1160:2 1304:3 1377:1 1424:3 1579:2 1740:1 2683:1 2932:1 3319:1 4567:2 4797:1 6322:1 7194:1 #
0.0039245350571364395059203999949204 218:1 534:1 1795:1 5934:1 6024:1 #
0.0039245350571364395059203999949204 15:1 29:5 81:1 185:1 256:1 284:1 327:1 329:1 367:1 382:2 405:1 458:1 726:1 1177:2 1241:1 1301:1 1488:1 1609:1 1740:1 1791:1 1795:1 1963:1 2019:2 2057:1 2108:1 2395:1 2724:2 2829:1 3451:2 3491:1 4176:1 4389:1 4521:1 5005:2 6290:1 6292:1 6322:1 6328:1 6410:1 6549:1 7261:1 8133:3 9291:1 #
0.0039245350571364395059203999949204 1129:2 2849:2 3295:1 3319:2 4797:2 7194:2 7778:4 #
0.0039245350571364395059203999949204 199:2 329:1 436:2 662:1 808:1 932:1 1133:1 1177:1 1268:1 1304:1 1377:1 1579:1 1787:1 2093:1 2463:1 2880:1 4176:1 4567:1 #
0.0039245350571364395059203999949204 14:1 20:2 29:1 54:1 162:2 312:2 329:1 381:1 413:1 1138:1 1177:2 1245:1 1335:2 2397:1 2807:2 3319:1 3702:1 4188:2 4567:1 4705:1 4797:2 #
-0.0039245350571364395059203999949204 37:1 67:1 168:1 199:5 872:1 963:1 987:1 1064:1 1304:2 1455:1 1489:1 1910:1 2086:1 2353:1 2683:1 4107:1 4567:3 4604:1 4797:1 7000:2 8133:2 #
-0.0039245350571364395059203999949204 277:1 405:1 557:2 681:1 769:2 953:1 1056:2 1058:1 1579:1 1587:1 1704:1 1787:1 1795:1 2731:1 4176:1 4188:1 4797:1 5219:1 5934:1 8133:2 #
0.0039245350571364395059203999949204 58:1 140:2 199:1 329:7 355:1 380:1 483:1 485:1 548:3 557:1 645:1 673:2 678:1 712:3 726:3 827:1 872:1 990:1 1030:1 1057:1 1177:1 1193:1 1194:1 1280:2 1441:1 1700:1 1781:1 1789:1 1795:1 1834:2 2195:1 2398:1 2578:1 2651:1 3538:2 3621:1 4178:1 4567:9 4568:1 4655:1 4797:2 5005:1 5424:1 5528:1 6024:4 6322:8 7000:1 7495:2 8133:1 9196:1 #
-0.0039245350571364395059203999949204 190:1 199:3 243:1 275:2 289:1 329:3 485:1 634:3 673:3 681:1 719:1 757:1 837:1 990:1 1193:1 1572:1 1740:1 1903:1 2145:1 2256:1 2640:1 2683:1 3319:1 4567:2 4797:2 4856:1 4899:1 5262:1 5803:1 6322:2 8270:1 #
0.0039245350571364395059203999949204 67:2 140:1 182:1 207:1 478:1 594:1 603:1 657:1 719:1 722:1 996:1 1022:1 1177:1 1215:1 1471:1 1635:1 1704:1 1985:3 2213:1 2605:1 3275:1 4176:1 4389:1 4567:1 4705:1 4797:2 5546:1 6074:1 6322:2 6626:4 7194:1 8133:2 8559:1 #
0.0039245350571364395059203999949204 199:1 203:1 208:1 634:1 808:1 984:1 1003:1 1056:1 1098:1 1137:1 1305:1 1579:1 1746:5 1782:1 2149:1 2352:1 2765:1 2829:1 3283:1 3319:2 3703:2 4567:3 4613:2 4705:1 4797:4 4846:1 5816:1 5927:2 6292:1 6322:3 7194:2 7252:1 #
0.0039245350571364395059203999949204 41:6 42:2 199:1 219:1 283:1 306:1 422:2 554:1 580:1 626:3 671:2 727:1 757:1 960:1 1030:2 1050:1 1098:1 1102:1 1245:1 1304:1 1395:1 1579:1 1652:1 1740:3 1939:1 2829:2 3283:1 3319:1 3320:1 3674:1 4463:1 4520:1 4525:1 4567:1 4797:2 5405:1 6292:1 6322:1 #
-0.0039245350571364395059203999949204 347:1 422:1 462:1 514:1 534:1 561:1 611:1 689:1 712:1 1102:2 1133:1 1177:3 1740:1 2076:1 2142:1 2640:1 3319:2 4562:1 4660:1 4729:1 5005:1 5934:1 6322:1 6568:2 7495:1 #
-0.0039245350571364395059203999949204 4:1 81:1 190:1 289:1 341:1 416:1 510:2 539:1 597:1 667:1 673:2 726:1 794:1 1102:1 1177:1 1225:1 1442:2 1489:1 1537:1 1635:1 3213:1 3319:1 3331:1 4330:1 4567:1 5279:1 6024:2 6101:1 7000:1 7495:2 8306:1 #
-0.0039245350571364395059203999949204 4:1 98:1 256:1 301:1 306:2 341:1 342:1 449:1 485:1 534:1 591:1 597:1 603:1 671:1 689:1 722:1 726:1 775:1 803:1 809:1 873:1 1003:1 1117:1 1330:1 1442:1 1513:1 1781:1 1834:1 1865:1 1912:1 2006:1 2213:1 2219:1 2785:1 2932:1 4793:1 5005:2 5053:1 5112:1 6469:1 6549:1 7495:1 #
-0.0039245350571364395059203999949204 198:1 485:1 524:1 685:1 975:1 978:1 1121:1 1177:1 1225:1 1241:1 1579:1 1740:1 1791:1 1884:1 2093:1 2415:1 2834:1 4114:1 4389:2 4567:1 4656:1 4793:1 4797:1 6322:1 7316:1 7872:2 8133:3 8243:1 8460:1 8986:1 #
0.0039245350571364395059203999949204 6:1 23:1 162:2 181:1 367:1 485:2 730:1 1129:1 1177:1 1184:1 1188:1 1259:3 1315:1 1468:1 1551:1 1579:1 1603:1 1686:1 1740:4 1795:1 1815:1 1985:1 2683:3 2699:1 2801:1 2932:1 3319:1 3491:1 3994:1 4488:1 4567:5 4797:4 5151:1 6292:1 6322:1 6568:2 7194:1 8935:1 9936:1 #
0.0039245350571364395059203999949204 171:1 172:1 194:1 199:3 206:1 347:1 367:1 422:1 465:1 485:1 560:1 575:1 594:2 653:1 673:1 726:1 824:2 975:1 1000:1 1011:2 1304:2 1340:1 1377:1 1558:1 1579:1 1740:2 1791:3 1877:1 1994:2 2086:1 2108:2 2157:1 2829:1 3120:1 3319:1 3491:1 3519:1 3824:1 4040:7 4176:2 4389:2 4567:7 4797:4 5356:1 5934:1 6011:1 6140:3 6322:3 7194:1 7495:1 7778:2 8133:1 #
-0.0006393426510492090019885380591802 15:1 37:1 41:1 80:1 81:1 189:1 203:1 329:1 347:1 485:2 537:2 601:1 603:2 711:1 847:1 903:1 908:5 963:1 1028:2 1064:1 1241:1 1259:1 1474:3 1489:1 1633:1 1894:1 2086:1 2293:1 2395:1 3319:3 3538:1 3571:2 3674:1 3772:3 3822:1 4176:1 4389:1 4567:2 4797:5 4997:1 5075:1 5549:2 6292:1 6322:3 8133:1 #
-0.0039245350571364395059203999949204 38:1 204:2 206:1 219:1 240:1 329:3 422:1 465:1 472:1 510:1 557:1 681:1 712:3 1081:1 1177:1 1188:1 1304:1 1377:1 1704:1 1740:1 1787:1 1898:1 2057:1 2086:2 2095:1 2108:1 2213:1 2931:1 3319:2 4176:6 4389:6 5005:1 5549:1 6292:1 #
-0.0039245350571364395059203999949204 18:1 42:1 74:2 148:1 329:2 343:1 405:1 557:2 603:1 726:1 774:1 813:1 964:1 997:1 1102:1 1268:1 1740:1 1795:1 2086:2 2206:2 2765:1 2807:1 3319:1 3509:2 3737:1 4089:1 4176:2 4292:2 4389:2 4567:1 4784:1 4797:1 6121:2 6292:1 6322:4 7000:1 8133:5 8149:1 8374:1 8832:1 #
-0.0020089644570993651050139217062451 18:2 67:1 85:3 98:1 146:1 206:1 264:1 306:1 329:1 364:1 507:1 534:1 548:1 550:2 575:1 603:5 657:1 812:1 829:1 1064:1 1133:1 1215:1 1254:1 1579:2 1612:2 2213:1 2267:1 2765:1 3120:1 3275:2 3319:1 3685:1 4387:1 4793:3 4797:1 5144:1 6292:2 6322:1 6668:1 #
-0.0039245350571364395059203999949204 29:1 41:1 80:1 199:1 203:1 206:1 242:1 323:3 329:2 377:1 423:1 448:1 495:1 499:1 541:2 557:1 603:1 656:3 662:1 681:1 712:1 742:1 863:1 1064:1 1177:2 1188:2 1279:2 1304:5 1579:2 1686:1 1740:5 1863:1 1963:1 1994:1 2086:1 2765:4 2889:1 3319:4 4181:2 4389:1 4567:4 4797:6 6302:1 6322:2 6328:1 7000:2 7194:1 7495:1 #
-0.0039245350571364395059203999949204 190:1 575:1 872:1 1177:1 1241:1 1877:1 1910:1 2874:1 4793:1 5405:1 5570:1 5942:1 8133:3 #
-0.0039245350571364395059203999949204 4:1 67:1 190:1 199:1 377:1 391:1 462:1 534:1 673:1 681:1 726:2 827:1 877:1 903:1 1442:1 1579:1 1737:1 1740:1 1744:1 1758:1 1910:1 2829:2 3319:1 3804:1 4208:1 4267:1 4330:1 4797:3 6149:1 6279:1 7000:1 7495:1 8773:1 8837:1 8894:1 #
-0.0039245350571364395059203999949204 12:3 25:1 199:1 282:1 367:2 396:1 484:1 697:1 726:1 946:1 971:1 1177:1 1192:1 1268:1 1304:1 1320:1 1458:1 1587:1 1867:1 1976:1 2025:1 2142:2 2283:1 2320:1 2630:1 2645:1 2649:1 2830:1 2874:1 3355:1 3442:1 3623:1 3636:1 3730:1 3930:1 4023:1 4203:1 4387:1 4567:1 4627:1 4783:1 5384:1 5474:1 5746:1 6024:1 6099:1 6563:1 6899:1 6982:1 7159:1 8480:1 8575:1 8679:1 9554:1 9680:1 #
-0.0039245350571364395059203999949204 506:1 726:1 1056:1 1064:1 1315:1 1579:2 1898:1 7056:1 7495:3 7835:1 #
-0.0039245350571364395059203999949204 422:1 506:1 634:1 681:2 891:1 1064:1 1579:3 1694:1 1898:1 1954:1 6322:1 7056:1 7495:1 7745:1 7928:1 #
-0.0039245350571364395059203999949204 41:1 120:1 188:1 219:1 232:1 308:1 338:1 343:1 346:1 377:1 382:1 422:1 453:1 540:1 544:1 607:1 828:1 849:1 903:1 913:1 969:1 987:1 990:1 1021:1 1028:1 1093:1 1123:1 1163:1 1180:1 1446:1 1502:1 1550:1 1562:1 1579:2 1613:1 1721:1 1740:2 1842:1 1888:1 1907:1 1975:1 2041:1 2179:1 2394:1 2447:1 2672:1 2699:1 2712:1 2720:1 2744:1 2932:1 3023:1 3027:1 3069:1 3161:1 3217:1 3291:1 3585:1 3671:1 3825:1 3862:1 3971:1 4006:1 4040:1 4063:1 4185:1 4303:1 4447:1 4498:1 4520:1 4567:2 4737:1 4756:1 4768:1 4783:1 4844:1 4887:1 5142:1 5172:1 5262:1 5476:1 5581:1 5662:1 5716:1 5891:1 5946:1 5984:1 6027:1 6035:1 6322:1 6332:1 6363:1 6379:1 6657:1 6667:1 7000:1 7052:1 7126:1 7179:1 7260:1 7315:1 7390:1 7495:1 7708:1 7745:1 7830:1 8133:1 8179:1 8186:1 8267:1 8270:1 8403:1 8419:1 8771:1 8855:1 8904:1 9014:1 9069:1 9125:1 9423:1 9456:1 9470:1 9591:1 9651:1 9769:1 9870:1 9888:1 #
0.0039245350571364395059203999949204 11:2 38:1 220:1 264:2 328:1 342:1 378:1 422:1 557:1 657:1 673:1 739:2 888:1 1064:1 1177:3 1215:1 1259:3 1295:1 1484:1 1704:2 1738:1 1952:1 2391:1 2463:1 2829:1 2932:1 3319:3 4389:1 4567:2 5005:1 5454:1 5934:1 6322:2 6328:1 6388:1 7495:1 8180:1 #
-0.0039245350571364395059203999949204 85:1 154:1 162:1 204:1 264:1 301:1 377:1 422:1 673:1 697:1 722:1 726:1 953:1 1011:1 1149:1 1188:1 1304:1 1488:1 1579:2 1738:1 1795:1 1910:1 2057:1 2829:1 2932:1 3281:1 3803:1 3824:1 3899:1 4567:3 5934:1 6140:1 6322:1 6328:1 7194:1 8712:1 9003:1 #
0.0039245350571364395059203999949204 165:1 200:1 485:1 510:1 603:1 1094:2 1188:2 1738:1 3319:2 6024:2 7495:1 8472:1 #
-0.0039245350571364395059203999949204 6:1 42:1 162:1 219:4 220:1 377:1 466:1 509:1 518:1 575:1 591:1 597:2 634:1 673:1 712:1 724:1 726:1 1042:1 1064:1 1117:1 1124:1 1177:2 1289:1 1304:2 1315:1 1539:1 1543:2 1579:3 1724:1 1808:1 1877:1 2213:2 2374:1 2741:1 2772:1 2829:1 3961:1 4567:6 4775:1 4797:1 5005:2 5101:1 5689:1 5806:1 5808:1 6024:1 6292:1 6322:2 7000:1 7194:1 7495:1 8348:1 #
-0.0039245350571364395059203999949204 29:1 37:1 38:1 81:1 83:1 84:2 87:1 132:1 162:2 172:1 176:1 178:1 203:1 207:1 294:1 327:1 329:7 337:2 387:2 427:1 485:1 506:1 509:2 634:1 709:1 829:1 847:1 909:1 976:1 1030:1 1154:1 1177:2 1196:1 1216:3 1304:1 1372:1 1393:1 1404:1 1431:1 1473:1 1579:2 1740:3 1795:1 1954:1 1995:1 2149:1 2765:1 2829:1 3070:1 3160:1 3313:2 3319:1 3985:1 4176:3 4389:3 4567:7 4797:10 4997:1 5151:1 6292:1 6322:5 7000:5 7061:1 7194:3 7495:1 8133:2 8832:1 9423:1 #
-0.0039245350571364395059203999949204 6:1 42:5 43:2 67:1 100:5 240:1 289:1 329:1 377:6 405:3 469:1 506:1 514:5 591:1 681:1 699:1 867:4 899:1 930:1 953:1 1078:2 1095:1 1468:1 1544:1 1625:1 1689:1 1738:2 1795:2 1877:1 2149:3 2213:1 2380:1 3044:1 3147:1 3283:1 3319:1 3636:1 3648:1 3660:1 3779:1 3824:3 4111:2 4176:1 4188:5 4389:1 4567:7 4655:1 4797:4 4996:1 5005:1 5930:1 5934:1 6268:1 6322:3 6568:2 6852:1 7194:2 8133:6 8149:1 8270:1 8472:1 9936:1 #
-0.0039245350571364395059203999949204 277:1 554:1 667:5 2133:1 2149:3 2179:1 2238:1 2319:2 2354:1 3242:1 4176:3 4389:2 4797:1 5005:5 5359:1 7316:1 8021:1 #
-0.0039245350571364395059203999949204 4:1 6:1 47:1 80:1 166:1 185:1 194:1 201:1 330:1 678:1 685:1 709:1 712:1 809:1 947:1 977:1 1043:1 1064:1 1129:1 1263:1 1288:1 1377:1 1378:1 1435:1 1513:1 1731:1 1738:1 1750:1 1795:2 1940:1 2471:1 2724:1 2801:1 3169:1 3257:1 3439:1 3491:1 3659:1 4793:1 5004:1 6672:1 8265:1 #
-0.0039245350571364395059203999949204 140:1 422:1 548:1 557:1 575:1 722:1 953:1 1177:1 1241:1 1304:1 1579:1 1740:1 1808:1 4176:1 4234:1 4567:1 6024:1 6292:1 6322:1 8180:1 #
0.0039245350571364395059203999949204 1740:1 3497:1 4302:1 #
-0.0039245350571364395059203999949204 206:1 215:3 306:2 324:1 329:5 342:1 405:1 473:1 508:1 510:1 672:1 726:1 743:1 767:1 908:1 1056:1 1245:1 1304:2 1441:1 1704:1 1791:1 1846:1 1910:1 2086:1 2510:1 2683:1 2829:1 3319:2 4176:1 4388:4 4389:1 4567:2 4797:5 7194:1 8472:1 #
-0.0039245350571364395059203999949204 4:3 306:1 329:1 356:1 405:1 557:1 634:1 722:1 953:1 1056:1 1304:1 1738:1 2057:1 2142:1 2683:1 3319:2 6391:1 #
-0.0039245350571364395059203999949204 264:1 329:2 459:1 499:1 534:1 557:1 603:1 719:1 824:1 953:1 1177:2 1192:2 1446:1 1579:4 1740:1 1775:1 2108:1 2165:1 2575:1 2605:2 3129:1 3319:1 3924:1 4496:1 4567:3 4797:1 6322:1 7210:1 #
0.0039245350571364395059203999949204 1:5 405:1 1125:1 1495:1 1538:1 1738:1 2201:2 2213:1 2823:1 3313:1 3803:1 4114:1 6268:1 6322:3 6420:1 7764:1 7778:4 7789:1 7861:1 8133:1 8270:1 #
-0.0039245350571364395059203999949204 199:2 603:1 971:2 1259:1 1579:1 2142:1 2801:1 2825:2 3845:2 4797:3 5037:1 6292:1 6322:3 6568:1 7495:1 #
-0.0039245350571364395059203999949204 140:1 548:1 557:2 575:1 681:1 953:1 1303:1 1304:1 1579:1 1608:1 1808:1 2683:1 3319:1 4567:1 6322:1 8180:1 #
-0.0039245350571364395059203999949204 80:1 81:1 100:1 183:1 190:1 324:1 416:1 422:1 510:1 534:1 557:1 722:1 726:1 757:1 1064:2 1304:1 1305:1 1579:3 1740:1 1808:1 2057:1 2395:1 2789:1 2829:1 2889:1 3283:1 3319:3 4567:1 6024:1 6322:1 7000:1 7495:1 #
-0.0039245350571364395059203999949204 4:1 80:1 111:1 203:1 220:2 284:1 342:1 466:2 478:1 506:1 509:1 554:1 557:1 576:1 827:1 1179:1 1424:1 1562:1 1740:1 1782:1 1963:1 2380:1 2471:1 2542:1 2932:1 3491:1 4418:1 4549:1 4793:1 5934:1 6833:1 7020:1 8437:1 8832:1 9411:1 9936:1 #
-0.0039245350571364395059203999949204 220:1 243:1 275:1 327:1 329:1 422:1 510:3 557:1 1081:1 3319:1 4567:1 4576:1 5475:1 #
-0.0039245350571364395059203999949204 557:2 1056:1 1064:1 1284:1 1381:1 1864:1 1952:1 3203:1 3313:1 3356:1 4017:1 4310:1 4396:1 5005:1 6564:1 6636:1 8397:1 8751:1 #
-0.0039245350571364395059203999949204 15:2 23:4 29:1 30:1 47:3 74:1 80:1 81:1 98:1 106:1 114:2 134:2 140:4 172:3 182:1 190:1 199:4 206:1 254:1 256:2 269:1 270:1 306:1 314:2 329:5 342:1 367:2 375:1 377:1 405:1 422:1 485:1 506:1 534:1 557:3 560:1 594:1 597:2 621:1 641:1 697:1 814:1 837:1 847:7 881:1 916:6 932:1 933:2 963:1 971:1 1035:1 1075:1 1133:3 1135:1 1177:1 1259:2 1304:4 1305:1 1308:6 1416:1 1437:1 1495:2 1527:6 1573:1 1579:1 1591:2 1624:1 1700:4 1704:1 1731:1 1740:3 1791:1 1829:1 1877:1 2043:2 2108:1 2142:2 2195:3 2213:3 2225:1 2293:1 2369:3 2604:1 2631:1 2796:1 2829:3 2912:1 3283:1 3313:1 3319:4 3337:1 3440:1 3491:1 3702:1 4020:1 4023:1 4067:1 4147:1 4567:23 4797:11 4900:1 4933:4 5005:2 5069:1 5258:1 5998:1 6059:2 6322:14 6328:1 6668:1 6833:3 7000:4 7194:1 7495:2 8003:3 8149:1 8151:1 8270:1 8832:3 8988:1 #
0.0039245350571364395059203999949204 65:1 84:1 190:1 199:2 219:2 268:1 314:1 329:3 446:1 485:2 495:1 506:1 534:1 557:2 681:1 726:2 827:1 872:4 1012:1 1188:1 1239:1 1340:1 1375:1 1544:1 1579:2 1740:2 1787:1 1808:4 1994:1 2149:1 2170:1 2369:1 2571:1 2575:1 2629:2 2724:3 2829:3 2957:1 3283:1 4243:1 4520:2 4567:4 4797:3 4944:1 5262:1 5298:1 5549:1 5934:1 6322:5 7165:2 7495:1 8832:1 8904:2 9936:1 #
-0.0039245350571364395059203999949204 77:1 672:2 852:1 1047:1 1241:1 1601:1 1740:1 2315:1 2403:1 2666:1 2765:1 2829:1 2878:1 2880:1 2998:1 3237:1 3956:1 4207:1 4476:1 4567:1 5069:1 5503:1 5599:1 5605:1 6214:1 7090:1 7614:1 8063:1 8270:1 8446:1 8483:1 #
-0.0039245350571364395059203999949204 80:1 329:1 483:1 726:1 814:1 881:1 934:1 1315:1 1808:1 1836:1 2683:1 2829:4 3519:1 5005:1 6322:3 6549:1 9416:1 #
0.0039245350571364395059203999949204 367:1 495:1 534:1 575:1 739:1 951:1 971:1 1635:1 2128:1 2463:1 2500:1 2829:1 2913:1 3105:1 3319:1 4450:1 4567:2 5005:1 5971:1 6024:1 #
0.0039245350571364395059203999949204 4:1 15:1 29:2 37:1 42:3 85:2 100:2 190:2 194:1 199:1 203:9 204:1 264:1 266:1 322:2 329:5 339:2 347:1 465:1 473:1 478:1 485:3 499:4 510:2 580:2 603:2 662:1 712:4 714:2 726:3 742:2 812:1 847:1 953:2 987:1 1038:1 1043:1 1118:1 1124:2 1134:1 1155:1 1177:14 1214:1 1296:1 1301:1 1304:2 1312:1 1389:1 1417:1 1515:1 1543:1 1575:2 1579:2 1746:1 1775:1 1782:1 1787:2 1963:1 2086:2 2149:1 2206:11 2275:1 2314:1 2354:4 2471:2 2559:1 2608:1 2622:4 2629:1 2631:1 2643:1 2683:5 2699:1 2807:3 2829:3 2873:1 2931:1 2987:3 3178:2 3319:6 3425:1 3517:2 3538:1 3571:3 3674:1 3963:2 4067:1 4111:1 4176:1 4180:1 4188:1 4305:1 4320:4 4330:1 4389:1 4470:2 4498:1 4567:19 4604:3 4797:16 4843:1 5079:1 5262:2 5405:1 5414:1 5549:1 6024:1 6292:5 6322:12 6469:1 6616:2 6823:1 7000:4 7062:1 7194:1 7386:2 7495:2 7703:1 8133:5 8319:1 8329:1 8361:1 8397:1 8418:2 9755:1 #
0.0039245350571364395059203999949204 187:2 277:1 342:2 375:1 1043:1 1094:1 1304:1 1424:2 4389:1 4567:2 4793:2 4797:1 5095:1 6635:1 6665:1 6982:2 8133:1 8559:1 #
0.0039245350571364395059203999949204 4:1 23:2 102:1 140:1 183:1 186:2 203:1 268:1 306:1 447:1 458:1 557:1 636:2 705:1 712:1 722:1 804:1 863:1 930:1 953:2 1041:1 1177:3 1188:1 1215:2 1469:1 1489:1 1599:1 1614:1 1746:1 1776:1 2057:2 2067:1 2108:1 2157:1 2295:1 2617:2 2829:1 2833:1 3081:1 3181:1 3319:2 3822:1 4394:1 4567:3 4797:3 5608:1 6770:1 7000:1 7001:1 7120:1 7495:1 8133:12 #
-0.0039245350571364395059203999949204 206:1 329:1 930:1 1241:1 1354:1 1579:2 1910:1 2149:1 2712:1 3283:1 3319:1 4797:1 5454:1 5903:1 6115:1 7000:1 8133:1 8472:1 #
-0.00061633584422465120550987949243904 73:1 329:1 584:2 618:1 673:1 712:1 767:1 872:1 959:1 1074:1 1117:1 1377:1 1579:1 1735:1 1860:1 1912:1 2099:1 2108:1 2150:1 2631:1 2683:1 2799:1 2829:1 3023:1 3154:1 3243:1 3782:1 4230:1 4358:1 4495:1 4567:2 4797:1 6024:1 6322:1 6549:1 7000:1 7219:1 8403:1 8952:1 #
0.0035323305458137286075293026499367 105:1 148:1 154:1 218:1 260:1 264:4 317:1 329:2 458:1 473:1 485:2 506:2 534:1 557:1 656:1 722:1 757:1 953:1 996:1 997:1 1030:1 1056:5 1102:1 1177:1 1188:1 1304:3 1332:5 1373:2 1375:1 1489:1 1579:3 1704:1 2056:1 2244:1 2356:1 2396:1 2824:2 2829:2 2913:1 3098:1 3319:3 3701:6 4567:4 4797:3 5405:1 5549:1 6292:2 6322:1 7000:3 8133:6 8397:1 8866:1 #
-0.0039245350571364395059203999949204 1047:1 1177:4 4020:1 4181:1 4389:4 6322:7 6835:1 7778:2 7913:1 8368:1 #
0.0039245350571364395059203999949204 359:1 468:1 483:2 724:2 1177:2 1579:1 2807:2 4797:1 8560:4 #
-0.0039245350571364395059203999949204 38:1 67:1 139:1 329:1 485:1 501:1 534:1 557:1 597:1 722:1 #
0.0039245350571364395059203999949204 12:2 23:1 43:6 67:4 140:1 162:1 182:5 190:1 209:1 324:1 329:2 458:1 469:1 485:3 506:3 534:1 536:1 594:1 603:2 657:1 681:1 690:3 712:2 812:1 867:3 1113:1 1124:1 1177:2 1215:1 1232:1 1304:3 1377:1 1436:1 1442:1 1579:1 1635:2 1882:2 1967:2 2059:1 2114:1 2142:2 2213:2 2354:1 2683:1 2829:1 2845:1 2907:2 3264:1 3275:1 4273:1 4292:1 4567:5 4655:3 4784:1 4797:5 4929:1 5414:3 5919:1 6074:1 6160:1 6322:3 6328:1 6626:2 6733:1 7000:3 7495:1 8133:4 8472:1 8581:2 #
0.0039245350571364395059203999949204 17:1 43:8 67:1 199:1 203:1 329:3 405:1 603:3 684:1 686:1 709:4 712:1 726:1 757:1 903:1 914:1 1028:1 1056:2 1083:2 1177:2 1304:1 1305:1 1404:1 1495:1 1579:1 1738:1 1791:1 1795:1 1963:1 1994:1 2086:1 2149:2 2354:1 2765:2 2829:1 2932:1 3139:1 3319:3 3824:5 4176:1 4188:3 4389:1 4567:6 4655:1 4797:2 5549:2 6322:1 6365:1 7000:4 7024:1 7495:2 7963:1 8133:4 8833:1 #
0.0039245350571364395059203999949204 42:17 67:1 175:2 199:1 232:1 306:1 423:1 534:1 626:4 757:2 811:1 1056:1 1080:1 1177:3 1215:1 1304:8 1489:5 1579:3 1743:1 1788:1 1851:1 1952:1 2108:1 2415:2 2423:1 2604:1 2979:1 3169:2 3319:5 4567:8 4797:9 5079:3 6164:1 6292:1 6322:6 7000:2 7194:1 7495:1 #
0.0039245350571364395059203999949204 329:1 1579:1 2142:1 2398:2 4008:1 4567:4 6322:1 6370:1 7495:1 #
-0.0039245350571364395059203999949204 4:1 405:2 673:1 728:1 1738:2 6292:2 6519:1 6549:1 #
-0.0039245350571364395059203999949204 54:1 199:1 290:1 295:1 318:1 373:1 557:1 575:1 726:1 784:1 933:1 1009:1 1056:1 1177:1 1405:1 1489:1 1579:1 1952:1 2056:1 2149:1 2682:1 2767:1 3191:1 3319:1 3398:1 3544:1 3612:1 3659:1 4216:1 4567:1 4654:1 4784:1 4887:1 5167:1 5488:1 6264:1 6635:1 6827:1 6879:1 6901:1 7124:1 7194:1 7260:1 #
-0.0039245350571364395059203999949204 4:1 219:1 372:1 405:1 517:1 561:1 667:1 829:1 971:1 1056:1 1102:1 1121:1 1184:1 1280:1 1295:1 1335:1 1437:1 2095:1 2157:1 2326:2 2394:2 3081:1 3098:1 3169:1 3425:1 4006:1 4114:1 4655:1 4793:1 5923:1 6403:1 #
-0.0039245350571364395059203999949204 140:1 342:1 465:1 485:1 510:1 712:1 1259:1 1263:2 1377:1 1740:1 6322:2 6658:2 7000:1 8218:1 #
0.0039245350571364395059203999949204 15:1 17:1 18:1 29:2 30:1 37:2 80:2 81:2 98:1 140:1 165:1 166:1 199:1 203:1 254:1 256:1 277:1 295:2 324:1 329:5 347:1 349:1 364:1 377:1 405:1 434:5 490:1 510:1 597:1 634:1 649:1 671:1 723:2 867:2 930:2 932:1 959:1 984:2 1177:2 1193:1 1214:1 1300:1 1304:1 1305:1 1315:2 1474:1 1610:1 1613:1 1731:3 1746:1 1787:1 1791:1 1800:1 1815:1 1910:2 1951:1 2253:1 2270:3 2395:3 2443:3 2631:1 2662:1 2683:1 2845:1 2873:1 3055:1 3318:1 3319:3 3882:2 4330:1 4567:15 4571:5 4655:2 4793:2 4797:4 5358:1 5414:1 5522:1 5896:1 5920:1 6024:2 6174:1 6292:3 6322:5 6739:1 7000:1 7020:1 7158:2 7194:1 8133:3 #
0.0039237511511873400527061761522418 15:1 34:1 123:1 168:1 171:2 172:1 198:1 199:3 206:1 208:1 219:1 227:14 268:1 296:1 311:1 323:1 324:1 329:1 355:1 367:2 377:1 382:1 472:1 478:1 485:1 593:1 603:3 634:1 667:1 681:1 712:1 722:1 824:1 847:6 873:1 903:1 1070:1 1124:1 1138:4 1149:2 1177:3 1223:1 1304:4 1405:1 1579:1 1679:1 1740:1 1932:1 1995:1 2108:1 2285:1 2394:1 2415:1 2549:1 2554:1 2631:3 2699:1 2829:4 3077:1 3283:1 3319:1 3674:1 4389:1 4496:1 4567:16 4797:12 5262:1 5398:2 6254:1 6292:2 6322:12 7000:1 7194:1 7495:2 8133:4 8559:1 #
0.0039245350571364395059203999949204 80:1 83:1 329:2 396:1 409:1 673:2 963:1 1105:1 1304:1 1513:1 1704:2 1910:1 2086:1 2932:1 2956:2 4567:1 4797:2 4940:1 5005:2 6024:1 6322:1 7194:1 #
-0.0039245350571364395059203999949204 140:1 190:1 199:1 306:1 465:1 485:1 591:1 824:1 953:1 1149:1 1304:1 1882:1 3258:1 4567:2 4793:1 5689:1 6322:1 6328:1 #
0.0039245350571364395059203999949204 15:1 199:1 336:1 679:2 1177:2 1303:1 1391:1 1579:1 3319:1 4089:4 4183:1 4282:1 4567:2 8237:1 8560:5 #
-0.0039245350571364395059203999949204 140:1 227:1 228:1 657:1 808:1 1136:1 1417:1 1773:1 1781:1 2003:1 2149:1 2341:2 2411:1 2708:1 2714:1 2834:1 3335:1 3348:1 3699:1 4567:2 4662:1 4876:1 5680:1 6499:1 6556:1 6859:1 6862:1 6962:1 7118:1 7542:1 7589:1 7832:1 8653:1 8864:1 #
0.0039245350571364395059203999949204 6:1 38:1 83:1 111:1 134:1 138:1 140:1 181:1 189:1 190:3 203:1 209:1 214:1 220:1 291:1 330:2 355:1 377:1 382:1 393:1 459:1 483:1 485:2 500:1 501:1 506:1 510:1 514:1 541:1 550:1 554:2 557:2 603:1 634:1 646:1 654:1 673:2 690:1 712:1 717:1 726:6 757:3 814:1 872:3 930:1 953:1 991:1 1177:6 1193:1 1304:2 1377:1 1435:1 1469:3 1473:1 1488:1 1543:1 1544:3 1579:3 1587:1 1765:1 1789:1 1795:1 1820:3 1898:1 1910:1 2064:1 2142:1 2157:1 2213:4 2293:2 2314:1 2403:1 2411:1 2555:1 2643:3 2683:1 2829:2 2887:1 2957:2 3021:1 3113:1 3214:2 3319:3 3531:2 3674:1 3778:1 3836:2 3994:1 4100:1 4130:1 4567:5 4797:7 4915:2 5005:2 5738:1 6024:2 6125:1 6322:14 6476:1 7000:3 7020:1 7062:1 7194:2 7495:1 7833:1 8437:1 9939:1 #
-0.0039245350571364395059203999949204 162:1 199:1 204:1 329:1 345:2 375:1 466:1 518:1 726:1 1341:1 1575:1 1738:1 1910:1 2601:1 2829:1 2941:1 3169:1 3674:1 4176:1 5773:1 6191:1 6322:4 6499:1 6648:1 7194:1 8821:1 #
0.0039245350571364395059203999949204 1:1 135:1 203:1 240:1 270:1 275:1 329:1 377:2 394:1 403:2 480:1 681:1 827:1 837:2 867:2 1073:1 1117:1 1177:1 1225:1 1245:2 1259:2 1304:4 1731:1 2149:1 2165:1 2179:1 2463:1 3129:1 3185:1 3319:2 4111:1 4130:1 4156:5 4389:1 4394:1 4567:10 4797:12 5005:1 5268:1 5503:1 6292:2 6322:2 7000:1 7495:2 #
-0.0037491352831602307339731172675101 6:2 58:1 73:1 109:1 166:1 199:1 209:1 219:1 254:1 306:1 322:1 329:1 351:1 391:1 405:1 557:1 575:1 597:1 639:1 667:1 690:1 714:1 812:1 1116:1 1129:1 1133:1 1157:1 1168:1 1298:1 1330:1 1339:1 1377:1 1442:1 1501:1 1635:1 1652:1 1744:1 1746:1 1795:1 1932:1 2217:1 2225:1 2254:1 2256:1 2326:1 2394:2 2772:1 3070:1 3425:1 4188:1 4330:1 4438:1 4528:1 4536:1 4549:1 4616:1 4915:1 6322:1 7495:1 #
-0.0039245350571364395059203999949204 29:1 143:1 277:1 518:1 726:1 1241:1 1738:1 1932:1 2394:1 6322:1 6328:1 7000:1 7018:1 8133:1 #
0.0039245350571364395059203999949204 37:2 41:1 100:4 140:1 187:1 199:3 206:1 262:1 264:1 329:3 342:1 436:2 472:1 506:2 537:1 577:1 603:1 634:1 662:1 712:1 1177:3 1268:1 1280:2 1308:1 1340:1 1431:1 1446:1 1474:1 1563:1 1579:2 1787:1 1791:1 1910:1 3070:1 3120:1 3319:1 4089:1 4330:1 4567:7 4650:1 4797:6 5816:1 6024:1 6292:1 6322:2 6668:1 8133:4 #
0.0039245350571364395059203999949204 6:1 26:1 29:4 40:2 41:1 54:1 64:1 80:2 96:2 176:3 199:4 205:1 227:1 289:1 314:1 317:1 345:1 387:1 603:1 665:1 699:1 963:1 965:2 987:1 1018:7 1047:3 1177:2 1277:1 1304:7 1335:1 1388:4 1579:1 2932:1 3319:1 4188:1 4189:1 4215:6 4567:7 4797:14 6322:5 6989:1 7000:1 7495:1 8605:2 #
-0.0039245350571364395059203999949204 577:1 634:1 1194:1 1259:2 1652:1 1740:1 1795:1 6292:1 6322:1 7495:1 #
0.0039245350571364395059203999949204 11:1 23:2 29:3 128:1 193:1 201:2 262:1 329:6 409:1 499:1 506:4 561:1 667:2 964:1 996:2 1177:1 1304:1 1312:1 1410:2 1437:1 1443:2 1474:1 1579:1 1610:1 1740:1 1787:1 2165:1 2716:1 2825:1 3120:1 3319:1 4070:1 4176:2 4191:1 4389:2 4567:4 4649:1 4797:2 5816:1 6292:2 6322:2 7000:1 7866:1 8133:1 8832:1 #
-0.0039245350571364395059203999949204 4:1 306:1 322:1 380:1 422:1 459:1 500:1 506:1 557:1 591:1 598:1 617:1 634:1 712:1 727:1 930:1 969:1 991:1 1055:1 1080:1 1177:1 1263:1 1364:1 1782:1 2157:1 2187:1 2213:1 2829:1 3257:1 3796:1 3956:1 4295:1 4330:1 4528:1 4785:1 4793:1 4887:1 6322:1 6403:1 6635:1 7979:1 #
-0.0039245350571364395059203999949204 138:1 199:2 219:1 485:1 499:2 662:1 726:1 1056:1 1188:1 1268:1 1332:1 1416:1 1579:1 1738:1 1952:1 1961:1 2142:1 2149:1 2438:1 3882:1 4417:1 4520:1 4567:1 6328:1 6961:1 7499:1 #
-0.0039245350571364395059203999949204 70:1 140:1 162:1 190:1 199:1 485:1 673:1 953:1 1469:1 1551:1 1740:1 1877:1 2117:1 2643:1 3257:1 3319:1 4107:1 4797:1 6322:2 6328:1 7495:1 9003:1 #
0.00049458624427424166015987427869049 15:2 84:1 204:2 206:1 294:1 678:2 772:6 1124:1 1177:1 1507:1 2117:1 2415:1 2731:1 3457:1 3573:2 4650:2 4762:1 4797:1 5034:1 5256:1 5916:1 6202:1 6322:1 8886:1 9757:1 #
0.0039245350571364395059203999949204 1064:1 1133:2 3319:1 4797:1 6292:2 6322:1 #
0.0039245350571364395059203999949204 84:1 219:1 264:2 306:3 485:1 510:1 681:3 1579:1 1746:1 4567:2 6322:1 6639:2 8196:1 #
-0.0039245350571364395059203999949204 140:1 227:1 228:1 657:1 808:1 1136:1 1417:1 1773:1 1781:1 2003:1 2149:1 2341:2 2411:1 2708:1 2714:1 2834:1 3335:1 3348:1 3699:1 4567:2 4662:1 4876:1 5680:1 6499:1 6556:1 6859:1 6862:1 6962:1 7118:1 7542:1 7589:1 7832:1 8653:1 8864:1 #
0.0039245350571364395059203999949204 80:2 219:1 367:1 597:2 971:1 976:1 1094:1 1951:2 2048:1 2683:1 2829:1 4567:1 4797:1 8832:1 #
-0.0039245350571364395059203999949204 329:1 485:1 595:1 603:1 872:1 953:1 1056:1 1074:1 2829:1 3803:1 5414:1 #
0.0026946583672759769415017139237989 47:1 394:1 446:1 829:1 1094:1 1474:1 2019:1 2305:1 2443:1 2724:1 4567:1 #
0.0039245350571364395059203999949204 185:1 459:1 557:1 597:1 656:1 722:3 1579:1 1731:1 3301:1 3414:1 4567:2 5005:1 6322:1 6328:1 #
-0.0013969580965470221236429670952361 36:1 80:1 172:1 182:1 311:1 459:1 548:1 591:1 672:1 1177:1 1241:1 1341:1 1376:1 1692:1 1740:1 1944:1 2098:1 2108:1 2765:1 2829:1 3086:1 3147:1 3289:1 3616:1 3778:1 3804:1 3809:1 3909:1 4549:1 4571:1 4655:1 4930:1 4955:1 5072:1 5158:1 5488:1 5865:1 6100:1 6702:1 6949:1 7093:1 7572:1 7850:1 8201:1 8483:1 8635:1 8876:1 #
-0.0039245350571364395059203999949204 148:1 329:1 722:1 824:1 996:1 1471:1 1738:1 2093:3 2369:1 6292:2 7000:1 8133:1 #
0.0039245350571364395059203999949204 74:1 159:4 329:1 485:4 514:1 668:1 836:1 1011:1 1030:5 1076:2 1377:1 1449:1 1877:1 1932:1 1993:1 2019:1 2829:1 3219:1 4430:1 4567:3 4797:2 4862:2 7495:1 #
0.0039245350571364395059203999949204 199:1 1177:2 1579:1 2160:1 2683:1 3319:2 4567:1 5448:1 7495:1 8560:4 #
0.0039245350571364395059203999949204 187:2 534:1 685:2 722:1 5005:1 8560:2 #
0.0039245350571364395059203999949204 15:1 42:1 162:1 318:1 601:1 727:2 1395:2 1755:1 1779:1 1877:1 2270:1 2457:1 2724:1 2825:2 3319:1 3683:2 4176:1 4389:3 4567:1 4718:2 4793:1 7000:1 7194:1 8133:1 #
-0.0039245350571364395059203999949204 154:1 339:1 1241:1 2211:1 3283:1 #
-0.0039245350571364395059203999949204 147:1 1241:1 3902:1 6048:1 7445:1 #
-0.0039245350571364395059203999949204 4:1 127:2 149:1 198:1 419:1 534:1 991:1 1177:1 1775:1 2829:2 4176:2 4797:1 7000:1 9936:1 #
0.0039245350571364395059203999949204 207:1 329:1 422:1 1177:1 1188:1 1322:1 1396:3 1468:1 1572:1 1653:1 1795:1 1829:2 2293:1 3535:1 4330:1 4666:1 4797:1 5096:1 5151:2 6024:1 6322:2 7663:9 8133:1 #
-0.0039245350571364395059203999949204 356:1 953:1 996:1 1238:1 3142:1 3535:1 3796:1 5414:1 5549:1 5956:1 7545:1 7968:1 #
-0.0039245350571364395059203999949204 422:1 827:1 1127:1 1177:2 1193:1 1259:1 1304:1 1613:1 1846:1 2927:1 4188:1 6140:1 #
-0.0039245350571364395059203999949204 953:1 1740:1 2942:1 4797:1 5934:1 8133:1 #
-0.0039245350571364395059203999949204 67:1 190:1 206:1 508:1 854:1 1069:1 1216:1 1509:1 1579:1 1738:1 1740:1 1853:1 2108:1 2238:1 2395:1 2829:1 2849:1 3348:1 4176:6 4388:1 4389:7 4567:2 4797:1 6292:1 6322:1 #
-0.0039245350571364395059203999949204 83:1 100:1 199:3 329:4 557:1 1416:1 1787:1 1795:1 1898:1 2463:1 3313:1 6322:1 #
0.0039245350571364395059203999949204 190:3 306:1 347:1 396:1 485:1 597:1 603:1 726:3 1043:1 1193:1 1382:1 1488:1 1551:1 1579:1 1624:1 1740:1 1795:1 1967:1 2086:1 2213:1 2259:1 2525:1 2683:2 2699:1 2932:1 2957:1 3388:1 4111:1 4176:1 4389:1 4567:2 4797:4 4915:1 5004:1 5005:1 5934:1 6024:1 6322:3 6379:1 6549:3 7000:2 8133:1 #
-0.0039245350571364395059203999949204 329:2 1315:1 1415:1 1579:1 3300:1 8271:1 #
0.0039245350571364395059203999949204 4:1 283:1 322:1 327:1 767:1 954:1 986:1 1060:2 1259:2 1795:1 2397:1 4567:1 5934:1 6292:2 #
0.0023398620601994112727650687588721 6:29 15:3 17:2 20:3 29:1 31:1 35:1 37:4 42:1 67:2 77:1 80:2 81:2 83:5 111:1 114:1 139:2 176:2 179:1 183:1 185:3 186:2 190:2 197:1 199:6 207:1 218:1 241:1 242:4 256:3 265:1 302:4 319:3 322:1 329:1 330:1 342:3 345:1 373:1 377:2 381:1 389:1 391:1 405:1 423:1 436:3 449:2 453:3 462:1 466:1 483:4 485:1 499:1 506:2 510:1 550:3 565:1 580:1 584:3 591:1 593:1 667:1 671:2 679:3 699:1 707:1 712:1 726:1 730:1 772:2 782:2 794:1 809:1 812:1 844:3 918:1 959:1 984:4 987:2 1036:1 1055:1 1094:1 1105:1 1116:1 1134:1 1146:1 1149:1 1155:1 1176:1 1177:3 1213:1 1223:1 1245:1 1263:1 1282:1 1289:1 1296:2 1304:4 1315:1 1379:1 1388:1 1393:1 1441:1 1507:1 1547:1 1579:12 1587:1 1721:1 1725:1 1740:2 1829:1 1836:3 2048:1 2154:1 2383:1 2538:1 2571:1 2621:1 2672:1 2679:2 2683:1 2829:1 2835:1 2849:1 2865:1 2877:1 2882:1 2932:5 2973:1 3118:1 3300:1 3319:6 3360:1 3593:1 3670:1 3820:1 4188:4 4215:1 4498:2 4567:26 4573:4 4649:2 4718:1 4737:1 4779:1 4797:23 4846:1 5029:1 5131:1 5342:1 5420:1 5549:1 5551:3 5618:2 6194:1 6220:1 6292:5 6322:21 6568:13 6770:2 7000:6 7050:1 7351:2 7495:2 7618:1 7702:1 7778:1 8151:1 8439:6 8486:1 8832:2 8872:1 8986:1 9936:1 9937:1 #
0.0039245350571364395059203999949204 289:1 465:1 927:1 #
0.0039245350571364395059203999949204 148:1 208:1 264:1 329:3 448:1 485:1 541:1 557:1 699:1 909:1 1093:1 1202:1 1223:1 1446:1 1579:1 1618:1 1704:1 1738:1 1740:1 1877:1 1898:1 2246:1 3105:1 4176:1 4567:1 6292:1 6322:1 7778:1 #
0.0039245350571364395059203999949204 331:1 339:1 347:1 534:1 576:1 603:1 656:1 709:1 726:1 977:1 1114:1 1865:1 1937:1 1985:1 2225:2 3319:1 4797:1 6322:1 6814:1 7000:3 7037:1 7194:1 7495:1 8133:1 #
-0.0039245350571364395059203999949204 4:1 149:1 419:1 506:1 534:1 4176:2 4797:1 7000:1 7487:1 9936:1 #
0.0039245350571364395059203999949204 256:1 262:1 591:1 1261:1 1795:1 5934:1 6322:1 #
-0.0039245350571364395059203999949204 20:1 54:1 100:1 256:1 322:1 329:1 557:1 722:1 767:1 1288:1 1308:1 1563:1 1579:1 1609:1 1910:1 1945:1 2157:1 2254:1 2295:1 2341:1 2829:2 3319:1 3442:1 3570:1 3994:1 4567:4 4650:1 4797:2 5298:2 5728:1 5900:1 6292:2 6322:3 7495:1 8832:1 #
-0.0039245350571364395059203999949204 62:1 580:2 1056:1 1339:1 1922:2 2213:1 3457:1 4188:1 4282:1 5005:1 5405:1 6568:1 7000:1 7495:1 7572:1 #
0.0039245350571364395059203999949204 100:1 140:1 146:2 154:1 194:1 209:3 219:1 264:6 329:1 349:1 375:1 413:1 534:1 557:2 576:1 603:2 656:1 673:1 722:1 824:2 882:1 953:1 969:1 996:2 1056:1 1072:2 1083:1 1304:2 1305:1 1340:2 1377:1 1431:1 1443:7 1518:1 1579:3 1740:1 1775:2 1787:1 1791:1 1793:1 1820:1 1836:1 1877:1 2057:1 2086:4 2142:1 2275:1 2369:2 2395:1 2825:1 3105:1 3264:1 3281:1 3319:1 4567:9 4797:5 5514:2 6322:5 6328:1 7000:7 7026:1 7194:1 7495:2 8133:3 8151:1 8559:1 #
0.0039245350571364395059203999949204 11:3 206:2 218:1 405:1 422:1 593:1 654:1 953:1 1177:1 1740:1 1795:1 2149:4 2213:1 2829:2 3319:1 4330:1 4567:1 4797:2 5934:1 6024:1 6322:2 6833:1 7495:1 7542:2 9300:1 9937:1 #
-0.0039245350571364395059203999949204 172:1 209:1 584:1 1177:1 1587:1 1781:1 2683:1 2926:1 #
0.0039245350571364395059203999949204 148:1 329:2 422:1 481:1 697:1 1377:1 1704:1 1795:1 1963:1 2086:1 2829:1 3319:1 4284:1 4567:1 4871:2 4890:1 7495:1 #
0.0039245350571364395059203999949204 199:1 218:1 1579:1 1795:1 5934:1 #
0.0039245350571364395059203999949204 554:1 1043:1 1056:1 1093:1 1157:1 1304:1 1609:1 1738:1 1910:1 2086:1 2114:1 3313:1 3532:1 4567:2 5005:1 6322:1 9936:1 #
0.0039245350571364395059203999949204 67:3 69:1 111:1 168:1 308:1 485:1 571:1 673:1 681:1 953:1 1157:2 1198:1 1305:1 1505:1 1551:1 1579:1 1808:1 1910:1 1956:1 2425:1 2683:1 2829:4 3281:1 4567:2 5262:1 5376:1 6322:1 7000:1 7194:1 #
0.0039245350571364395059203999949204 53:1 58:3 254:2 288:1 326:1 410:1 447:1 468:1 557:1 623:1 647:1 665:1 667:1 673:1 770:1 780:1 815:1 849:1 896:1 960:1 1064:1 1177:2 1188:1 1290:1 1371:1 1381:1 1556:1 1641:1 1671:1 1788:1 1891:1 1970:1 2295:1 2320:1 2345:1 2677:1 2736:1 2804:1 2966:1 3683:1 3800:1 4101:1 4261:1 4650:1 4797:1 5422:1 6879:1 7050:1 7495:2 7956:1 8133:2 #
-0.0039245350571364395059203999949204 62:2 1056:1 1339:1 1942:1 3994:1 4425:1 5005:1 5896:1 6568:1 7000:1 7495:1 #
0.0035503242327734559936891489684285 6:12 15:1 29:5 31:1 37:7 80:1 81:1 83:5 139:2 165:6 169:2 172:2 176:3 185:2 189:1 199:3 200:1 203:1 205:1 256:1 308:1 323:1 329:5 337:1 339:2 341:1 377:1 389:1 398:1 416:1 433:2 459:1 478:1 506:1 534:1 580:1 591:1 645:1 662:1 678:1 681:3 706:1 719:5 726:1 903:1 909:2 953:1 963:1 971:2 1047:2 1094:3 1133:3 1146:1 1154:1 1177:2 1225:2 1303:1 1378:1 1388:3 1468:1 1486:1 1501:1 1559:1 1579:1 1591:1 1639:1 1651:1 1789:1 1814:1 1815:1 1846:2 1951:1 1954:1 1993:1 2086:1 2206:1 2211:1 2257:1 2270:1 2353:1 2548:1 2578:1 2683:1 2829:1 2849:2 2879:1 2932:1 3055:1 3319:5 3447:1 3722:1 3779:1 3785:3 3835:1 4181:1 4188:3 4567:7 4797:20 4903:1 5376:1 5414:1 5531:1 6024:1 6292:6 6322:14 6568:3 6979:1 7000:1 7442:1 8117:7 8559:1 8832:1 8988:1 9936:2 #
0.0039245350571364395059203999949204 37:4 67:2 232:1 284:1 422:1 534:1 681:1 1056:1 1113:1 1304:2 1322:1 1527:1 1558:1 1579:3 1776:1 1994:2 2050:1 2569:1 3096:1 3212:1 3319:1 3393:1 3902:1 3929:2 4567:5 4797:3 5022:1 6024:1 6292:2 6322:2 7495:1 8133:1 #
0.0039245350571364395059203999949204 422:1 654:1 684:1 1177:2 1304:1 1416:1 1495:2 1603:1 1740:1 2829:1 3319:1 4567:1 5041:1 6322:1 #
-0.0039245350571364395059203999949204 329:2 550:1 560:1 1074:1 1469:1 2257:1 3439:2 4567:1 5474:2 #
0.0039245350571364395059203999949204 165:1 199:1 206:2 422:3 537:1 554:1 1011:2 1192:3 1304:1 1377:1 1518:1 1704:1 1740:3 1791:2 1963:1 2086:1 2108:1 2724:1 4567:1 6322:2 8367:2 #
0.0039245350571364395059203999949204 339:1 367:1 557:1 597:1 810:1 953:1 1177:1 1988:1 2699:1 6776:1 7495:1 #
-0.0039245350571364395059203999949204 148:1 329:1 722:1 824:1 996:1 1471:1 1738:1 2093:3 2369:1 6292:2 7000:1 8133:1 #
0.0039245350571364395059203999949204 146:1 190:1 364:1 681:1 726:1 872:1 1043:1 1129:1 1193:1 1259:2 1377:2 1382:1 1579:1 1704:1 1740:1 1815:1 1877:1 2142:1 2213:1 2243:1 2567:1 2680:1 2932:1 3319:1 3784:1 4006:1 4176:1 4438:1 4567:3 4718:1 4793:1 6024:1 6322:3 6899:1 7000:1 7194:3 8133:2 8151:1 #
0.0039245350571364395059203999949204 1:1 140:1 377:1 414:1 495:1 557:1 580:1 812:1 1064:1 1268:1 1433:1 1455:1 1468:1 1518:1 1579:1 1740:1 1795:1 1980:4 2170:1 2398:1 2683:1 2866:1 3051:1 3313:1 3585:1 3827:1 4567:3 4797:2 5934:1 6322:1 6994:1 7778:1 #
0.0039245350571364395059203999949204 4:1 367:1 575:1 1177:1 1188:1 1446:1 2957:1 6743:1 7643:1 #
0.0039245350571364395059203999949204 281:1 427:1 534:1 #
-0.0039245350571364395059203999949204 1:1 140:1 485:1 557:1 722:1 726:1 953:1 1245:1 2829:1 2932:1 3319:1 6024:1 #
0.0039245350571364395059203999949204 190:1 329:1 341:1 382:1 465:2 681:1 745:1 757:1 1441:2 1910:1 2643:1 2699:2 2829:1 3319:1 3378:1 3538:1 3729:2 4111:1 4297:2 4567:3 4998:1 5262:1 6322:3 6568:6 7000:1 7645:1 #
0.0039245350571364395059203999949204 70:1 568:1 681:1 953:1 1133:1 1177:1 1235:1 1300:1 1579:1 1740:2 1782:1 2136:1 2149:2 2829:1 4797:1 5811:1 6322:2 7000:2 8133:2 8181:1 8559:1 #
0.0039245350571364395059203999949204 1:2 29:1 130:3 199:1 667:1 933:2 1056:2 1177:1 1241:1 1308:1 2608:1 4797:1 7643:1 #
0.0039245350571364395059203999949204 219:1 254:1 603:1 656:1 688:1 862:1 953:1 1088:1 1177:2 1288:1 1625:1 1787:2 2086:1 2369:1 2542:2 2829:1 4598:1 4793:1 4797:1 4890:1 4977:1 6370:1 7000:2 7375:1 #
-0.0039245350571364395059203999949204 51:1 872:1 953:1 1263:1 1795:1 4275:1 4567:1 6471:1 6814:1 8158:1 #
0.0039245350571364395059203999949204 329:2 534:1 611:1 1083:1 1259:1 1464:1 1910:1 3319:2 3369:2 3778:2 5005:1 5730:1 6322:2 #
0.0039245350571364395059203999949204 43:1 80:1 83:1 122:1 148:1 155:1 159:1 185:1 199:2 208:1 209:1 264:1 306:2 314:1 329:4 336:1 448:1 485:1 508:1 541:1 550:1 557:1 699:1 827:1 909:1 964:2 1085:1 1093:1 1223:1 1424:1 1446:1 1537:1 1579:1 1618:1 1704:1 1738:1 1740:1 1815:1 1866:1 1877:1 1894:1 1898:1 2246:1 2259:1 2842:1 3105:1 3319:1 3369:1 4176:1 4567:1 6292:1 6322:4 7778:1 #
0.0039245350571364395059203999949204 306:3 367:1 466:1 667:1 681:1 827:1 1194:1 1377:1 1579:1 2829:1 3319:1 4718:3 6322:2 7000:1 #
0.0039245350571364395059203999949204 4:1 229:1 769:1 1925:2 2849:1 4567:1 4797:1 #
-0.0039245350571364395059203999949204 953:1 1073:1 2415:1 2833:1 5503:1 7679:1 #
-0.0039245350571364395059203999949204 422:1 953:1 1795:1 2630:1 #
0.0039245350571364395059203999949204 18:1 182:3 187:4 317:1 327:2 1213:2 1495:1 1612:2 3318:1 4520:1 4797:1 6790:1 8270:1 #
0.0039245350571364395059203999949204 241:1 283:1 520:1 667:1 730:1 916:1 1177:2 1304:2 1527:1 1579:4 1634:1 4784:1 4797:1 6322:2 9936:1 #
0.0039245350571364395059203999949204 17:1 29:1 206:5 375:3 509:1 560:1 1064:2 1094:1 1268:1 1304:1 1393:1 1489:3 1579:2 1760:2 2067:3 2765:1 3319:2 4330:1 4567:3 4797:3 6322:4 9936:1 #
0.0039245350571364395059203999949204 31:1 37:1 83:1 168:1 190:1 219:3 319:1 329:1 485:1 510:2 654:1 671:1 681:1 740:1 930:1 1177:1 1746:1 1753:1 1782:1 1797:1 1980:2 2683:1 2829:3 3106:1 3118:1 3660:1 4567:1 4797:1 5565:2 6322:1 #
0.0039245350571364395059203999949204 329:3 373:2 634:1 1579:1 1787:1 1943:1 4378:1 4793:1 6328:1 #
-0.0039245350571364395059203999949204 37:1 341:1 943:1 995:1 1000:1 1308:1 6711:1 8270:1 #
0.0039245350571364395059203999949204 4:1 20:1 306:1 684:1 3882:1 4793:1 #
0.0039245350571364395059203999949204 557:3 662:2 681:1 709:2 933:2 1083:1 1268:1 1304:3 1704:2 1746:1 1782:1 2829:1 4050:1 4567:2 4797:1 6024:1 8529:1 #
-0.0039245350571364395059203999949204 219:1 422:2 673:1 722:1 971:1 1125:1 1177:3 1241:4 1304:2 1543:1 1740:2 1750:1 1795:1 2651:1 2829:1 3313:1 4389:2 6292:1 6322:1 6802:2 7062:1 7772:1 8397:1 #
-0.0039245350571364395059203999949204 37:1 341:1 744:1 995:1 1308:1 6711:1 8270:1 #
0.0039245350571364395059203999949204 38:1 134:1 204:1 375:1 510:1 653:1 872:1 1177:1 2142:1 2571:1 2731:1 3169:1 4567:2 6322:3 #
0.0039245350571364395059203999949204 294:1 329:1 377:1 603:2 634:2 726:1 1740:1 2086:2 2295:2 2765:1 2825:1 2829:1 2870:1 3118:2 4176:2 4567:1 7000:3 7194:1 7495:1 8133:1 #
0.0039245350571364395059203999949204 84:1 534:1 964:1 1305:1 1398:1 2874:1 6292:2 6296:1 #
0.0039245350571364395059203999949204 18:1 853:1 953:1 1740:1 2234:1 4525:2 6322:1 6332:2 #
0.0039245350571364395059203999949204 289:2 1188:1 1446:1 1808:2 3319:1 3758:1 #
0.0039245350571364395059203999949204 38:1 656:1 726:1 1464:1 3319:1 4445:1 4567:1 #
-0.0039245350571364395059203999949204 306:1 405:1 557:2 603:1 722:1 1305:1 1791:1 7000:2 #
-0.0015621048377135668405735202668438 1:1 140:1 317:1 390:1 1259:1 1579:1 1608:1 1808:1 2577:1 3069:1 4234:1 4396:1 4797:1 6223:1 6322:2 7058:1 8180:1 #
0.0039245350571364395059203999949204 100:1 342:1 485:1 681:2 726:1 1102:1 1304:1 1340:2 1579:1 2099:1 2829:1 3281:1 4797:1 6292:1 7194:2 8529:1 #
0.0039245350571364395059203999949204 204:3 219:1 220:1 367:1 459:1 534:1 591:1 654:1 1064:1 1280:1 1308:1 1377:1 1579:1 2157:1 2234:1 2683:1 3660:1 4243:1 4567:1 4797:2 5005:2 6292:1 7194:1 #
0.0039245350571364395059203999949204 294:1 296:1 557:1 836:1 953:1 1704:1 2712:1 3061:1 3281:1 4567:1 4604:1 4797:1 7194:1 #
0.0039245350571364395059203999949204 47:1 206:1 422:1 483:1 534:1 560:1 726:1 1304:1 1579:2 2829:1 3729:1 #
0.0039245350571364395059203999949204 119:1 262:1 329:2 678:1 1124:1 1308:1 1518:1 1579:1 1795:1 1940:1 2829:1 2866:1 2913:1 4797:1 5005:1 5816:1 5934:1 6024:1 6322:1 8133:1 #
0.0039245350571364395059203999949204 495:1 557:1 597:2 656:1 726:1 1750:1 2202:1 3319:1 3369:1 3772:1 4567:1 5891:1 #
0.0039245350571364395059203999949204 100:1 123:1 284:1 306:1 323:1 853:1 1245:1 1579:1 4797:1 7000:1 #
-0.0039245350571364395059203999949204 510:1 550:1 634:1 1340:1 1740:1 1907:1 2074:1 2217:1 2731:1 2829:1 6322:1 6469:1 7194:1 8403:1 9682:1 #
-0.0039245350571364395059203999949204 140:1 598:1 704:1 1011:1 1781:1 2149:1 2341:2 2411:1 2992:1 3334:1 3428:1 4567:2 5209:1 5353:1 #
0.0039245350571364395059203999949204 23:1 85:3 329:1 953:1 960:1 1898:1 2213:1 4797:1 6292:1 #
0.0039245350571364395059203999949204 329:1 453:1 534:1 869:1 990:1 1579:2 3758:1 #
0.0039245350571364395059203999949204 106:1 198:1 534:1 #
0.0039245350571364395059203999949204 306:1 329:1 611:1 1579:1 1692:1 1740:1 1800:2 2833:1 #
-0.0039245350571364395059203999949204 11:1 65:2 204:1 301:1 330:1 413:1 422:1 480:1 506:1 518:1 550:1 561:1 654:1 681:1 685:1 688:1 712:1 730:1 1043:1 1105:1 1304:1 1377:1 1378:1 1437:1 1562:1 1607:1 1746:1 1844:1 1877:1 1883:1 2142:1 2849:1 3114:1 3836:1 4276:1 4309:1 4660:1 5004:1 5262:1 5349:1 5820:1 6549:1 7872:2 #
0.0039245350571364395059203999949204 134:1 148:1 171:1 185:1 186:1 243:1 364:1 377:1 394:1 416:1 603:1 722:2 890:1 984:5 1035:1 1192:1 1223:1 1245:1 1288:1 1304:1 1308:4 1639:1 1787:2 1806:1 1834:1 1910:1 2003:1 2086:1 2149:1 2369:5 2823:1 2870:1 2873:1 3129:1 3301:1 3319:1 3593:1 4031:2 4567:12 4603:1 4793:1 4797:7 6024:1 6292:1 6322:2 6812:2 7000:3 7167:1 7194:1 8133:1 #
0.0039245350571364395059203999949204 23:1 29:1 37:1 77:1 98:1 114:1 140:2 183:2 186:3 199:3 203:1 219:4 262:1 268:1 288:1 306:1 329:6 367:1 458:1 461:1 485:1 508:1 534:1 554:3 557:3 576:1 638:2 641:1 681:3 722:1 751:1 893:1 930:2 936:1 950:1 953:2 969:1 984:4 1056:1 1177:3 1188:1 1192:1 1223:1 1259:1 1304:1 1305:1 1315:1 1332:1 1374:1 1469:1 1489:1 1507:3 1560:1 1579:1 1740:1 1787:3 1795:1 1910:1 2003:1 2056:2 2057:1 2067:2 2108:1 2236:1 2244:1 2295:1 2621:1 2829:3 2873:1 3284:1 3319:2 3822:2 4176:1 4292:1 4389:5 4520:1 4567:19 4573:1 4797:12 4846:2 4998:1 5406:1 5719:1 5816:1 5943:1 6292:1 6322:5 6548:1 7000:5 7020:1 7120:1 7194:1 7985:1 8133:9 8653:1 8832:3 8988:2 #
0.0039245350571364395059203999949204 138:1 332:1 537:2 1058:1 1755:1 2270:1 3190:1 6322:1 #
0.0039245350571364395059203999949204 100:1 1064:2 1184:1 5375:2 5631:1 #
-0.0039245350571364395059203999949204 329:1 603:1 726:1 1910:1 2168:1 2807:1 2987:1 3313:1 4567:1 4797:2 5252:1 7029:1 7194:1 8133:1 8487:1 #
-0.0039245350571364395059203999949204 198:1 953:3 2057:1 5817:1 #
-0.0039245350571364395059203999949204 17:1 67:1 329:2 510:1 1011:1 7778:1 #
-0.0039245350571364395059203999949204 187:1 296:1 304:1 557:1 697:1 722:1 1081:1 2149:1 2724:1 3281:1 3538:1 6328:1 7000:2 7194:1 8133:2 #
0.0039245350571364395059203999949204 26:1 29:3 83:2 139:2 171:1 240:5 256:1 306:1 308:1 329:4 367:3 377:1 448:5 478:1 485:1 506:3 507:1 557:2 576:2 631:1 673:1 681:1 687:1 852:1 862:1 876:1 936:1 954:1 971:1 1000:1 1035:1 1043:1 1129:1 1136:1 1149:1 1193:1 1216:2 1225:1 1243:1 1245:1 1288:1 1304:1 1312:4 1315:1 1319:1 1322:1 1372:1 1377:1 1483:1 1551:1 1579:5 1620:1 1678:1 1740:2 1853:1 2099:1 2226:3 2275:1 2349:1 2395:1 2731:14 2932:1 2986:1 3021:1 3080:1 3157:2 3319:1 3365:6 3369:1 3670:1 3733:1 3904:3 4008:1 4020:1 4204:1 4521:1 4567:23 4712:1 4797:14 4825:2 4915:2 5005:1 5225:1 5942:1 6024:1 6292:1 6322:14 6841:1 7000:1 7204:1 7495:4 7704:1 8832:5 9936:3 #
0.0039245350571364395059203999949204 18:1 30:1 41:1 80:1 81:1 118:1 162:1 190:1 225:1 229:1 295:1 306:1 329:2 342:1 508:3 510:1 667:2 681:1 685:1 739:1 808:2 827:1 872:1 964:2 996:1 1043:5 1064:2 1075:2 1138:6 1188:1 1319:1 1330:1 1405:1 1653:1 1740:1 1781:1 1795:3 1865:1 1910:1 1980:1 2056:1 2057:1 2149:2 2270:1 2463:2 2849:1 3319:2 4020:1 4111:1 4176:1 4567:10 4797:5 5005:4 5643:2 5728:1 5934:1 5957:1 5991:1 6292:3 6322:7 6476:1 7000:1 7495:1 7778:1 8133:5 8832:1 #
-0.0039245350571364395059203999949204 374:1 1083:1 1200:1 1304:1 1791:1 2114:1 2149:2 3264:1 4176:2 6328:1 #
0.0039245350571364395059203999949204 263:1 380:1 471:1 712:1 947:1 1315:1 1374:1 1469:2 1549:1 1652:1 1740:2 1743:1 2458:1 2866:1 3143:1 3319:1 4567:2 4797:2 4844:1 5414:2 6024:1 6322:5 6568:2 7537:1 7850:1 9936:1 #
-0.0039245350571364395059203999949204 181:1 953:1 1000:1 1740:1 #
-0.0039245350571364395059203999949204 18:2 67:1 170:1 185:2 284:2 329:1 506:1 712:1 726:2 847:1 1241:1 1579:1 1700:1 1738:1 1787:1 2003:1 2195:1 2683:1 2765:1 3674:1 4567:1 4650:2 4692:2 4797:1 5549:1 6292:1 7000:2 7194:1 7362:2 8270:1 #
0.0039245350571364395059203999949204 58:1 243:1 306:1 329:1 584:1 757:1 827:1 1579:2 1740:1 2605:2 3824:1 4536:1 4797:1 6322:2 6328:2 8510:1 #
0.0039245350571364395059203999949204 47:1 331:1 422:2 550:1 673:2 872:1 953:1 1177:1 1795:1 2683:1 2825:1 4176:1 4389:1 4797:1 5503:3 6322:2 6549:1 #
0.0039245350571364395059203999949204 6:1 199:1 312:1 341:1 377:2 422:1 500:1 508:1 534:1 557:1 597:1 681:1 712:1 726:1 872:1 991:1 1056:2 1304:2 1442:1 1468:1 1579:1 1678:1 2829:2 4567:4 4797:1 5207:1 6024:3 7702:1 #
0.0039245350571364395059203999949204 576:1 1094:1 1304:1 1462:1 1500:1 1579:2 1855:1 2683:1 4567:5 4797:1 5005:3 6292:2 6328:1 7495:1 #
0.0039245350571364395059203999949204 301:1 394:1 927:1 984:2 4567:2 6322:1 #
-0.0039245350571364395059203999949204 13:1 15:1 17:1 29:1 176:1 182:1 218:2 317:1 329:2 342:1 387:1 405:1 459:1 485:1 506:2 657:1 712:2 715:1 847:1 1216:1 1288:1 1442:1 1579:1 1704:1 1740:1 1898:1 2093:1 2285:1 2765:1 3451:1 4389:1 4567:5 4797:2 4997:1 5546:1 6322:2 8133:1 #
-0.0037158665728649394738303257668122 47:2 240:1 264:3 277:1 294:1 295:1 342:1 375:1 405:1 485:1 506:1 585:1 667:1 697:1 712:1 1056:1 1102:1 1149:1 1168:1 1177:1 1294:1 1377:1 1443:14 1578:1 1579:4 1779:1 1851:1 1963:1 2263:4 2631:1 2724:5 2755:2 2880:1 3105:4 3313:1 3673:1 4208:1 4567:4 4797:2 5577:1 6222:1 6322:4 6328:2 6988:1 7000:1 7179:1 7253:1 7778:1 8151:1 8219:1 #
0.0039245350571364395059203999949204 23:1 84:1 200:1 294:1 427:1 726:1 1654:1 1704:1 2512:1 2683:2 2829:1 6549:1 #
0.0039245350571364395059203999949204 3319:2 #
-0.0019988627497057515937373128878107 38:1 85:1 171:1 190:2 199:1 209:1 292:1 339:1 347:1 382:1 428:1 445:1 465:1 493:1 500:1 537:2 557:2 597:1 757:1 930:4 996:1 1133:1 1146:1 1177:5 1304:1 1488:2 1513:1 1579:2 1789:1 1795:1 1877:1 1967:1 2211:1 2318:1 2643:1 2648:1 2683:1 2931:1 3081:1 3283:2 3319:1 3439:1 3614:1 4379:1 4567:6 4614:1 4797:2 5003:2 5474:1 5689:1 5934:1 6322:5 6328:1 7000:1 7194:2 7495:1 7983:1 8397:1 #
-0.0039245350571364395059203999949204 198:1 405:1 673:2 953:1 1177:4 1259:3 1304:1 1549:3 1609:4 2135:3 2931:3 3283:1 4471:1 5449:1 6549:2 7000:5 8133:1 #
-0.0039245350571364395059203999949204 41:1 47:1 206:1 209:1 264:1 327:1 459:1 480:1 537:1 557:2 726:1 908:1 987:1 1094:1 1304:1 1489:1 1507:1 1513:1 1738:1 1877:1 2683:1 2824:1 3319:2 4567:1 4797:1 6024:1 6322:5 6853:1 7000:2 7194:1 7495:1 8133:1 #
0.0039245350571364395059203999949204 29:2 194:1 327:1 339:1 405:1 681:2 726:1 1064:1 1304:1 1322:1 1579:1 1740:1 1932:1 2237:1 2658:1 2864:1 2944:1 3118:1 3275:1 4525:1 4567:3 4797:1 5005:1 6322:4 7000:1 7495:1 #
0.0039245350571364395059203999949204 742:1 2019:2 5799:2 #
0.0039245350571364395059203999949204 29:1 110:1 123:1 128:1 140:1 143:2 306:1 329:2 349:2 367:1 453:1 510:2 634:1 662:1 666:1 726:1 742:1 951:1 953:1 1003:1 1083:1 1124:1 1138:1 1177:1 1259:1 1268:1 1300:1 1304:2 1405:1 1449:1 1694:1 1779:1 1793:1 1910:2 2086:1 2254:1 2270:1 2463:1 3167:1 3751:2 3758:1 3822:1 4089:1 4176:2 4389:2 4567:6 4793:2 4797:3 5005:3 5531:1 6322:6 6659:1 8133:1 #
-0.0039245350571364395059203999949204 199:1 1084:1 1234:1 1428:1 4188:1 4903:1 5287:1 7495:1 8864:1 #
0.0039245350571364395059203999949204 168:3 179:2 199:3 219:1 262:1 268:1 317:1 495:1 561:1 667:1 847:5 951:3 987:1 1177:1 1294:4 1335:4 1377:1 1412:1 1486:1 1551:4 1579:2 1624:1 1740:3 1788:1 2008:2 2213:3 2395:3 2932:1 2972:3 3266:3 3319:1 4567:4 4773:6 4797:2 5005:5 5970:4 6292:4 6322:2 7449:1 8176:4 8529:1 #
0.0039245350571364395059203999949204 355:1 953:1 1740:5 4537:1 4755:3 6292:1 7746:1 #
-0.0039245350571364395059203999949204 29:2 264:1 697:1 953:1 1056:1 1213:1 1241:2 1599:1 1910:1 6328:1 6663:1 #
0.0039245350571364395059203999949204 220:1 229:1 681:1 697:1 872:1 1160:1 1241:2 1462:1 1795:1 4389:2 4567:1 4797:1 5934:1 #
0.0039245350571364395059203999949204 4:1 808:1 953:1 1060:2 1259:2 1324:1 #
0.0039245350571364395059203999949204 510:1 557:1 576:1 1087:2 2048:1 2724:1 #
-0.0039245350571364395059203999949204 41:1 58:1 329:1 485:1 557:1 603:1 657:1 681:1 685:1 772:1 829:1 927:1 1160:1 1177:3 1215:1 1267:1 1505:2 1579:1 1740:1 1787:1 2353:1 2731:1 2752:2 2829:1 3118:2 3281:1 3457:1 3882:1 3902:1 4567:4 4713:1 4797:1 5143:1 5934:1 7000:1 7778:5 8133:2 #
-0.0039245350571364395059203999949204 4:2 206:1 329:1 331:1 337:1 345:1 485:1 673:1 722:2 824:1 951:1 1056:1 1078:1 1121:2 1177:1 1188:1 1227:1 1304:1 1795:1 1882:1 2409:1 2849:1 4797:3 6024:1 6292:1 6341:1 7000:1 8133:1 #
-0.0039245350571364395059203999949204 84:1 190:2 277:2 329:1 422:1 508:1 673:1 681:1 684:1 722:1 953:2 1280:1 1377:1 1483:1 1579:3 1740:1 1788:1 2643:1 2731:6 2829:1 3319:1 4567:5 4797:2 6023:2 6322:5 7000:1 7702:1 7947:1 #
-0.0039245350571364395059203999949204 4:1 6:7 85:1 100:1 140:1 190:1 199:1 367:1 427:1 465:1 509:1 514:1 656:1 709:1 712:1 757:1 811:1 872:3 880:1 927:1 951:1 969:1 971:1 1043:3 1103:1 1113:1 1114:1 1138:1 1168:1 1177:2 1315:2 1322:1 1436:1 1468:3 1538:1 1639:1 1777:1 1795:2 1976:1 2142:1 2549:1 2640:3 2643:1 2829:1 2932:3 3118:1 3319:3 3538:1 4394:3 4567:8 4797:1 6082:1 6140:1 6261:1 6322:8 6568:1 6780:1 6830:1 7000:1 7103:1 7211:1 7495:1 8133:1 8397:1 #
-0.0039245350571364395059203999949204 67:1 185:2 329:1 377:1 485:1 506:1 534:1 557:1 722:1 813:1 872:1 996:1 1057:1 1058:1 1196:1 1315:1 1318:1 1405:1 1579:2 1592:1 1795:1 2236:1 2591:1 2754:1 2829:1 3010:1 3300:3 3788:1 4567:2 4785:1 4797:3 6024:1 6322:1 6328:1 6639:1 7000:2 7062:1 7278:1 7366:1 7544:1 8244:1 8271:1 8989:1 #
-0.0039245350571364395059203999949204 29:4 38:1 42:2 132:1 275:1 329:4 377:1 382:1 448:1 485:1 490:1 534:1 575:1 591:2 597:1 603:1 722:1 984:1 986:2 1000:1 1294:1 1304:3 1579:5 2604:1 2645:1 2731:1 2825:1 2829:1 2932:1 3319:1 4114:1 4567:4 4797:8 5248:1 5414:3 6024:1 6322:8 8318:1 #
-0.0039245350571364395059203999949204 1:1 67:1 190:2 219:1 324:1 367:2 428:1 459:1 534:1 591:1 1177:4 1241:2 1259:2 1288:1 1377:2 1579:1 1846:1 2108:1 2149:1 2463:1 2643:2 2829:1 2883:1 3319:3 3459:1 4567:4 4773:1 4859:1 5107:1 5262:1 5934:2 6322:1 6639:1 7062:1 7778:1 8133:1 8271:1 8869:1 #
-0.0039245350571364395059203999949204 597:1 654:1 656:1 726:1 1056:1 1177:4 1188:1 1215:1 1795:1 2683:1 3247:1 3319:1 5934:2 7645:1 #
-0.0039245350571364395059203999949204 26:1 172:1 208:2 327:1 367:1 394:1 557:1 597:1 667:1 681:1 684:1 697:1 984:1 1245:1 1259:1 1304:2 1312:1 1503:1 1599:1 1787:1 1939:1 2057:1 2107:1 2213:1 3319:1 4107:1 4567:3 4718:1 4797:3 5005:1 5694:1 6292:1 6322:3 7194:1 #
-0.0039245350571364395059203999949204 29:1 100:2 199:1 205:1 332:4 336:1 377:2 453:1 699:1 867:1 896:1 1069:1 1088:2 1124:1 1177:1 1311:1 1393:1 1551:1 1566:1 2099:2 2353:1 2455:1 3081:1 3096:1 3212:1 3319:1 3784:1 3822:1 4114:2 4567:1 4797:3 5343:1 6292:1 6322:4 8133:1 8177:1 8832:2 #
-0.0039245350571364395059203999949204 317:1 329:2 478:1 510:1 534:3 673:1 726:1 739:1 969:1 996:1 1030:1 1177:3 1304:1 1738:2 1795:1 1815:1 1910:1 1963:1 2093:1 2278:2 2394:1 2643:2 2881:1 3120:1 4176:1 4389:1 4431:1 4567:6 4735:4 4797:4 5147:1 5262:1 5639:1 6227:1 6322:3 6549:3 6568:2 7000:2 7495:2 7679:1 7979:1 8133:4 8202:1 8832:1 8869:1 #
0.00023086444676635186376394137663937 111:2 140:1 294:1 405:1 495:1 657:1 808:1 953:2 971:1 1738:1 2213:1 2683:2 5005:1 6322:1 6632:1 7495:1 #
-0.0039245350571364395059203999949204 38:1 67:1 162:2 172:1 181:2 199:1 202:1 206:1 345:1 405:1 422:1 465:1 603:1 673:1 681:1 712:2 726:1 914:1 1043:1 1056:1 1094:2 1118:1 1304:2 1319:1 1377:4 1441:1 1579:1 1613:1 1795:2 2170:1 2395:2 2651:1 2683:2 2829:2 3319:3 4188:1 4567:2 4797:1 6024:1 6322:2 7495:2 8180:1 #
-0.0039245350571364395059203999949204 100:1 194:1 341:1 342:1 447:2 717:1 953:2 1074:1 1177:2 1184:1 1241:2 1377:1 2631:1 2683:1 3319:4 3520:1 3862:1 3902:1 4389:2 4567:2 5503:1 6223:1 6292:1 6658:1 7495:2 #
-0.0039245350571364395059203999949204 30:1 83:1 98:1 206:1 227:2 306:1 329:1 355:2 422:1 459:1 557:2 712:1 743:1 824:1 872:1 1064:1 1133:1 1149:1 1177:1 1377:1 1410:2 1544:1 1598:2 1738:1 1740:1 1791:1 2067:1 2316:1 2631:1 2683:1 2744:3 2765:1 3281:1 3653:1 3778:1 4176:2 4389:2 4603:1 4793:1 4797:1 4844:1 6322:2 7000:1 7194:1 8133:3 8397:1 #
-0.0039245350571364395059203999949204 67:1 140:1 557:1 685:1 953:1 1056:1 1495:1 1579:2 1808:1 1910:1 2295:1 2683:1 4234:1 4567:2 6322:1 8180:1 #
-0.0039245350571364395059203999949204 199:1 204:3 219:1 243:2 329:1 534:1 712:1 757:1 1028:1 1177:2 1672:1 1738:1 1877:1 1932:1 2086:1 2395:1 3141:1 3319:1 4176:3 4389:3 4797:2 5005:1 5549:2 6322:1 8133:2 #
